Q1222382 0.49691492319107056 -0.27516767382621765 1.4926903247833252 -0.7388227581977844 1.0891392230987549 -0.26875025033950806 1.6773009300231934 0.8028052449226379 1.3021174669265747 -0.19808417558670044 -1.6792491674423218 -0.1556377112865448 -0.7656922936439514 1.201918125152588 0.7354527115821838 0.2911806106567383 1.057997703552246 0.5504449605941772 2.608355760574341 -0.12049231678247452 -0.3834746778011322 0.7539392709732056 0.8117508292198181 0.8005345463752747 -0.9303900599479675 1.046533226966858 0.10847699642181396 -0.07301928848028183 0.744701087474823 0.8652483820915222 -1.8236619234085083 -1.1490466594696045 -0.7720752358436584 0.07327882945537567 -0.7468323707580566 -0.6164066195487976 0.41419580578804016 -0.6542062163352966 -0.44649967551231384 1.3154219388961792 0.8296146988868713 1.2870373725891113 1.1294746398925781 -1.1864479780197144 -2.3543784618377686 -0.2925918698310852 -1.2352769374847412 0.500863254070282 0.2862127423286438 0.5423829555511475 0.1854301244020462 1.3976221084594727 0.09205388277769089 -2.1712515354156494 1.7213245630264282 -0.06996995955705643 0.20654022693634033 -1.5086374282836914 -0.38892078399658203 1.3524553775787354 -0.7080285549163818 -0.11546577513217926 -0.08841753751039505 -0.8501161932945251 -1.2928862571716309 0.4657633304595947 0.07710328698158264 1.441735029220581 1.3273534774780273 0.06742566078901291 0.4352329671382904 -0.9562366008758545 -2.2779784202575684 0.15550512075424194 -1.498123049736023 0.08349193632602692 -1.1291427612304688 -0.4335721433162689 -2.405646562576294 1.1702110767364502 -1.607772707939148 -2.1660232543945312 -0.8603144288063049 -0.042194537818431854 0.21719519793987274 1.136297345161438 -2.325975179672241 -0.5416893362998962 -0.5949356555938721 0.9090986847877502 -1.3854663372039795 -0.06662329286336899 0.45437631011009216 -0.6122420430183411 0.3076516389846802 0.20827271044254303 0.5370713472366333 0.33625200390815735 0.8910908102989197 0.46731510758399963 0.13154414296150208 -0.5876006484031677 -1.0415407419204712 -1.136940360069275 -0.8074000477790833 0.8034485578536987 -0.35652515292167664 0.695388913154602 -1.0664429664611816 -0.45992693305015564 -1.094414234161377 -0.37524962425231934 -1.4089077711105347 0.3919033706188202 -1.5833500623703003 -0.9761616587638855 1.3735650777816772 0.5587518215179443 -0.9270519018173218 0.5739234089851379 0.9336249828338623 0.8700727224349976 1.3696666955947876 0.28468388319015503 -0.5274342894554138 0.1160445362329483 1.519854187965393 0.3018524944782257 -0.3382931351661682 -1.158379316329956 0.5045014023780823 1.456467866897583 0.6700804829597473 -0.06499078869819641 0.6525099277496338 0.1424272060394287 0.40773308277130127 -1.6831847429275513 1.2341691255569458 0.5445908904075623 1.772118091583252 -0.9476540684700012 1.7780194282531738 0.3904011845588684 0.65095454454422 0.24970881640911102 0.6791501641273499 -0.14757391810417175 -0.09930812567472458 0.5599738359451294 -0.050594262778759 0.36578381061553955 2.8547956943511963 -2.4688642024993896 0.28045448660850525 0.866712749004364 -1.5973390340805054 -0.04268341511487961 -0.9783399105072021 0.25286829471588135 2.782947301864624 -0.4376889169216156 0.4672253131866455 -0.27333617210388184 -1.2563602924346924 -0.9686071276664734 -0.5902881622314453 -0.40272942185401917 1.1906564235687256 -0.802954912185669 0.0783870592713356 -1.0435385704040527 1.2489553689956665 -0.877143383026123 -0.7863789796829224 0.2283560335636139 0.17432591319084167 -0.15890520811080933 0.1127149909734726 -0.08469541370868683 -2.0113070011138916 0.33713555335998535 -2.01157546043396 -0.1993238627910614 -0.2437591552734375 0.3630732297897339 0.7450301647186279 0.9427317976951599 -3.491443395614624 0.4526676833629608 -0.9256554245948792 0.05607329681515694 -0.3321191072463989 -0.9949013590812683 -0.8009008169174194 -0.03436111658811569 1.8145556449890137 0.7584929466247559 2.3432564735412598 -2.3317928314208984 -0.44112440943717957 -0.034365635365247726 -0.8821671009063721 1.6463831663131714 0.7086873650550842 -1.865734338760376 -1.585524082183838 0.6824070811271667 0.09783608466386795 -2.324888229370117 -0.15936073660850525 -0.6555579304695129 0.7885106801986694 1.7370542287826538 -1.3238784074783325 0.4568137228488922 2.4504098892211914 -0.2219582051038742 -0.824880063533783 -1.0700066089630127 -0.40092557668685913 -1.5784642696380615 0.5374779105186462 0.7036406993865967 -1.4072774648666382 1.4894412755966187 -0.1951337456703186 0.05183311179280281 -0.10709355026483536 1.3029398918151855 0.6860052943229675 1.183388590812683 -1.2486732006072998 0.15178577601909637 1.005953311920166 -1.5156617164611816 -0.10982318967580795 0.28524741530418396 0.9315536618232727 0.7370045781135559 0.7233670353889465 0.39740249514579773 -0.38206231594085693 -1.0905097723007202 -0.6385642290115356 1.6499779224395752 0.4298667311668396 -1.0810461044311523 1.186449408531189 -1.961144208908081 -1.0275471210479736 -0.48776498436927795 -0.4778979420661926 -1.9621134996414185 0.28863832354545593 -0.5880162715911865 -0.2085903435945511 2.010526657104492 -0.8555320501327515 0.38019052147865295 -1.4851007461547852 0.08973020315170288 -0.9426338076591492 0.8170637488365173 0.09631235897541046 1.1391067504882812 0.27539071440696716 -0.21535436809062958 -0.3193013668060303 -1.9161747694015503 1.7611517906188965 1.5291633605957031 0.5391600728034973 1.5889630317687988 -0.5558503270149231 -0.008982980623841286 -0.19963538646697998 0.6560522317886353 -0.944412887096405 -0.14700983464717865 -0.8092846870422363 -0.6386135220527649 0.19697248935699463 0.33086097240448 -0.43614909052848816 -0.4069722890853882 -0.7605277299880981 -0.9150256514549255 1.1370532512664795 1.3938555717468262 -0.16680242121219635 -1.6207644939422607 -0.6311877965927124 0.030675139278173447 0.011309257708489895 -1.725725769996643 1.1057281494140625 0.3906210958957672 1.5084912776947021 1.3706539869308472
Q61051 -0.15043510496616364 -0.5425818562507629 1.1945511102676392 -0.9485164284706116 1.20126211643219 1.1914420127868652 0.1273876130580902 -0.41753697395324707 0.30191972851753235 -1.6201622486114502 -1.355442762374878 -0.5501099228858948 1.3385425806045532 -0.07940766215324402 0.19291932880878448 -0.10933353006839752 -0.40185290575027466 0.39856621623039246 -0.6733072996139526 1.663556694984436 1.1997076272964478 0.6148235201835632 0.4392330050468445 -0.2314436286687851 -0.1306583434343338 -0.7292187809944153 -1.6449322700500488 0.21546418964862823 0.6086588501930237 1.8405790328979492 0.4372478127479553 0.6204657554626465 0.4491153061389923 -1.1082863807678223 -1.553748369216919 -1.020556926727295 0.6994622945785522 0.7694045901298523 -1.1311877965927124 -0.5543882846832275 0.9066028594970703 1.5196585655212402 -0.6079393625259399 -0.5904213190078735 -1.1730064153671265 -0.46331819891929626 0.7048763632774353 0.6341408491134644 0.07495705038309097 0.3700098693370819 0.6956379413604736 -0.42557409405708313 0.5925907492637634 -2.397960662841797 -0.1690235584974289 0.9241974353790283 0.33249810338020325 -0.05472078174352646 1.0026917457580566 0.5497416257858276 0.2729859948158264 0.7627038955688477 0.79461270570755 -0.058787211775779724 0.9863463044166565 -0.2544211447238922 1.7129307985305786 1.1196430921554565 1.8346422910690308 0.3248583674430847 0.17229004204273224 -0.09943106770515442 0.2826397716999054 0.308200865983963 -0.6856338977813721 0.17823942005634308 -1.9309916496276855 -0.5564940571784973 -2.126692771911621 -0.6710314154624939 0.4623265862464905 0.4059634208679199 0.13242702186107635 -0.43346574902534485 -0.6312843561172485 1.4986103773117065 -1.6742281913757324 0.6091670393943787 1.167975902557373 0.4945335388183594 -1.327502727508545 -0.39870011806488037 -0.8386131525039673 1.8072834014892578 0.3473711907863617 0.4483874440193176 -0.3420500159263611 0.27332204580307007 -0.4806044399738312 0.8641930222511292 1.9078271389007568 -1.3663874864578247 -0.47841957211494446 -0.4214089512825012 0.4656182527542114 0.8281354308128357 -1.0248749256134033 0.37869006395339966 0.3721972405910492 -1.1879968643188477 -0.2319667786359787 -0.018612409010529518 -0.02232205867767334 -0.7269752025604248 -0.42644166946411133 -0.2972310185432434 1.7548569440841675 1.6334258317947388 -1.6503887176513672 -0.6689348220825195 0.07691449671983719 0.34898629784584045 -0.25166943669319153 -2.3406622409820557 0.056180983781814575 0.30533769726753235 1.9563723802566528 -0.6384156346321106 0.31415343284606934 -0.07724303007125854 0.44265201687812805 0.7216992378234863 0.5159555077552795 0.5871026515960693 -1.0989298820495605 0.4755103886127472 -0.4669504463672638 -0.9898865222930908 0.5411213636398315 0.37862876057624817 0.6362857222557068 0.22965173423290253 1.7723743915557861 0.5789998173713684 0.33645814657211304 -0.41813239455223083 -0.8901733756065369 -0.4954829514026642 0.1822226345539093 -1.2652124166488647 -0.745421826839447 0.9135423302650452 1.384333848953247 -2.253757953643799 -0.2528040111064911 -0.11723041534423828 0.045627836138010025 -0.9184136390686035 1.2171730995178223 -0.6268282532691956 0.4027343690395355 -0.856465220451355 0.7417146563529968 0.23744931817054749 -0.8153029680252075 -1.8530948162078857 0.4033070206642151 -1.0596951246261597 0.12209731340408325 -0.7326403260231018 0.9504452347755432 -0.5037360787391663 1.9546014070510864 1.3528002500534058 -1.3564091920852661 -0.43523117899894714 -0.5993099808692932 0.7545447945594788 -1.71217679977417 0.2595781087875366 1.569043755531311 0.3644215166568756 0.43631407618522644 -0.643015444278717 -0.1596558541059494 0.9068001508712769 -0.23670515418052673 0.5814242959022522 -1.3039151430130005 -0.10130713135004044 -0.22031600773334503 -0.44744300842285156 0.13599836826324463 -0.7666981220245361 0.22353528439998627 0.2756986618041992 1.1049336194992065 1.3560007810592651 1.651311993598938 -1.232621669769287 -1.8328746557235718 0.7102989554405212 -1.470438003540039 1.0593255758285522 0.9892594218254089 -1.044762134552002 -1.1609458923339844 -0.390301913022995 0.7939638495445251 -1.761319637298584 0.6029741168022156 -0.8347986936569214 -0.3759196996688843 0.6945229172706604 -1.1188185214996338 1.436822533607483 0.3210783004760742 -0.6886876821517944 -0.48230355978012085 -0.4566999077796936 -0.44610586762428284 0.05378468707203865 0.3297690749168396 0.5427237749099731 -1.4217705726623535 0.7181386351585388 0.12447622418403625 -1.5374245643615723 -1.320497751235962 0.4914318025112152 -0.46079885959625244 -1.181082010269165 1.5832191705703735 -0.6017938256263733 -0.05968666449189186 0.7796702980995178 0.7065541744232178 -0.021592343226075172 -0.2862851023674011 0.6752675175666809 0.8026101589202881 -0.05410176143050194 0.6498125791549683 0.7369793653488159 -0.6915026307106018 2.97377610206604 0.25628113746643066 -1.0148851871490479 -0.3401887118816376 -1.7572847604751587 -0.4174186885356903 -0.5836103558540344 -0.720162034034729 -0.3561580777168274 2.589991807937622 -0.19611258804798126 1.642415165901184 0.6617621183395386 -0.732643723487854 -0.379030704498291 -0.11874625086784363 -1.1034811735153198 -0.4915502965450287 0.23857465386390686 0.7457036972045898 -0.1371767669916153 0.2986129820346832 -0.8375511169433594 1.3601473569869995 0.6192525625228882 1.3277246952056885 0.22928258776664734 -0.7029196619987488 0.8513048887252808 -1.000117301940918 -1.7386373281478882 0.2198144644498825 1.3833746910095215 -1.2861465215682983 0.14576536417007446 -0.44298967719078064 0.012850421480834484 2.1703038215637207 0.004321285989135504 -0.6817323565483093 -0.12407884001731873 0.17777495086193085 -0.48682743310928345 0.10640403628349304 -0.879601240158081 0.5408555269241333 0.6382171511650085 -1.3143174648284912 -0.14222076535224915 0.17955420911312103 -0.8077100515365601 2.2202932834625244 1.46273934841156 1.4639689922332764 1.6878405809402466
Q7477615 0.34665417671203613 1.9451714754104614 1.5353667736053467 -1.2445545196533203 1.4933280944824219 -0.07368233054876328 0.7449697852134705 0.46483731269836426 0.591524600982666 -1.0150026082992554 -2.2004342079162598 0.8748593926429749 -0.788424551486969 -0.7110252380371094 -0.4160271883010864 1.0861576795578003 1.9031065702438354 1.7056020498275757 0.5586392283439636 -0.33183348178863525 1.160138487815857 0.36493849754333496 1.9161659479141235 0.5894652605056763 -0.5625284910202026 -0.85420161485672 -0.4126596748828888 1.1653441190719604 0.1662551313638687 0.9967670440673828 -0.9478632807731628 -2.414118766784668 -0.5211129188537598 -0.8750583529472351 -1.6379867792129517 -0.4580416977405548 0.5512142181396484 1.538474440574646 -0.510852575302124 -0.27790558338165283 2.760236978530884 2.020892858505249 0.09287595003843307 -2.1440131664276123 -0.621954619884491 -0.8631201386451721 -2.7213363647460938 0.2928445637226105 0.49512261152267456 0.23201517760753632 0.6604028344154358 0.41442036628723145 -0.23281970620155334 -1.062359094619751 0.8063550591468811 0.7728164196014404 1.2700077295303345 -1.370965838432312 0.5718594193458557 0.8730434775352478 -1.025533676147461 0.4642943739891052 1.53603994846344 -0.8651440739631653 0.22385354340076447 1.7702758312225342 0.3778662085533142 1.5721657276153564 0.5509158372879028 0.8040030002593994 -1.953036904335022 -0.9441684484481812 -1.7319265604019165 0.8266114592552185 -2.023242235183716 0.46093377470970154 -1.6926518678665161 -0.06907204538583755 -1.4486199617385864 0.6521641612052917 -1.2396692037582397 0.6065989136695862 0.2521316409111023 -0.5636321306228638 -1.251738429069519 0.08250602334737778 -0.2552284896373749 -0.8459575772285461 -1.1135083436965942 -0.5127569437026978 1.6208068132400513 -1.7707539796829224 1.2796952724456787 -0.034951359033584595 -0.897018313407898 1.4474822282791138 0.4514412581920624 0.0929272323846817 0.3890080749988556 0.22398215532302856 -1.4050734043121338 -2.242184638977051 0.2449609935283661 -0.21384087204933167 -1.7469364404678345 1.2562624216079712 0.790395200252533 1.475199580192566 0.43324607610702515 0.054375503212213516 -1.1301233768463135 1.4046976566314697 0.45492085814476013 -0.05418765917420387 -1.3490772247314453 0.8093617558479309 -0.7808215618133545 0.38633468747138977 0.04387298971414566 1.2155377864837646 -1.4243782758712769 0.5453436970710754 -1.048877477645874 0.19072729349136353 0.8293588757514954 -0.1506616175174713 1.0852757692337036 0.6752642393112183 1.0341204404830933 -1.5174826383590698 1.0376315116882324 0.1017966940999031 0.9480374455451965 -0.44132599234580994 -1.066212773323059 -0.19063270092010498 0.9216547012329102 0.8092547655105591 -0.9909840226173401 0.1683991700410843 0.9214773178100586 0.3260701894760132 1.2459132671356201 -1.0536248683929443 0.9557918906211853 0.470872700214386 0.3620295226573944 -0.3467622399330139 -0.9842914342880249 0.2962661683559418 -1.431963324546814 -0.16116702556610107 1.39020836353302 -0.16680678725242615 -0.23466935753822327 0.3487366735935211 1.0598196983337402 -0.4061233401298523 -0.08998318761587143 1.4169039726257324 -0.0557677298784256 -0.21456216275691986 0.04636537283658981 0.10360273718833923 -1.4463845491409302 -2.222135066986084 0.32781460881233215 -0.3704774081707001 0.3609689772129059 -0.9674785733222961 0.4343920350074768 0.778630793094635 1.376977562904358 -0.8685129284858704 -1.4178720712661743 -0.6972339153289795 1.4109569787979126 -0.18033531308174133 -1.4635645151138306 -0.7912658452987671 -0.8286236524581909 0.3484762907028198 0.5828310251235962 -0.90142822265625 -0.03429171070456505 1.0391849279403687 0.08594921231269836 1.6138784885406494 -1.075316309928894 0.44402918219566345 -1.0356100797653198 -0.8663731813430786 -0.5509673953056335 -1.141147494316101 0.10311365127563477 0.33382925391197205 1.8722445964813232 0.17797695100307465 0.4765037000179291 -0.08659963309764862 -0.8215743899345398 1.4578654766082764 -0.1517888903617859 -0.32988956570625305 1.047993540763855 0.11073572933673859 0.7649441957473755 0.8809069991111755 0.6842571496963501 -2.282515048980713 0.6189231872558594 -2.07643723487854 1.3835201263427734 -0.09785031527280807 -0.6398203372955322 1.0453912019729614 0.8523523211479187 0.7070541977882385 -0.05393082648515701 -2.2352325916290283 0.7570450305938721 -1.3519316911697388 -0.27303630113601685 0.8757708072662354 -2.871966600418091 1.6427967548370361 -0.6482267379760742 0.05201612785458565 -1.2278906106948853 -0.4725131094455719 -0.772976279258728 0.7528214454650879 -1.2898468971252441 -2.537911891937256 0.4236435890197754 -0.968512237071991 -0.594023585319519 0.7577310800552368 0.058995574712753296 -0.8318498730659485 0.34359675645828247 0.9009251594543457 -0.4098852872848511 -0.20976057648658752 -0.5590038895606995 1.5282363891601562 -0.4960332214832306 0.1940542757511139 -1.2824110984802246 -0.8880251049995422 -0.49987971782684326 -0.8052065372467041 0.7661595344543457 -1.7375845909118652 0.20459550619125366 -0.8242399096488953 0.2297505885362625 -1.3225024938583374 -1.6002203226089478 0.7464040517807007 -0.7366346716880798 0.4477016031742096 -0.18981222808361053 0.913245439529419 -0.441749632358551 0.4579353630542755 0.45131248235702515 -0.3569609820842743 0.5859113931655884 -0.6458158493041992 1.5299211740493774 1.2620238065719604 0.00373045913875103 -0.31378260254859924 1.3555938005447388 -0.2839239537715912 0.37725555896759033 -1.6890653371810913 -1.2125484943389893 1.6899856328964233 -0.2961846888065338 0.900617778301239 1.6317100524902344 0.9912160038948059 1.4186068773269653 -0.30218756198883057 -2.043360710144043 -0.3870205581188202 0.6695342659950256 0.07879025489091873 -1.621246337890625 1.0202521085739136 -0.4115203320980072 0.6406651139259338 1.0288174152374268 0.3741144835948944 0.9235424995422363 1.9958772659301758 -0.19972530007362366 0.681833803653717
Q696432 -0.6505832672119141 0.22327718138694763 1.4846534729003906 -1.0302655696868896 0.751879870891571 -0.9923123717308044 -0.08844456821680069 0.953417956829071 0.3068089783191681 -1.9955334663391113 -0.7739925980567932 0.5659286379814148 -0.4227350652217865 -0.6957076787948608 1.283709168434143 0.978646457195282 0.6525542736053467 -0.1671389490365982 0.5076614618301392 -0.3814554214477539 0.31772151589393616 -1.1375964879989624 1.1398721933364868 -0.07770300656557083 -1.4387578964233398 -1.9013762474060059 -0.7505956292152405 0.2866620421409607 1.470690369606018 0.744975745677948 -0.6242974400520325 0.042243920266628265 0.6504518985748291 -0.9593262076377869 -0.9451644420623779 -2.178802251815796 -0.22479091584682465 -0.09562503546476364 0.2926222085952759 0.24868156015872955 -0.8897531032562256 1.1739751100540161 1.1637834310531616 -1.6646218299865723 -0.521639347076416 0.5965441465377808 -2.4636127948760986 1.155192494392395 0.562680184841156 -0.9543203115463257 0.8925370573997498 0.757502019405365 -0.4462757706642151 -0.6428201794624329 0.5690571069717407 0.2639424204826355 -0.5726596713066101 -0.1026058942079544 -0.7927559614181519 1.0334075689315796 0.6274151802062988 -1.1534518003463745 0.8521464467048645 -0.5434104800224304 -0.1817539781332016 1.5140116214752197 0.11429669708013535 -0.8183326721191406 1.8615118265151978 -0.16776342689990997 -1.4221205711364746 -0.537141740322113 -0.02238602004945278 0.021969612687826157 -1.2376959323883057 0.1883978247642517 -0.7284431457519531 -0.17828942835330963 -1.3227766752243042 1.1856015920639038 -0.915862500667572 0.20043955743312836 -0.5068194270133972 -0.2039540559053421 -0.47865137457847595 -0.6273247003555298 -0.5868237614631653 -0.3479733169078827 -1.1256091594696045 -0.9405515193939209 0.128585547208786 -1.5107076168060303 -0.0761464461684227 -1.0574138164520264 1.253243327140808 0.10791115462779999 0.10680661350488663 -0.44537353515625 0.5184226036071777 0.9346215724945068 -1.0540320873260498 -2.657874822616577 0.22290532290935516 0.5031620860099792 -0.23538269102573395 -1.3187834024429321 -0.29371267557144165 1.255609154701233 -0.4167371392250061 0.6134105324745178 -1.264348030090332 -0.4402976930141449 -1.5645954608917236 -0.46655043959617615 -1.839361310005188 0.018771344795823097 1.705299973487854 0.6447205543518066 -1.606141209602356 -0.5676847100257874 -0.5887664556503296 0.10211577266454697 -0.8282989859580994 -0.03300422802567482 -1.6244478225708008 0.8544042706489563 -0.24656741321086884 0.3818851113319397 -1.5163369178771973 -0.6813052296638489 1.955162525177002 0.04023520275950432 1.469555139541626 -0.9005761742591858 -0.6096705198287964 -0.011888312175869942 0.048821356147527695 -1.9011605978012085 0.28142282366752625 0.8510060906410217 1.2807751893997192 -0.5285932421684265 0.9677890539169312 0.9094705581665039 0.7864841222763062 -1.4736768007278442 -0.9673243165016174 0.4182746708393097 0.48402345180511475 0.5186074376106262 -0.019820472225546837 0.04667094349861145 1.7107465267181396 0.06360294669866562 -0.4701647460460663 0.7592065930366516 -0.8510639667510986 -1.633177399635315 0.44206374883651733 0.6844826340675354 1.7504709959030151 -1.3506237268447876 0.5056596398353577 -0.027399903163313866 0.014685055240988731 -2.2421772480010986 -0.9654854536056519 0.5627062916755676 0.7472242712974548 -1.626603126525879 1.8496919870376587 -0.4701336622238159 0.7336709499359131 -0.07276186347007751 -2.7239646911621094 -0.30187034606933594 0.4435168206691742 -0.528300404548645 -2.2282450199127197 -1.594192385673523 0.6731163859367371 -0.14392608404159546 -1.3491442203521729 0.2583558261394501 -0.979302167892456 0.9821219444274902 0.5923736691474915 0.5108879804611206 -0.47245165705680847 1.2910244464874268 0.31114447116851807 -0.7050366997718811 0.09637972712516785 -1.1414824724197388 1.663468599319458 0.2709195017814636 0.7580327391624451 1.7676490545272827 1.9565790891647339 -1.859779715538025 -0.14476190507411957 -0.8272400498390198 -0.9784138798713684 1.201137900352478 1.2879425287246704 -1.4493813514709473 -0.595666766166687 0.6503596305847168 0.9412478804588318 -0.4757888913154602 -0.3242664635181427 -1.3846032619476318 1.6524444818496704 0.8117501139640808 -0.06881574541330338 0.815952479839325 2.598646402359009 -0.2273271530866623 -0.16908875107765198 -1.160372257232666 -0.6692429184913635 -1.16744065284729 0.801726222038269 -0.3850639760494232 -1.8030295372009277 1.304626226425171 -0.055365435779094696 -0.5073607563972473 1.1887439489364624 0.18505293130874634 0.17231664061546326 -0.8094096183776855 -0.1092003583908081 -1.0417348146438599 -0.1502850353717804 -0.3421964645385742 -0.20397286117076874 1.0826606750488281 0.47648629546165466 0.628530740737915 1.4563558101654053 0.4026636779308319 -0.002579395892098546 1.16889226436615 0.5548901557922363 1.4485324621200562 0.19363562762737274 -0.9955313801765442 -0.9620299339294434 -1.9138059616088867 -1.7449686527252197 -1.2724978923797607 0.01244058646261692 -0.4944891631603241 0.21956390142440796 -0.5226045846939087 -0.01183243002742529 0.444766104221344 -1.3275703191757202 0.4731195271015167 -0.328506201505661 -1.1813591718673706 0.848408043384552 1.0891766548156738 0.872410237789154 0.43107470870018005 1.1993935108184814 0.2855395972728729 2.5166547298431396 -0.15576089918613434 0.6731479167938232 2.182854652404785 0.7507161498069763 0.3588137924671173 -1.4092447757720947 0.8820969462394714 1.3256778717041016 0.6810437440872192 -1.720746636390686 0.36069750785827637 -0.2321111410856247 -0.5087549686431885 1.5533463954925537 -0.7717717885971069 0.7866554856300354 -0.45399752259254456 -0.648986279964447 -1.8709688186645508 -0.11642193049192429 0.8990216255187988 -0.7608252763748169 0.6758294701576233 0.11686214804649353 0.485258013010025 -0.420575886964798 -0.8752327561378479 0.34486478567123413 -0.45579659938812256 -0.03454003110527992 -0.08061562478542328
Q69346 -0.3472059369087219 1.2321200370788574 -0.1096135675907135 0.13854210078716278 1.1285680532455444 -0.5464221239089966 1.0028575658798218 0.3369559645652771 1.6414936780929565 0.31824570894241333 -0.8215754628181458 -0.8644469976425171 0.028431467711925507 -2.0864481925964355 -0.4206516146659851 -1.4103808403015137 0.06223050132393837 0.593276858329773 -0.4380267858505249 -1.1355993747711182 -0.23026788234710693 -1.095457911491394 1.6056535243988037 -0.11390457302331924 -2.6095476150512695 -0.34108513593673706 -0.6802403926849365 -0.23040570318698883 0.20339852571487427 2.6084775924682617 0.3441557288169861 -2.20308780670166 1.2317941188812256 0.2647550702095032 -2.3462789058685303 0.5176688432693481 -0.3668915629386902 0.3714737296104431 -0.5043313503265381 0.29751962423324585 1.5755137205123901 1.3025239706039429 0.7714146375656128 -1.180152416229248 -1.4592355489730835 -1.02732515335083 -0.8058856725692749 0.002573296893388033 -0.20246964693069458 -0.23982062935829163 -0.2511759102344513 -0.2065095454454422 -0.36626124382019043 -0.29671597480773926 -0.7830857634544373 0.347883403301239 1.0529862642288208 -0.6320775151252747 -0.17298822104930878 0.3592434227466583 -0.9608296155929565 0.54940265417099 0.3216187059879303 0.4781673550605774 -0.5040728449821472 -0.5964076519012451 1.1380976438522339 1.5884722471237183 -1.1708818674087524 -0.774186909198761 -0.3840114176273346 -0.6382996439933777 -1.0658646821975708 0.8884986042976379 -1.3842718601226807 0.3898506462574005 0.15753698348999023 0.20468319952487946 -0.2899913191795349 0.03949132189154625 0.8998242616653442 0.5086585283279419 0.755922794342041 -1.0331478118896484 -1.3133240938186646 -0.09516168385744095 -1.9737719297409058 -0.5831945538520813 -1.2476286888122559 -0.8674721121788025 -0.6919291019439697 -1.6851935386657715 -0.8171551823616028 0.1228259950876236 -0.7334252595901489 -0.13095153868198395 -0.14619359374046326 0.40278252959251404 1.6795129776000977 0.9319368004798889 -1.4812111854553223 -1.619106411933899 0.41139960289001465 -1.6823126077651978 -0.6031408905982971 -1.5878442525863647 -0.6610801815986633 1.370029330253601 -0.20577754080295563 1.302237629890442 -0.5984592437744141 0.7045418620109558 -1.0052101612091064 -0.552122175693512 -0.6257080435752869 -1.346397876739502 0.8978842496871948 0.8142580986022949 -1.1692386865615845 -0.86460942029953 0.9406614899635315 2.0731701850891113 0.1691989004611969 0.6685316562652588 1.0769047737121582 1.9662915468215942 1.263806700706482 -1.9998857975006104 -0.8833365440368652 -0.6528535485267639 1.4318042993545532 -0.21560139954090118 0.8735159039497375 -1.203950047492981 -0.4513026177883148 0.8727061748504639 -0.729288637638092 0.3172014355659485 -0.3552079200744629 1.211975336074829 2.10439133644104 0.9100624918937683 1.5085535049438477 -0.5887277126312256 0.2561706602573395 -0.48267945647239685 0.7477493286132812 -0.07399129122495651 -0.7403610944747925 -1.0971037149429321 0.3343591094017029 -1.0964162349700928 1.9884450435638428 -0.26161709427833557 0.4551159739494324 0.30092066526412964 0.6097376942634583 2.0324277877807617 -0.5390470027923584 0.9703800678253174 0.8301184773445129 0.2468455582857132 1.1522923707962036 1.491351842880249 0.8816298842430115 -0.7228209972381592 -1.7142537832260132 0.2845250368118286 0.6027287244796753 -0.5806868076324463 0.4104273319244385 0.3697161078453064 1.3908882141113281 1.0947774648666382 -1.9066543579101562 0.14518332481384277 0.014400876127183437 0.22768916189670563 -1.8735994100570679 -1.0560935735702515 1.414243221282959 0.2668437957763672 -1.1187113523483276 -1.0390602350234985 0.5253835320472717 0.5999718308448792 0.3418581783771515 0.8156112432479858 -0.31238505244255066 0.7146141529083252 0.9344571828842163 0.7182782292366028 0.6077561378479004 -0.3760760426521301 0.9668374061584473 -0.6564505100250244 0.6928638815879822 1.0084505081176758 1.0705418586730957 -2.116384506225586 0.6553434133529663 -0.5921575427055359 -0.651144802570343 -0.2244025617837906 0.15137790143489838 -0.5619161128997803 -1.4519048929214478 -0.05666743963956833 -0.8053179979324341 -2.7078444957733154 0.9550769329071045 -2.241837978363037 1.1597920656204224 -0.3010862469673157 -1.8171277046203613 -0.13399657607078552 0.3172686994075775 -0.33420777320861816 0.2895025908946991 -1.0457556247711182 -0.5923636555671692 -1.2494770288467407 -0.9367241859436035 0.6485109329223633 -1.5591423511505127 2.586688756942749 1.5923802852630615 0.465072363615036 1.0494288206100464 -0.3544919192790985 1.1900742053985596 0.4894641935825348 -0.14495022594928741 0.4065002202987671 0.030369846150279045 -0.616878092288971 -0.9148550033569336 0.54112309217453 -1.2969871759414673 2.083843946456909 0.90390545129776 1.0726927518844604 -0.2961096167564392 -0.18148566782474518 -0.344384104013443 0.03054492361843586 0.09583757817745209 1.0997692346572876 -0.9546573162078857 -2.20776629447937 -0.8593865036964417 -2.0710294246673584 0.5910489559173584 0.08939679712057114 -0.1796366274356842 -0.7344335317611694 1.1141139268875122 -1.2418006658554077 -0.04644635692238808 1.0159101486206055 0.08877649903297424 0.6555991768836975 0.4213678538799286 0.5825771689414978 -1.0546478033065796 0.9880654215812683 -0.12712840735912323 1.0843162536621094 0.6480608582496643 -1.2904412746429443 0.10722382366657257 0.1567326784133911 -0.0019153931643813848 0.3295277953147888 -0.9168452620506287 0.09012124687433243 -0.17473192512989044 -0.6538177728652954 0.47367072105407715 0.3257569372653961 -0.985676646232605 1.7840712070465088 0.18664182722568512 2.076322078704834 1.2563613653182983 -1.82095468044281 -0.797195315361023 -1.4332281351089478 0.23499375581741333 -0.4833822548389435 1.660365104675293 0.6553755402565002 -0.06815461814403534 -2.4425082206726074 1.2179687023162842 -1.210027813911438 1.2569776773452759 -0.492116242647171 2.141796112060547 -0.09292377531528473
Q1648387 0.581203043460846 2.131272792816162 1.6114130020141602 0.17789524793624878 1.2649359703063965 1.472723364830017 0.19571028649806976 -0.007040932308882475 0.035855475813150406 -0.8118909001350403 0.4534364640712738 1.1401668787002563 0.36137810349464417 -1.0562529563903809 -0.4778071641921997 0.36525458097457886 0.2749880850315094 1.139976143836975 -1.0543729066848755 0.6498597860336304 -1.2457948923110962 -0.16538263857364655 0.5649130344390869 1.0864540338516235 -0.3206885755062103 -1.449726939201355 -0.550946056842804 -0.1604827642440796 0.8088717460632324 1.328352451324463 -0.2143297791481018 0.3049122095108032 0.6523427963256836 -0.04480157420039177 0.5209411978721619 -0.5260941982269287 -0.455956369638443 -0.42912906408309937 -1.3015165328979492 -1.5387734174728394 1.3760985136032104 2.772298574447632 0.8597649335861206 -1.9389787912368774 -1.6402769088745117 -0.35601720213890076 -0.22172625362873077 0.45337241888046265 0.8158563375473022 -0.7819510102272034 0.15826942026615143 -0.6255157589912415 0.74156653881073 -1.3115038871765137 0.5288811922073364 1.6598739624023438 1.2067852020263672 -0.6687670350074768 -2.0106046199798584 2.1266403198242188 -2.839151382446289 0.46378493309020996 1.752888560295105 0.13393861055374146 -0.36408400535583496 1.0603700876235962 0.92473304271698 0.6172241568565369 -0.30063164234161377 0.4949134290218353 -0.41875624656677246 -0.3537316620349884 -2.059952974319458 0.37757113575935364 -0.4000396728515625 -0.40816637873649597 -0.743281900882721 -0.6312487721443176 -0.8181993961334229 1.6522767543792725 -0.20465658605098724 -0.010972311720252037 -0.164023295044899 1.1226435899734497 -0.968715250492096 -0.4076141119003296 -0.8901606798171997 0.39727848768234253 -0.9734082221984863 0.34690573811531067 -1.0144201517105103 0.889970600605011 0.3703904449939728 -0.8324787020683289 -0.47246140241622925 -0.8163524866104126 0.5997816920280457 0.6232020258903503 -0.19681817293167114 1.1114940643310547 0.30008551478385925 -1.827443242073059 1.3459759950637817 0.22221240401268005 -1.1231114864349365 -0.21766594052314758 -0.7054614424705505 0.8000541925430298 -0.5164900422096252 -1.3542299270629883 -0.3564731776714325 -0.13070206344127655 -0.21721139550209045 0.765225887298584 -0.9719798564910889 -2.039229154586792 0.7056336402893066 -1.887726068496704 -1.7564603090286255 -0.09031378477811813 -0.19469936192035675 -0.07142700999975204 0.8615497350692749 -1.4459662437438965 -0.2376229166984558 -0.1712321639060974 1.1749293804168701 -0.012299004942178726 -0.080178402364254 -0.5353053212165833 0.8084306120872498 1.0483843088150024 -0.7179169058799744 -1.9225783348083496 -0.2481604814529419 1.3399770259857178 0.27124178409576416 -1.276767611503601 0.11385878175497055 2.0416383743286133 0.973311722278595 -1.615718960762024 2.182492256164551 0.5306044816970825 1.5959796905517578 -0.8766772747039795 0.21377867460250854 -1.497553825378418 0.07605021446943283 0.024693800136446953 -0.01966950297355652 -0.24289067089557648 0.4058719277381897 -1.0135159492492676 0.8385186791419983 0.8534115552902222 -0.6087850332260132 0.02388029731810093 0.8101491928100586 0.3918815851211548 1.6811004877090454 0.4536258578300476 0.49952879548072815 0.7787562608718872 -0.6318148970603943 -1.1297757625579834 -0.9616129994392395 0.277959942817688 0.8549418449401855 -1.2548561096191406 0.527428150177002 -1.2984956502914429 -0.885833203792572 0.34954777359962463 -2.461956262588501 -0.4841441810131073 0.9844712615013123 -0.05199417099356651 -0.9847205877304077 -0.0804530531167984 -0.3123488426208496 1.469293236732483 -0.05022847652435303 -1.3342432975769043 -0.7510066628456116 1.687551498413086 0.9128580093383789 0.3511253595352173 -1.3795559406280518 -0.8835707902908325 0.06138469651341438 -0.7148855328559875 0.2693699598312378 -2.0407330989837646 0.5211722254753113 0.6637177467346191 1.5026071071624756 0.04794257879257202 1.1984927654266357 0.5293257236480713 0.2982315719127655 0.5793302655220032 -1.3287863731384277 0.9321954846382141 0.504443347454071 -0.3874841332435608 -1.6297105550765991 0.15888921916484833 0.6386174559593201 -1.5152983665466309 0.35761451721191406 -0.4203682541847229 0.052649158984422684 0.23554915189743042 -2.8855977058410645 -0.6892304420471191 2.131110191345215 0.7818993330001831 0.1882065385580063 -0.3614021837711334 -1.9618252515792847 -0.3472013473510742 0.8555521965026855 0.0850396454334259 -3.209228038787842 2.268692970275879 -0.8449136018753052 0.6914461255073547 0.23668934404850006 -0.8143056035041809 -0.7599802017211914 1.3160595893859863 -2.688227653503418 -0.8647354245185852 0.45144587755203247 -0.381717324256897 0.07015042752027512 1.1216087341308594 -0.5079590082168579 -1.6323646306991577 -1.009116291999817 0.5890331864356995 -0.20463202893733978 1.5221035480499268 0.2034699022769928 1.3254112005233765 -0.5456554293632507 -0.1527986377477646 0.1651235818862915 -1.3042004108428955 -0.8570543527603149 0.7597382068634033 0.449499249458313 -1.7573014497756958 -0.14886155724525452 0.513072669506073 0.4261167049407959 -0.5014408826828003 -0.9312716126441956 0.19684314727783203 -0.9820784330368042 0.05703900009393692 1.868106722831726 0.8552901148796082 0.47925037145614624 0.8521222472190857 1.0616214275360107 1.1028872728347778 1.500625491142273 -0.5292322635650635 1.0600639581680298 2.785342216491699 -1.3180652856826782 1.1843554973602295 -0.5115996599197388 0.4703025817871094 -1.6101748943328857 -0.8212391138076782 0.12679331004619598 0.9321763515472412 1.4599854946136475 -0.15202787518501282 0.32906240224838257 -1.2556970119476318 0.576566755771637 -1.4907716512680054 -0.17690040171146393 -1.1038833856582642 0.3637806475162506 0.9202831983566284 0.28508520126342773 -0.6746926307678223 -1.1607351303100586 -0.3505420982837677 0.8420003056526184 -1.6486992835998535 0.6239895224571228 1.0659993886947632 0.3932952582836151 1.1400412321090698
Q1670311 -1.3627123832702637 1.5756235122680664 -0.17899852991104126 0.7159067392349243 0.7976312637329102 1.6884877681732178 1.2166588306427002 0.32366588711738586 1.4487603902816772 -0.7576866149902344 -1.0177310705184937 1.0841692686080933 -1.145108699798584 -1.4627313613891602 0.03669212386012077 -1.338440179824829 -0.6472074389457703 0.1786777377128601 -0.8686129450798035 -0.2876296043395996 -0.09055214375257492 0.5187393426895142 0.5692920684814453 0.6751143932342529 -2.518162488937378 -1.1819374561309814 -0.48315364122390747 2.214909315109253 0.24548929929733276 0.361983060836792 -0.6576502919197083 0.5352221131324768 -0.3373256325721741 -1.134820818901062 -2.4098827838897705 -0.3756062984466553 0.2827461063861847 -1.0003007650375366 0.12131977826356888 1.2494710683822632 1.524078130722046 0.8572465777397156 0.38733014464378357 -1.3666765689849854 -1.801865577697754 1.0808134078979492 0.30734455585479736 1.6191956996917725 0.12990961968898773 -0.549039900302887 0.14827868342399597 0.0805167406797409 0.18320724368095398 -1.6151827573776245 -1.1282941102981567 1.3033846616744995 2.3446431159973145 -0.5338245034217834 -1.2530351877212524 0.0021047056652605534 -0.8272991180419922 0.8060452342033386 0.09311746805906296 -0.7579956650733948 0.7395972013473511 0.02743096649646759 1.3311963081359863 0.009062970988452435 -0.2913994789123535 1.6656591892242432 -0.8482384085655212 -0.7308259606361389 -0.8886981010437012 3.4614574909210205 1.2390491962432861 0.13757763803005219 -1.0216280221939087 0.21701811254024506 0.9767000675201416 0.7026745676994324 -1.4547795057296753 0.26124393939971924 -0.40030550956726074 -0.248758003115654 -1.1191277503967285 -1.2570457458496094 -0.04776455834507942 -1.244346261024475 -1.223129391670227 -0.27976512908935547 0.4614213705062866 -0.471256822347641 0.9506490230560303 0.7580666542053223 -0.47382616996765137 -1.0262751579284668 0.2060944139957428 0.1828070431947708 -0.25320154428482056 1.0964064598083496 -0.5027347207069397 -0.09336958825588226 0.35187703371047974 -0.35900408029556274 -0.9889501333236694 0.04109460860490799 -0.000753936474211514 0.12056411802768707 0.8136512041091919 -0.49350300431251526 -1.111782431602478 2.305103302001953 -0.6877159476280212 1.2406091690063477 -0.5261512398719788 -0.2960328757762909 -0.8181187510490417 1.9891606569290161 -0.8204980492591858 -0.29659247398376465 -1.2857215404510498 0.4868520200252533 1.7441654205322266 1.0470997095108032 0.5073258280754089 0.9001376032829285 1.56624174118042 -0.33493873476982117 -0.29475873708724976 -1.0780198574066162 2.4527249336242676 0.3388111889362335 -0.2806571424007416 -0.6304811835289001 -0.15516634285449982 -0.17065101861953735 0.7073549628257751 -0.45670878887176514 -0.24897827208042145 0.8944941163063049 0.9709555506706238 0.8038789629936218 2.021009922027588 0.37768039107322693 2.995596408843994 -0.7910254597663879 1.0204154253005981 0.6670496463775635 -0.9744568467140198 -0.17232893407344818 0.3137950301170349 1.1709792613983154 1.1609266996383667 0.6447997093200684 1.875712275505066 1.058390736579895 0.5377321243286133 -0.9462350010871887 -0.6776387095451355 1.6854387521743774 0.19269415736198425 -0.5283077955245972 0.3685376048088074 0.3897930979728699 -0.1872549057006836 -0.5843659043312073 -1.6555745601654053 -0.23493660986423492 -1.040258765220642 -1.2185527086257935 -0.594821035861969 0.6746488213539124 1.5850911140441895 -0.45306795835494995 -1.04546058177948 -0.052503544837236404 -0.16371148824691772 0.9688860774040222 -1.2150517702102661 -0.22874502837657928 1.0982692241668701 0.044152356684207916 -0.5805219411849976 -0.039041705429553986 0.15289495885372162 -1.0842419862747192 -0.35929322242736816 2.6185572147369385 -0.1351802796125412 0.5764147639274597 0.4282597005367279 -0.08752771466970444 1.2476426362991333 -1.257668375968933 0.8274438381195068 0.034182678908109665 2.036808729171753 -0.5906370282173157 0.7169657945632935 -1.154958963394165 -0.9811246991157532 0.82877516746521 -0.08258169889450073 -1.6458300352096558 0.8938276767730713 0.6059147715568542 1.0752698183059692 0.6895277500152588 1.1570152044296265 -1.2713860273361206 1.370349407196045 -3.043301820755005 2.4675772190093994 1.1704723834991455 -1.6540772914886475 0.6276473999023438 -0.3206925690174103 1.5474246740341187 -0.08983040601015091 -1.0268112421035767 0.4750426113605499 0.45220378041267395 -1.1594204902648926 0.6879286170005798 -1.1919293403625488 0.3801253139972687 0.5469650030136108 -1.235076904296875 -0.5659570097923279 -1.9877322912216187 0.42080599069595337 0.7017173171043396 -0.09479909390211105 -0.030780090019106865 2.040651321411133 -0.3952401876449585 0.3556653559207916 0.7933328151702881 0.2839823365211487 -0.3080442547798157 0.7726526856422424 0.6070239543914795 0.6698992252349854 -0.8140816688537598 -0.4887879192829132 0.5427452921867371 2.0927295684814453 -0.3605520725250244 -0.6439107656478882 -0.4834353029727936 -1.1745554208755493 -0.27635133266448975 0.09872420132160187 0.1736375391483307 0.308474600315094 -0.1642204076051712 0.8385763168334961 -0.9481343030929565 -1.3176617622375488 0.05446929484605789 -1.3557348251342773 0.7346607446670532 1.2802752256393433 -0.06607091426849365 -0.1576530933380127 0.94608473777771 0.5902426242828369 0.03705595061182976 0.25294384360313416 -0.7740012407302856 1.5268571376800537 0.0904792919754982 0.5105624794960022 0.24254675209522247 -0.4571946859359741 0.5285132527351379 0.9235320687294006 -0.8265684843063354 1.695224642753601 2.323847532272339 -1.6861709356307983 0.12840180099010468 -0.09416746348142624 1.135675311088562 0.84432053565979 0.19069083034992218 -0.42547181248664856 -1.741952896118164 0.5556548833847046 0.18443679809570312 -0.5824044942855835 0.48058879375457764 0.1403936743736267 -0.18022595345973969 -0.5405846238136292 -0.020412826910614967 1.5986437797546387 -0.16903012990951538 1.7682745456695557 -0.37614405155181885
Q1443264 0.35120317339897156 2.662975311279297 1.3584476709365845 0.2441386878490448 1.875762939453125 0.3860962688922882 -0.02918431907892227 0.05638474225997925 0.47840416431427 -2.0420286655426025 -0.7472470998764038 0.818773627281189 -0.19403252005577087 -0.5823010802268982 -1.1203687191009521 0.8890880942344666 1.6456764936447144 -0.8442589640617371 -0.5128540992736816 1.0678890943527222 0.5162334442138672 -0.5083872079849243 0.8589245676994324 1.3118361234664917 0.3737599551677704 -0.29749393463134766 -0.9182925820350647 0.5108039975166321 1.0269091129302979 1.909279227256775 -0.07892411947250366 -2.7354042530059814 -0.9404225945472717 -0.05830811709165573 -1.0534332990646362 0.2914154827594757 -0.6152608394622803 0.7728366255760193 -0.14406724274158478 1.2407987117767334 0.6644418835639954 2.3561646938323975 0.3236472010612488 -1.0016359090805054 -0.7065754532814026 -0.08939556032419205 -0.3750171363353729 -0.20347070693969727 0.7836005091667175 -0.4830685555934906 1.3407206535339355 2.2525129318237305 -0.05372430011630058 -0.5383509993553162 -1.0297834873199463 -0.11052261292934418 0.7509030103683472 -1.446877121925354 0.1975594460964203 0.3803628981113434 -0.9604494571685791 -0.035186439752578735 1.0207852125167847 -0.08696918189525604 0.13883572816848755 0.35451987385749817 0.020488912239670753 -0.9057157635688782 -0.17726881802082062 0.4409960210323334 -1.0360510349273682 0.36010751128196716 -1.4095813035964966 -0.07296636700630188 -0.819473385810852 0.8471711874008179 -2.2884342670440674 -0.9975335001945496 -0.1512395292520523 0.1089189201593399 -0.5914950370788574 -1.370740532875061 -0.7075174450874329 -1.8712438344955444 -0.16455450654029846 -0.5751998424530029 -1.3633697032928467 -1.1862694025039673 -0.16880886256694794 0.604046642780304 -0.6143298745155334 -1.0244083404541016 0.06459608674049377 -0.7735048532485962 0.2311093807220459 -2.097498655319214 0.608086884021759 1.25864577293396 -0.24675194919109344 0.6422380208969116 -1.7693825960159302 -1.7585333585739136 -1.407999038696289 0.24640631675720215 -0.7908991575241089 -0.03614846244454384 0.1511767953634262 0.34550827741622925 0.6478568315505981 0.3799799978733063 -1.4565491676330566 0.9732610583305359 -1.3696461915969849 0.8197853565216064 -1.1693800687789917 -1.429294228553772 0.003088807687163353 0.2649032473564148 -1.5475869178771973 -1.563665509223938 -1.0272268056869507 1.0734630823135376 -0.8062702417373657 0.41051825881004333 1.188367486000061 -0.13217325508594513 1.1103531122207642 -0.731377363204956 -0.5875389575958252 -1.5209497213363647 1.0087544918060303 0.6159975528717041 1.1001121997833252 -1.1759158372879028 -2.02744460105896 -1.5849794149398804 0.5219762921333313 0.8937534689903259 -0.16239610314369202 0.05936571955680847 1.2189730405807495 0.32712090015411377 0.9446052312850952 -0.14034217596054077 0.7932393550872803 -0.8817877769470215 0.07095643132925034 -1.4040131568908691 0.35517358779907227 -0.005951337516307831 -2.3176772594451904 1.4135805368423462 1.0564446449279785 -0.7486931681632996 -0.06797612458467484 0.7997942566871643 -1.3626309633255005 0.8230884671211243 -0.1242639347910881 1.05375075340271 0.8947628736495972 -1.7810910940170288 -0.33291345834732056 -0.16250228881835938 -1.9246939420700073 -2.3338797092437744 -1.0928782224655151 -0.47000542283058167 0.04491269960999489 -0.8766195774078369 -0.5355518460273743 0.23934893310070038 1.9981244802474976 -0.5875247120857239 -0.10427530109882355 1.115013837814331 0.24242089688777924 -0.5145524740219116 -3.0969696044921875 0.38604113459587097 0.3252076506614685 -0.20237669348716736 1.1068217754364014 -0.28293654322624207 0.7538770437240601 0.3824304938316345 0.11846182495355606 1.4337531328201294 -0.758023738861084 0.4687247574329376 -1.7887580394744873 -0.6255067586898804 -1.3313179016113281 -1.9135133028030396 -0.37474536895751953 -0.726572573184967 2.446150064468384 1.6626839637756348 1.0563586950302124 -2.8393301963806152 -1.3231018781661987 0.9744408130645752 -0.8239621520042419 1.6332167387008667 1.005793571472168 -1.728655219078064 -0.5408600568771362 0.6842049956321716 0.8992745876312256 -0.9799414873123169 0.03298890218138695 -3.0799667835235596 2.302050828933716 -0.11039777100086212 -0.9926087856292725 2.131070137023926 -0.1434960961341858 -0.2695026099681854 -1.1436097621917725 -0.7887350916862488 -1.0774630308151245 -1.248090386390686 -0.1729252189397812 -1.1098706722259521 -3.084282875061035 0.7323175668716431 0.6226307153701782 -0.23502328991889954 -0.8162421584129333 -0.3447926640510559 1.6249186992645264 1.9087258577346802 -1.449239730834961 -2.1157312393188477 1.0982835292816162 -0.4441526234149933 0.46063753962516785 0.45693346858024597 -0.9015383124351501 -0.97812420129776 1.775212049484253 0.40722909569740295 0.5538586974143982 0.2915383577346802 -1.303518533706665 0.6939007043838501 -1.406301498413086 -0.899953305721283 -0.7499350309371948 -2.0168588161468506 -1.9907633066177368 -1.4767451286315918 1.1482865810394287 -1.5754070281982422 0.10647960007190704 0.8303621411323547 1.6026664972305298 0.29739782214164734 -0.24104179441928864 -0.23617039620876312 -0.27991992235183716 2.352731704711914 1.3519774675369263 0.3117726743221283 0.9588762521743774 1.4443836212158203 -0.4372485876083374 0.1298820674419403 1.1021510362625122 -1.4748878479003906 0.8250030875205994 0.4757906496524811 -0.5404627323150635 -0.3672521114349365 0.4197295904159546 -1.079699158668518 -0.4089125692844391 -0.21241137385368347 0.011530590243637562 1.7835667133331299 -1.4370263814926147 -0.7012834548950195 0.6013619303703308 1.2829372882843018 2.627403497695923 -0.2898022532463074 -0.8795018196105957 -1.2959957122802734 -0.4087294638156891 0.5665435194969177 0.2640891671180725 0.22520899772644043 -1.0434950590133667 -0.799744188785553 0.1136537417769432 -0.41479116678237915 0.8652796745300293 0.614253580570221 1.565730094909668 -0.4427066445350647
Q2371230 -0.2162371128797531 2.0708160400390625 1.6789149045944214 -0.5255540013313293 1.0582811832427979 -0.2947703003883362 -0.42056599259376526 -0.6716976165771484 0.316624253988266 -1.105941653251648 -1.3124213218688965 0.2678588926792145 -1.1199368238449097 -0.8730790615081787 -0.6847178936004639 1.516988754272461 1.6077929735183716 0.06694277375936508 1.9676138162612915 -0.32041504979133606 -1.0282126665115356 -1.680899977684021 -0.006171869114041328 0.18978071212768555 -1.004608154296875 0.30887436866760254 -0.37949466705322266 -2.1426143646240234 -0.4978262782096863 -0.7825480699539185 -0.3221854567527771 -1.3017269372940063 1.1905065774917603 -0.7239131331443787 -1.9937788248062134 -0.5519677996635437 -0.2749618887901306 0.007301119156181812 0.005156378727406263 0.1662101298570633 1.3828986883163452 2.345386266708374 -0.670078456401825 0.25673484802246094 -2.4984290599823 0.2544211745262146 -1.0576584339141846 1.0089919567108154 0.7433024644851685 -0.0399274118244648 -0.5063598155975342 0.27984917163848877 0.5945649743080139 -1.534238338470459 0.13135948777198792 0.053126536309719086 -0.4148769974708557 -1.321683406829834 -0.12633708119392395 0.7989870309829712 0.32510876655578613 -0.03478262946009636 0.6755852103233337 0.2819623351097107 -0.007339651230722666 -0.0439375601708889 0.7999787926673889 -0.17756344377994537 0.1186683401465416 0.21958135068416595 0.2137071192264557 -1.1000370979309082 -0.05057505890727043 1.3363295793533325 -0.746788740158081 -0.7763224840164185 -0.5438297986984253 -0.3459796607494354 -1.915583848953247 2.4102792739868164 -0.5373268127441406 0.477998822927475 0.276228666305542 0.5151807069778442 -1.6840667724609375 -0.2996462881565094 -1.399689793586731 1.6463851928710938 -1.5189286470413208 -0.7906484603881836 -1.0065032243728638 -2.2294669151306152 -1.5728027820587158 -1.0456159114837646 -0.16953791677951813 1.230055809020996 -0.4185123145580292 0.77899169921875 0.8674687147140503 2.4436471462249756 -0.2632271945476532 -1.3190088272094727 0.27518200874328613 -1.679724931716919 0.17118974030017853 -0.45348843932151794 -0.4922504127025604 -0.5252056121826172 -1.11985445022583 -0.3450101912021637 -1.1710970401763916 -0.48260602355003357 -1.426005244255066 -0.43165457248687744 -0.05992130562663078 -0.23733073472976685 0.5792913436889648 0.21450665593147278 -0.20006006956100464 -0.48811614513397217 0.3780076503753662 0.9416490793228149 0.7468669414520264 0.5753841400146484 -0.42372629046440125 2.0422427654266357 1.2888238430023193 -1.0956536531448364 -0.5869976282119751 0.4737047851085663 1.7209092378616333 0.6699894666671753 0.17146095633506775 -1.2696325778961182 1.6361414194107056 0.7115784883499146 0.39615383744239807 -1.2382553815841675 1.6760165691375732 2.5585780143737793 0.7844418883323669 -0.7389723062515259 1.0121140480041504 1.8627643585205078 0.2179557979106903 -0.03319744020700455 0.29247137904167175 1.1040842533111572 -0.8323586583137512 -0.557995080947876 -0.9925349950790405 0.3113303482532501 0.8000177145004272 -1.5888655185699463 -0.09176519513130188 0.8667039275169373 0.0378057137131691 0.5689975023269653 -1.451132893562317 0.07108002156019211 -0.21642066538333893 -0.7916741967201233 0.991439700126648 -0.005367498379200697 -1.5684312582015991 -1.4231271743774414 0.2528129518032074 -0.2388007640838623 -0.01649233140051365 -0.7358992695808411 -0.2643517255783081 -0.0006151071866042912 0.6603745222091675 0.7588301301002502 -1.0839762687683105 1.4393620491027832 1.6248589754104614 0.08057539165019989 -1.6330418586730957 0.7500457763671875 -0.21017025411128998 0.4820038676261902 -1.0771607160568237 0.23188801109790802 -0.3514136075973511 1.7640620470046997 1.4863712787628174 1.8241044282913208 -2.720346689224243 0.1875464916229248 -1.4493389129638672 0.4306768476963043 -0.34031376242637634 -0.9024426341056824 0.11496773362159729 -0.5794932842254639 1.8124583959579468 0.5038606524467468 3.029839515686035 -0.8844751715660095 -0.6538957953453064 1.5165674686431885 -1.424057126045227 0.786794126033783 0.6559107303619385 -1.1377252340316772 -0.40172189474105835 0.03254890814423561 0.24911735951900482 -1.9753252267837524 0.41957175731658936 -2.29841685295105 0.8973690867424011 0.4807366132736206 0.1321163922548294 1.0220609903335571 1.1826251745224 0.4465298056602478 -2.0561635494232178 -0.5183025002479553 -0.8329636454582214 -0.3887229561805725 0.8927813768386841 0.4854697287082672 -0.45295360684394836 2.568876266479492 0.874721348285675 0.6683207750320435 1.0586553812026978 -0.037528280168771744 0.08184587210416794 0.3276742100715637 -1.286234736442566 -0.15284442901611328 0.7286210656166077 -0.4266054630279541 0.5338491797447205 -0.022051973268389702 -0.5280115008354187 -0.29317358136177063 1.560438632965088 -0.9497042894363403 -0.5209771990776062 0.5785520672798157 -0.7969299554824829 0.965576708316803 1.6956915855407715 0.3168766498565674 0.4896395206451416 -0.716620147228241 -0.714780330657959 -1.4636808633804321 -0.7756836414337158 0.8952261805534363 0.8239439725875854 -0.4846370816230774 -0.523045003414154 0.703639805316925 0.22357791662216187 -0.5333948731422424 -1.9556729793548584 -0.8017484545707703 0.8739333152770996 1.1145894527435303 -0.5529561638832092 2.079728841781616 -0.007572889793664217 0.13270488381385803 0.5317771434783936 -1.8644558191299438 1.0246256589889526 3.1040234565734863 -0.02323504537343979 -1.5797555446624756 -0.18226346373558044 -0.4651602506637573 -0.6638779640197754 0.3612455129623413 0.5374773144721985 0.2646670341491699 -1.7406270503997803 0.6738168001174927 1.097815990447998 0.7957570552825928 -0.1449403613805771 -1.0773301124572754 -0.37078121304512024 -1.9140772819519043 0.2992517650127411 -0.4314461648464203 -0.4187522828578949 -0.2961691617965698 -1.7164552211761475 1.0546818971633911 1.3587815761566162 -0.27239158749580383 1.366332769393921 -0.22239628434181213 0.28950783610343933 1.1666921377182007
Q1222671 -0.7425951957702637 0.6618462204933167 1.0611847639083862 -0.4870360791683197 1.3663264513015747 -0.9831739068031311 0.06321263313293457 -0.40830934047698975 -1.6306145191192627 -1.3266834020614624 -1.446563482284546 0.7477644085884094 0.15142321586608887 0.7306352257728577 -0.08268731087446213 0.3868210017681122 0.6262668371200562 1.9205999374389648 -0.08393935859203339 -0.4947643280029297 -1.8028484582901 -0.05067814514040947 0.3892092704772949 0.9165729880332947 0.010322227142751217 0.1033363789319992 0.5699986815452576 0.07097093760967255 1.1081960201263428 0.6772550940513611 -0.6499617099761963 0.11163588613271713 0.12472443282604218 -0.43969103693962097 0.6251776814460754 0.07755891233682632 -0.5822217464447021 0.4024512767791748 1.3692175149917603 1.5705456733703613 0.8907871246337891 -0.12395099550485611 -0.09187090396881104 0.6938803791999817 -0.2258678525686264 1.5003409385681152 -0.515705406665802 1.9886113405227661 0.44332441687583923 1.3524373769760132 -0.11083624511957169 -0.327606201171875 -1.096448540687561 -0.08994775265455246 0.6280851364135742 -0.679780125617981 -0.5716906785964966 -0.8660880923271179 -0.39790794253349304 1.7293035984039307 -0.0724726989865303 0.9890847206115723 1.550406575202942 -0.044430892914533615 -0.234546959400177 -0.5853848457336426 -0.7098844647407532 1.6806038618087769 -0.11002813279628754 -0.8576504588127136 0.6791700124740601 0.2632614076137543 -0.03891674801707268 -0.5493667721748352 0.33214348554611206 -0.3135361075401306 0.3595319092273712 -0.5762032270431519 -2.6900360584259033 1.5569988489151 -0.6855603456497192 -0.7899397015571594 0.1051221415400505 0.1054336279630661 0.5085222721099854 -0.15541665256023407 1.5825223922729492 -0.7249046564102173 -0.808102548122406 0.5357217788696289 -0.5876827239990234 -1.2600812911987305 -0.5400113463401794 -0.7185380458831787 0.7113090753555298 0.5057889819145203 -0.7993608713150024 0.5691887736320496 2.298762321472168 0.20213933289051056 0.16256998479366302 -1.7755340337753296 0.5212296843528748 0.7534269690513611 0.7351602911949158 -0.9824274778366089 -0.45256274938583374 0.47147825360298157 1.3707308769226074 0.9145655035972595 1.1717149019241333 0.0661962702870369 -1.7507954835891724 0.10044687986373901 0.32786306738853455 -0.7979189157485962 0.519970715045929 0.04671107605099678 -0.6899035573005676 -0.13391438126564026 0.23649564385414124 1.192512035369873 0.8354550004005432 0.03777480125427246 -1.7010414600372314 0.5647281408309937 0.07755302637815475 1.425801396369934 -1.1524595022201538 0.7635641098022461 -0.40266603231430054 0.8662673234939575 0.06271883845329285 -1.1578923463821411 0.9981063604354858 0.44453248381614685 -2.400367021560669 -1.6869590282440186 -0.7962067127227783 2.2529659271240234 2.066657781600952 0.681879997253418 2.0249392986297607 -0.4395270049571991 -1.2036584615707397 -0.37478095293045044 -1.6200194358825684 -0.09006040543317795 0.41648566722869873 -0.0032226629555225372 -1.811311960220337 1.0003509521484375 0.4497521221637726 -0.7876207828521729 0.7896680235862732 -0.2755608558654785 -2.6465444564819336 0.8698385953903198 0.11042657494544983 0.460649311542511 1.4109134674072266 0.28701791167259216 -0.8338657021522522 -0.7401022911071777 -0.5181146860122681 -1.1671249866485596 -0.822967529296875 -2.301102876663208 -1.251861572265625 -1.3136290311813354 -0.16475531458854675 -1.764933705329895 0.1846359372138977 -1.6082947254180908 -1.4284329414367676 0.9400147199630737 0.16046719253063202 -0.10303676873445511 -1.5609750747680664 -0.38065001368522644 0.4597932994365692 0.6403319239616394 0.838760256767273 2.161675453186035 -0.5002763271331787 2.1302452087402344 1.9746469259262085 0.33496609330177307 -0.5849342346191406 0.04984985291957855 -1.6140646934509277 1.0819283723831177 -0.4756477475166321 -1.4610178470611572 1.1586023569107056 -0.20251767337322235 0.7645935416221619 -0.4768940806388855 1.4260363578796387 1.0549229383468628 -1.1575828790664673 0.23649120330810547 -1.2069519758224487 2.1650307178497314 -0.2525596618652344 -0.7167808413505554 -0.5520567297935486 -0.2778960168361664 1.1095021963119507 -1.9413506984710693 0.6739701628684998 -1.8976967334747314 0.7131445407867432 1.0047630071640015 1.1724357604980469 0.9976345896720886 0.10597678273916245 -0.14940248429775238 -0.126339852809906 -2.189298391342163 -0.7530357241630554 0.02843317948281765 0.8750701546669006 2.5977187156677246 -1.6970404386520386 0.987814724445343 0.8849001526832581 -1.191541314125061 0.3722878396511078 -0.2614935338497162 0.5806244611740112 -0.08290622383356094 0.7561503648757935 -0.08731473982334137 0.8697935342788696 -1.267109990119934 0.135848268866539 0.5584233403205872 1.1072722673416138 -0.78249591588974 0.1507313996553421 0.33253777027130127 0.8167650699615479 0.6893483996391296 0.3441050052642822 -0.30504506826400757 -0.28470876812934875 -0.4735300838947296 -0.5713317394256592 -0.0889260470867157 -0.4208142161369324 -0.3838253617286682 1.1455837488174438 0.8470517992973328 -0.05661003664135933 1.1187734603881836 0.04606299847364426 0.735789954662323 0.6316758990287781 1.1962535381317139 -0.9396756887435913 -0.2763453722000122 1.2303794622421265 0.17027688026428223 0.8318921327590942 1.7903962135314941 -0.1767381727695465 -0.34888747334480286 0.6306647062301636 -0.35624662041664124 2.35872483253479 0.8204300403594971 -2.4941084384918213 -0.3405424952507019 -1.1514357328414917 1.4475706815719604 -1.5625412464141846 0.7907238602638245 -0.554190993309021 0.29771852493286133 -0.25945380330085754 0.07633592188358307 0.8598947525024414 -1.5943715572357178 2.035757303237915 0.8456723093986511 -0.4395582973957062 -1.9337539672851562 1.0974476337432861 0.40654972195625305 0.3614591062068939 -1.11110258102417 -1.7995290756225586 0.8652313947677612 -0.17792963981628418 -0.1438882201910019 -0.2500300705432892 -1.4514286518096924 0.777700662612915 0.4180024564266205
Q105164 1.1929212808609009 0.8910238146781921 3.7535431385040283 0.4643136262893677 1.2862768173217773 0.20658795535564423 0.16059812903404236 0.41032129526138306 -0.2813613712787628 -1.2224392890930176 0.027171703055500984 1.3188289403915405 0.44502317905426025 -0.4862249791622162 1.0145580768585205 0.43983587622642517 1.6195557117462158 0.4990459978580475 0.6573137044906616 -0.5366595387458801 -1.230352759361267 -0.35162603855133057 1.0212055444717407 1.0215303897857666 -0.7591079473495483 0.14925885200500488 -0.10688664019107819 0.20561112463474274 0.4528399705886841 0.7056649327278137 -0.5003942847251892 1.0588958263397217 -0.20417308807373047 -0.14677593111991882 1.641257405281067 -0.7625874876976013 0.5958898067474365 -0.003343877149745822 0.9005616903305054 1.0683887004852295 -1.9112666845321655 -0.15843065083026886 0.15894421935081482 0.6323058605194092 0.16792774200439453 1.1277624368667603 -0.35698840022087097 0.8663217425346375 0.2673940062522888 0.7195695638656616 1.006650447845459 -0.5364274978637695 1.0595550537109375 1.1416914463043213 -0.03618360683321953 0.11857354640960693 -1.323627233505249 -0.4486307203769684 -0.22577601671218872 1.608420729637146 -0.6221064329147339 1.0707776546478271 -0.4299628734588623 2.1494314670562744 -1.3065385818481445 1.9153618812561035 -0.9002572894096375 0.8339884877204895 0.1794983148574829 0.2883022129535675 0.3388274610042572 0.28600046038627625 -0.014402300119400024 -1.0025423765182495 1.6937472820281982 0.33939409255981445 -0.5815979838371277 -2.0651872158050537 -1.4535471200942993 0.07353527843952179 -0.4778989255428314 -0.7769126296043396 -2.3224358558654785 -2.0567691326141357 0.3586075007915497 0.33812594413757324 -0.11273078620433807 0.4587499499320984 -1.1130152940750122 1.2591015100479126 0.14817339181900024 -1.3305530548095703 0.1144934669137001 -1.9457831382751465 0.3398072421550751 0.6272717118263245 -0.028981028124690056 0.1977463811635971 -0.06157577410340309 -0.2905745506286621 0.03116154484450817 -0.9027101397514343 -0.6242357492446899 -0.10776151716709137 -0.5190542936325073 0.9937887787818909 -0.6909970045089722 0.19988439977169037 -0.9796410799026489 -0.1994171142578125 0.7062334418296814 0.05992021784186363 -1.1735910177230835 -0.04412878304719925 -0.10156236588954926 -0.9059340953826904 1.9948782920837402 -0.5023472309112549 0.9475622177124023 -0.46728530526161194 1.259163737297058 -0.511208713054657 -0.16077692806720734 0.3048948347568512 -1.9990586042404175 0.5863009095191956 -0.5999715328216553 0.12767405807971954 -2.227987289428711 -0.22299285233020782 1.8731274604797363 -1.0265392065048218 0.3385866582393646 -0.7516776323318481 -0.7615019679069519 -0.287388414144516 -1.487057089805603 -1.5045135021209717 -0.585902988910675 1.3266620635986328 0.7211971282958984 0.3763141632080078 0.7529700398445129 -0.37446731328964233 -0.5979761481285095 0.6873974800109863 0.3273431062698364 -0.2642861008644104 1.6571487188339233 0.8012717962265015 -0.5478622317314148 -1.0804953575134277 0.35327863693237305 -0.026945753023028374 1.6239148378372192 0.08501788228750229 -2.2822961807250977 -2.1549482345581055 -0.51129549741745 -1.5322538614273071 0.005862437654286623 0.2141820341348648 0.3191589117050171 -0.10491515696048737 -0.3881583511829376 -1.7157022953033447 -0.31397002935409546 0.32146015763282776 -2.0049901008605957 0.6462882161140442 0.4805465340614319 0.502284586429596 0.5624756217002869 0.3750186562538147 -1.6059424877166748 0.3115856349468231 -0.15722481906414032 -0.5146676898002625 -2.0268826484680176 -0.9779225587844849 0.7959975600242615 -1.2084795236587524 1.2417571544647217 1.7536685466766357 1.083463430404663 0.10158579796552658 1.964529037475586 0.019580252468585968 -1.9823068380355835 -0.41810575127601624 -1.3397440910339355 0.9435330033302307 0.3363996744155884 -1.3155016899108887 0.7277735471725464 1.0842291116714478 1.3763567209243774 1.7059568166732788 -0.4973987340927124 0.6212441325187683 -0.30777281522750854 0.9912017583847046 0.010423010215163231 1.9514145851135254 -0.8624688386917114 -1.7395132780075073 -1.7029247283935547 -0.13692747056484222 -1.1998445987701416 0.1892540156841278 0.9080832004547119 -1.7872633934020996 1.2365198135375977 1.6751079559326172 -0.010044575668871403 -0.47973230481147766 0.6066054105758667 -0.40003663301467896 0.5922091007232666 -0.5684256553649902 -0.6263158321380615 1.3622180223464966 0.5040310621261597 0.3729099929332733 -0.5313063859939575 -0.29550573229789734 0.4125926196575165 -0.2792435884475708 0.6146798729896545 1.7793835401535034 0.3162367641925812 0.01022915355861187 -0.09043290466070175 -0.1310984492301941 0.6155988574028015 0.9288707375526428 0.7053346633911133 -1.4533871412277222 0.9606110453605652 0.8051430583000183 2.0704846382141113 -0.1971471607685089 0.045888327062129974 -0.4130660593509674 -1.0224679708480835 -0.5391049385070801 0.4260499179363251 -0.06344613432884216 -0.760646641254425 -1.2405925989151 -1.4996771812438965 -1.0328775644302368 -0.02500605210661888 -0.7485449314117432 0.032134972512722015 0.6647531986236572 -0.2705027759075165 -0.5105734467506409 0.7063299417495728 0.9887385964393616 0.5536763668060303 -0.8220748901367188 0.43190866708755493 0.8679815530776978 -0.5886785984039307 -0.04913211986422539 -0.12736213207244873 0.39964523911476135 0.4747910797595978 0.15471181273460388 1.1882659196853638 1.5023144483566284 -0.9316215515136719 0.43186691403388977 -0.31200510263442993 0.8379024863243103 1.205250859260559 1.074773907661438 -0.5792335867881775 1.7863596677780151 -1.8880233764648438 -0.39696764945983887 1.29901123046875 0.10685291886329651 1.3682199716567993 1.8032405376434326 -1.6034027338027954 -1.7061326503753662 -0.9010177254676819 -0.9722936749458313 0.26413679122924805 -0.7369470000267029 1.2624921798706055 0.37782377004623413 0.45372024178504944 -0.5680459141731262 1.786828637123108 -0.40954330563545227 1.4657795429229736 0.5374499559402466
Q106206 1.0466779470443726 0.12602993845939636 0.6386187076568604 -2.1045238971710205 0.46132057905197144 1.6523911952972412 1.0496962070465088 0.8121944665908813 -0.22974413633346558 -1.0206007957458496 -0.5891312956809998 0.5864475965499878 -0.6247441172599792 -0.7523695230484009 -1.6870285272598267 1.4529571533203125 1.9160608053207397 0.19718626141548157 1.6079128980636597 0.1325928419828415 0.654475212097168 -0.0339704193174839 1.895761251449585 0.007756885606795549 -1.2599565982818604 -0.9922860860824585 0.6372473835945129 -0.4354371726512909 0.592771053314209 1.3584787845611572 -0.7970766425132751 -1.120421051979065 1.3075153827667236 -0.3649851679801941 -0.6112833619117737 -2.4079883098602295 -1.1082535982131958 1.9052958488464355 -1.0495514869689941 -1.4771196842193604 1.094887137413025 2.1868796348571777 -0.5779344439506531 -0.9659746289253235 -2.013610601425171 -0.31705015897750854 -0.39706698060035706 1.6363035440444946 0.8562110662460327 0.6266138553619385 0.9320245385169983 1.3689583539962769 -1.5955934524536133 -1.3342525959014893 0.8526700139045715 1.4864863157272339 1.5268968343734741 -1.63920259475708 -0.10784058272838593 1.1244770288467407 -0.33038657903671265 -2.5112433433532715 2.462308406829834 -1.4580901861190796 0.7222976684570312 -0.020186901092529297 0.6465190052986145 -0.03329376131296158 2.442081928253174 0.5776733756065369 -1.8439559936523438 0.47973567247390747 -2.0291635990142822 1.0630433559417725 -1.6939889192581177 -1.3044010400772095 -1.2363390922546387 -0.5304158926010132 -1.4191408157348633 1.2136807441711426 -0.47583091259002686 -0.8834277391433716 -0.516643226146698 -2.5048656463623047 -2.8145129680633545 1.2447352409362793 -1.3260701894760132 1.023756504058838 -0.23895804584026337 1.4590120315551758 -1.7089048624038696 -1.1305829286575317 -0.6264616847038269 0.23748049139976501 1.6607431173324585 0.7862125635147095 -0.8513821959495544 0.6592252850532532 -0.06605120748281479 0.9971686005592346 0.46357181668281555 -1.124023199081421 1.937240719795227 0.6419384479522705 -0.3464805781841278 -0.5881150364875793 -1.3227876424789429 -0.09216351807117462 0.1611875742673874 -1.0964877605438232 -0.02167820744216442 -0.4878765344619751 -0.15599337220191956 2.3417160511016846 -0.4498627185821533 -2.4279260635375977 1.4446420669555664 0.4571380317211151 0.02128480188548565 -0.37329378724098206 0.9613906145095825 1.1834239959716797 -1.7646396160125732 -0.5343499183654785 -0.4917455017566681 -0.7402579188346863 2.1482162475585938 -1.2221077680587769 0.42587584257125854 -0.7124792337417603 0.6846657395362854 1.365392804145813 -1.1688652038574219 -0.14692550897598267 1.2644917964935303 1.2972148656845093 0.1623818576335907 -3.019057035446167 0.5540268421173096 1.872605323791504 0.19739487767219543 -1.4468848705291748 1.9066673517227173 0.1576993763446808 0.6315802931785583 -0.0539219044148922 0.5602304339408875 -0.566356360912323 -0.44015172123908997 -0.05433364585042 -2.2474148273468018 -0.36634087562561035 0.14381161332130432 -1.2556769847869873 -1.070620059967041 -0.703100860118866 -0.682032585144043 0.1946820616722107 1.1873085498809814 0.06568653881549835 0.5993207097053528 -2.457348108291626 0.6892868280410767 -0.29796531796455383 -2.030081272125244 -1.8188371658325195 1.1673468351364136 -0.06534533202648163 1.052618384361267 -1.0518417358398438 -1.064079761505127 -0.9324313402175903 2.211498975753784 -0.5616673231124878 -1.431667685508728 1.0101077556610107 -0.3016854226589203 1.2947454452514648 -1.8423826694488525 0.6430568695068359 0.06743194162845612 0.10874783247709274 -0.47264325618743896 -0.20089468359947205 -0.5262889862060547 0.5883075594902039 1.7653639316558838 0.42811524868011475 -0.9286718368530273 0.12993735074996948 0.8769819140434265 -0.6310166716575623 1.4294202327728271 -1.4212967157363892 0.3190408945083618 -0.8443195819854736 1.7841362953186035 -0.07899831235408783 1.8972121477127075 -1.3929904699325562 -0.01024897675961256 -0.6245232224464417 1.1774144172668457 2.70563006401062 -0.16507528722286224 0.06986234337091446 -1.38118314743042 -1.1554347276687622 0.7122870087623596 -2.8595516681671143 -0.24844621121883392 -3.881376266479492 0.3960861265659332 0.8572367429733276 -1.5431604385375977 0.5969669222831726 1.220248818397522 -0.34782081842422485 -0.30982497334480286 0.5362082123756409 0.003178915474563837 0.7405726909637451 -0.6832484006881714 1.0015337467193604 0.42238521575927734 0.34800052642822266 0.5444132685661316 -0.9409927725791931 0.42900997400283813 1.3136069774627686 -0.39436373114585876 1.28284752368927 -1.0724962949752808 -1.286791205406189 -0.4432613253593445 -0.21847636997699738 0.5966363549232483 0.21082517504692078 -0.4990699887275696 0.20209670066833496 0.01564575918018818 0.48340079188346863 0.5089380741119385 0.04250645264983177 0.13360993564128876 1.3911869525909424 1.7283334732055664 0.4516635835170746 -0.7788744568824768 -2.0156877040863037 -1.5086994171142578 -0.9580763578414917 -0.06640072911977768 -1.6835169792175293 0.41736552119255066 0.4105193614959717 0.3984328508377075 0.24070896208286285 0.4254308044910431 -1.1500694751739502 0.2362295389175415 0.9132345914840698 0.1273028701543808 1.3872381448745728 0.6018954515457153 1.4873443841934204 1.272260308265686 -1.0293641090393066 0.7761260867118835 -0.04362870380282402 0.4312702417373657 1.6151716709136963 -0.008601341396570206 0.22933204472064972 -1.1024178266525269 -1.9187973737716675 0.5268673896789551 0.9774819612503052 -1.4725401401519775 0.2026897817850113 -0.10583418607711792 -0.16125893592834473 1.7840551137924194 0.7901313900947571 -0.14952632784843445 -0.025631174445152283 -0.4717079699039459 -0.9113027453422546 -0.6492285132408142 1.0224928855895996 -1.1810189485549927 -0.09856867045164108 -0.22735008597373962 -0.21862907707691193 0.41516751050949097 0.4857579469680786 0.6469388008117676 -0.32050228118896484 2.6274144649505615 1.0845686197280884
Q109979 0.9843688607215881 0.49149996042251587 0.8292044997215271 -0.16154704988002777 1.0261696577072144 1.9265457391738892 1.1735203266143799 -0.14059634506702423 1.7064822912216187 -2.0102620124816895 -0.33980798721313477 -0.441059410572052 0.29114025831222534 -1.5337847471237183 0.3134270906448364 -0.9989610314369202 1.6814757585525513 1.10073983669281 0.012846741825342178 0.25132548809051514 -0.9668334126472473 -1.579717755317688 0.662266731262207 1.4381027221679688 -1.5703049898147583 -0.8677684664726257 -0.6687333583831787 0.8735896944999695 0.21944120526313782 0.02153315767645836 0.46831265091896057 -0.9419600367546082 0.24158966541290283 -0.7652885913848877 -0.9422237277030945 -1.8493866920471191 0.8130586743354797 0.4199577867984772 0.9067795276641846 0.5487434267997742 0.9640699625015259 2.5136778354644775 0.015443609096109867 -1.1229041814804077 -0.5375122427940369 0.23300528526306152 -0.5427877306938171 -0.3819808065891266 0.5108241438865662 -0.9968103170394897 -0.5539788007736206 0.6436548233032227 -1.5561976432800293 -1.8277709484100342 0.28325214982032776 -1.1187983751296997 0.1929129809141159 -0.794693112373352 2.1540915966033936 0.9808145761489868 -0.24861925840377808 -1.8831005096435547 1.1595070362091064 0.5131481289863586 -0.3971439301967621 -0.23730029165744781 0.021496176719665527 0.054763615131378174 1.0696849822998047 -1.3051435947418213 0.6086437702178955 -1.2681511640548706 -1.5172384977340698 2.7568089962005615 -1.6373119354248047 -0.1420218050479889 -0.7707718014717102 0.0521758608520031 -0.14868339896202087 1.2766714096069336 -1.2336267232894897 0.4478648006916046 1.0672311782836914 -0.1807713657617569 -0.9698085784912109 1.6805102825164795 -0.9435389041900635 0.4688122272491455 0.7208054661750793 0.2556055188179016 -0.25524285435676575 -1.29323148727417 -0.5213055610656738 -1.007018804550171 -1.2675410509109497 0.9518625140190125 -0.050370920449495316 0.3486011326313019 -0.10021131485700607 1.6656699180603027 -0.03722463920712471 -1.4718382358551025 2.7625391483306885 -0.6414352059364319 -0.4952353537082672 0.06339898705482483 -0.20155134797096252 0.35274738073349 -0.6166629791259766 0.2050875723361969 -0.9193078279495239 0.42409032583236694 -0.8250327706336975 -0.7312148809432983 -0.38309887051582336 -0.6143103241920471 2.1915485858917236 -0.5087007880210876 -0.9232962131500244 -1.602172613143921 -0.6641348600387573 1.8653556108474731 0.5771277546882629 -0.2438938021659851 -0.1512461155653 0.6320292353630066 1.9729145765304565 1.3833730220794678 0.038414984941482544 1.320253849029541 0.7938506007194519 2.3259949684143066 0.23727525770664215 0.48772767186164856 0.8578206300735474 0.2464008927345276 1.6896929740905762 -0.037449825555086136 0.540327787399292 0.28735238313674927 0.7680962085723877 -2.0613324642181396 1.0745357275009155 -0.005753745324909687 1.0119085311889648 -0.3805951178073883 0.08579171448945999 1.3499715328216553 -0.579860508441925 -0.5872489809989929 -0.3177964687347412 1.2861995697021484 1.2795214653015137 -1.329148769378662 1.8308637142181396 0.6659345626831055 -0.9235160946846008 -0.5083265900611877 0.17662742733955383 -0.09353168308734894 -0.05106813833117485 -1.0742543935775757 0.26710572838783264 -1.772430181503296 -0.30252042412757874 0.08488918095827103 -2.120053768157959 -1.132643222808838 2.418351411819458 -0.13403259217739105 -1.00680673122406 0.05285099893808365 -0.08487934619188309 0.5767099261283875 -1.3963524103164673 0.8663622140884399 -0.7934890389442444 -0.02615358866751194 -0.410223126411438 0.005286145955324173 0.21361592411994934 1.2535960674285889 -1.1504045724868774 -0.29053306579589844 0.31286945939064026 0.5379352569580078 0.6568682193756104 0.9706825017929077 -0.5002909898757935 -0.7045968770980835 -1.1746814250946045 -1.034194827079773 0.07995057106018066 -0.22103890776634216 -0.3611481785774231 0.09710272401571274 1.1032276153564453 -0.18282951414585114 1.0652250051498413 -2.3697071075439453 -0.2354925125837326 1.312869668006897 -1.8090075254440308 0.0027754572220146656 0.5096190571784973 -0.7821276187896729 -1.3448333740234375 1.0459693670272827 1.6034774780273438 -1.6183971166610718 0.46041783690452576 -0.8445211052894592 0.9559316635131836 0.3183518648147583 -1.4315977096557617 0.21355198323726654 1.9176748991012573 -0.17166663706302643 -1.2021842002868652 0.5975252985954285 -1.8376604318618774 -1.024590253829956 -0.7304954528808594 -0.39031222462654114 -1.5510586500167847 1.4369488954544067 0.8400986194610596 0.08862489461898804 -1.1438493728637695 1.3898512125015259 -0.13849933445453644 1.5099098682403564 -0.46143412590026855 -0.1443018913269043 1.2966307401657104 -0.4273119270801544 -0.8370123505592346 1.9907691478729248 -0.31614357233047485 -1.026950716972351 0.5607990026473999 -1.0267201662063599 -0.7955785393714905 -0.43553563952445984 -0.9388946890830994 1.5824737548828125 1.1117504835128784 0.4971533417701721 0.23013192415237427 0.08784972876310349 -0.49238961935043335 0.2787635624408722 0.3716517686843872 0.42403626441955566 1.6970058679580688 0.7593331336975098 1.1751881837844849 0.24433857202529907 -0.5511631965637207 -0.541652500629425 -0.36091169714927673 -0.2681772708892822 0.9774475693702698 2.66487193107605 1.2408335208892822 0.2761354446411133 -0.8665354251861572 0.47266510128974915 1.009294033050537 -0.6060291528701782 0.3391141891479492 1.7510980367660522 -0.533747136592865 -0.2865413725376129 -0.922309160232544 -2.65552020072937 0.31403210759162903 1.3096106052398682 -1.5948017835617065 1.5205174684524536 -2.014901638031006 1.355833649635315 1.220001459121704 0.5998810529708862 -0.07601254433393478 -1.1036590337753296 -1.574264407157898 -0.15768538415431976 0.21007414162158966 1.3305943012237549 -0.6166109442710876 1.500861644744873 -0.28306472301483154 0.32611897587776184 1.0673500299453735 -0.9534918665885925 1.0740629434585571 0.15999096632003784 0.9767736792564392 -0.6753100156784058
Q1737701 -1.125882625579834 0.732807993888855 1.5196444988250732 -1.8195312023162842 2.1259214878082275 -0.4554769992828369 -0.8469598889350891 -0.4983535408973694 1.3558696508407593 -0.4257000684738159 1.5051655769348145 -0.6127558350563049 -0.2548952102661133 -1.2653218507766724 -1.3825901746749878 0.5733760595321655 1.0353965759277344 0.4665933847427368 0.2845480740070343 0.16659992933273315 -2.252082347869873 -1.837606430053711 0.9656521677970886 0.9335259795188904 -0.08413708955049515 -1.3155407905578613 0.4313362240791321 1.4630697965621948 1.220483660697937 1.1185778379440308 -1.2761433124542236 0.3250868022441864 -1.0100994110107422 -2.089219808578491 0.9927902817726135 0.15583565831184387 -0.6962370276451111 -0.807908833026886 0.42889535427093506 0.8398311138153076 1.8176778554916382 1.727673888206482 0.6670771837234497 -1.6807982921600342 0.7801276445388794 -0.06383216381072998 0.9647684097290039 0.3147222399711609 -0.579488217830658 0.36950740218162537 -0.0343179889023304 0.7807615399360657 1.1586004495620728 -0.5243238210678101 2.507420539855957 -0.5509979724884033 0.4910305142402649 0.02716398611664772 -0.9744499921798706 1.633428692817688 1.2450964450836182 -1.4438061714172363 1.0159562826156616 -0.5569143891334534 1.4262008666992188 -0.8474929928779602 1.1652408838272095 -0.7743984460830688 0.9060835242271423 -0.2417384684085846 0.2841472327709198 -0.8694584369659424 -0.8178761601448059 0.052852168679237366 0.5142802596092224 -0.566149115562439 -1.3070814609527588 -0.45656952261924744 -0.915962278842926 1.2034374475479126 -1.0452170372009277 -0.8633687496185303 -0.9872213006019592 0.7686761021614075 1.218579649925232 0.1916138380765915 -0.13910208642482758 -1.2421717643737793 1.447444200515747 0.7494038939476013 -1.448483943939209 -0.5413135886192322 -0.5587102770805359 0.2178853452205658 1.6687533855438232 -0.057670630514621735 -0.6118389368057251 -0.6836748719215393 0.5389921069145203 1.6639870405197144 0.43711286783218384 -0.21624566614627838 -1.2861169576644897 0.9417359232902527 -1.051608681678772 -0.839102029800415 -0.7801864743232727 -0.02230054885149002 0.09367767721414566 0.38953185081481934 0.9333709478378296 0.957578182220459 -1.1924320459365845 -0.24317334592342377 1.9779424667358398 -0.2295549064874649 -1.5336403846740723 1.3942222595214844 -1.1324766874313354 -0.3170148432254791 0.662462055683136 -0.6096112728118896 -0.5705553889274597 -0.5976569652557373 -1.145429253578186 1.8804776668548584 3.32474422454834 0.710451602935791 -0.5583556890487671 -0.43126413226127625 1.412569522857666 0.696254312992096 1.2527248859405518 0.4280514419078827 0.3678337335586548 0.8079966306686401 1.8312829732894897 -0.2413439154624939 -0.5088354349136353 0.4257390797138214 0.31726735830307007 0.5257930755615234 -0.09265436977148056 0.7179378271102905 -0.8081063032150269 -1.8985270261764526 0.7358499765396118 -0.7153178453445435 1.2820395231246948 1.7527669668197632 0.7220978736877441 -0.0604073703289032 -0.8058354258537292 -1.1808124780654907 0.5119608640670776 0.7442242503166199 -0.008537285029888153 -1.013929843902588 -0.19226208329200745 -0.591414213180542 0.8118550181388855 0.05088525637984276 -0.23752902448177338 2.196573495864868 -0.6859051585197449 -0.47320637106895447 0.5921944975852966 0.24788331985473633 1.527016282081604 -1.19102942943573 1.371846318244934 0.4390798807144165 0.24747991561889648 0.7959124445915222 -0.7500317096710205 -0.47290903329849243 1.0061246156692505 0.6348947286605835 1.5421358346939087 -0.23279528319835663 -0.3740650713443756 -0.23522526025772095 -0.06592652201652527 1.0052452087402344 0.006946707144379616 0.47957614064216614 0.6731106638908386 0.9789945483207703 -0.020680906251072884 0.478728324174881 0.18759942054748535 0.18421237170696259 0.3078383803367615 -1.4805654287338257 -0.8346569538116455 1.3160408735275269 1.8462730646133423 1.6395591497421265 -0.127004474401474 -1.90304696559906 1.0315371751785278 1.7077250480651855 -1.3796550035476685 2.0659945011138916 0.2903209328651428 -2.0974514484405518 -0.9159440398216248 0.21732696890830994 1.0359429121017456 -2.2360029220581055 0.4525716304779053 -0.6666867136955261 -0.474212646484375 0.26678866147994995 0.4268466830253601 -0.9365023970603943 0.9420456290245056 -0.8040085434913635 -1.2008061408996582 -0.7545328140258789 0.38399961590766907 -0.9087557792663574 -0.20956256985664368 0.2064715027809143 -1.687150478363037 0.4853989779949188 0.543684184551239 -2.1713738441467285 0.20451195538043976 1.3902835845947266 -0.5905256271362305 0.7179362773895264 0.4833599030971527 -0.45616599917411804 0.8925567865371704 0.007439570035785437 0.03254832327365875 0.7857728004455566 -1.312680721282959 -1.1390888690948486 0.32614099979400635 -0.47398141026496887 -0.20803573727607727 -0.14473560452461243 0.08405154943466187 1.3008701801300049 -0.5575727820396423 0.1328151524066925 -1.0562570095062256 -0.2916145622730255 -1.4025429487228394 -1.1375139951705933 -0.38553571701049805 0.34440791606903076 -1.13471257686615 -0.49402981996536255 -0.6789737939834595 -0.5424208045005798 0.8265082836151123 1.1466799974441528 -1.2740691900253296 0.278240829706192 1.3314440250396729 0.7100421786308289 -1.819223165512085 1.3672616481781006 0.6492064595222473 0.24854907393455505 0.8793368935585022 1.112985372543335 2.0050995349884033 0.624898374080658 -0.6416411995887756 0.4593570828437805 -0.6465129852294922 -1.2523653507232666 -0.4179430305957794 0.8209989070892334 -0.9966737627983093 1.025648593902588 -0.5436343550682068 0.5833951234817505 1.1331956386566162 0.16954289376735687 0.21327580511569977 -2.3709170818328857 -1.088745355606079 2.107653856277466 0.8045568466186523 -0.781006395816803 0.13794459402561188 -0.6667062044143677 -1.2167117595672607 0.18483193218708038 1.51957368850708 -0.61353999376297 2.3027751445770264 1.3934168815612793 2.157545804977417 0.9723858833312988
Q61897 -0.29267191886901855 -0.04286820441484451 -0.3997322618961334 -0.35180339217185974 0.7264399528503418 -0.11091382056474686 -1.8860472440719604 -0.05303078517317772 1.4350523948669434 -2.171870231628418 -1.1156870126724243 0.9603855609893799 0.8791599273681641 -0.21883614361286163 -0.026185981929302216 0.9205557703971863 0.7399618625640869 0.06454095244407654 -0.4803394377231598 -0.23023095726966858 0.09457527846097946 -0.6022316217422485 -0.8756689429283142 0.9958465695381165 -0.02454412914812565 -0.8149192333221436 -1.3960920572280884 -0.0249048862606287 2.11030912399292 0.5438349843025208 -0.8708372116088867 0.004902401473373175 -0.563736081123352 0.6283099055290222 -1.0534781217575073 -2.1902878284454346 -0.3375941514968872 0.4236249625682831 -1.9081909656524658 0.7688103318214417 1.4368878602981567 2.2274248600006104 2.9922187328338623 -2.223398208618164 -1.1575736999511719 -0.771843671798706 -0.9617788791656494 0.7360370755195618 -0.15936504304409027 -0.6010156273841858 0.6878482699394226 1.0499871969223022 -0.04409521073102951 -1.9579017162322998 0.6006914377212524 -0.1512245535850525 -1.3180880546569824 0.8349931240081787 -0.0773601233959198 0.5936965942382812 0.3616463541984558 -0.15178079903125763 1.350507140159607 -0.6756136417388916 -9.184973896481097e-05 -1.5169867277145386 -1.2347384691238403 -0.6285768151283264 1.090809941291809 1.7786006927490234 -0.20288513600826263 0.570830762386322 -0.46706634759902954 0.352152019739151 -0.3357791602611542 -0.831700325012207 -1.440673828125 0.30858999490737915 -0.521816611289978 -0.07030109316110611 1.0458673238754272 -0.4225631058216095 0.1500508338212967 -0.7991030216217041 0.15175679326057434 -0.042337220162153244 0.09352859854698181 -0.5939497351646423 -0.16115111112594604 0.7153671979904175 0.7086530923843384 -0.7749710083007812 0.04507804661989212 -0.19593185186386108 0.7515920996665955 0.013117704540491104 -0.21825949847698212 -0.4887411892414093 0.7622969746589661 0.40630537271499634 -0.09222002327442169 -1.8777766227722168 1.8178354501724243 0.9798439145088196 -1.9834603071212769 1.1231493949890137 -0.23393511772155762 1.2692464590072632 -0.17048628628253937 -0.03989369794726372 0.13098670542240143 1.3991972208023071 -0.43868279457092285 -0.024105096235871315 -1.2372545003890991 0.22378697991371155 0.8998093008995056 1.4601125717163086 -0.4703107476234436 -1.2636326551437378 -1.1306580305099487 1.2508561611175537 -0.8332639336585999 -1.5937453508377075 0.9187837243080139 1.079662561416626 1.5251283645629883 1.123695731163025 -0.18876732885837555 0.3341825306415558 0.29053327441215515 -0.6015738844871521 0.5087845921516418 -0.12996906042099 -1.0167049169540405 1.7055100202560425 -0.7622283101081848 -0.8857411742210388 0.1220274269580841 0.7484691143035889 -0.3740208148956299 0.4998164176940918 0.764436662197113 -0.4089827537536621 1.8876192569732666 -0.4975038170814514 -0.08801192790269852 1.0564707517623901 -0.9409270882606506 0.1418694257736206 -0.07436992973089218 -0.9117591381072998 2.6643283367156982 -0.14271941781044006 -0.21573272347450256 0.9443733096122742 -0.6900603175163269 0.09067802876234055 -0.44666141271591187 1.4913231134414673 -0.011852567084133625 -0.556542158126831 -0.07330837845802307 1.5020699501037598 0.9344196915626526 -0.9147168397903442 -2.3061342239379883 1.407239317893982 0.26472342014312744 -1.244947075843811 0.7989234924316406 -0.18098410964012146 0.551074206829071 0.338695764541626 -1.4205011129379272 0.07574769854545593 1.6121609210968018 0.48653537034988403 -2.170958995819092 -0.1613185703754425 -0.8849843144416809 0.07884705066680908 -0.712605357170105 0.3139898478984833 -1.52907395362854 0.9734858274459839 2.5790674686431885 0.07839135825634003 -1.3442754745483398 -0.4989815056324005 0.009517316706478596 -0.510259747505188 -0.5990217924118042 -0.0934862419962883 -0.20088234543800354 1.0567574501037598 1.7162249088287354 1.0651065111160278 -0.7456426620483398 -1.8878227472305298 -1.2649717330932617 0.5034265518188477 -0.8778085112571716 -0.2956208288669586 0.27741217613220215 1.0056251287460327 0.1461688131093979 -1.0598338842391968 -0.6231719851493835 -1.5868196487426758 0.4820329546928406 -1.0713307857513428 2.5717082023620605 0.8185046911239624 -0.26161253452301025 -1.512474536895752 2.0519845485687256 1.4275989532470703 -0.07198552787303925 -0.6856717467308044 -0.20026740431785583 -0.44384515285491943 -0.10530764609575272 -0.13855525851249695 -0.34790727496147156 0.717095673084259 -0.9085776805877686 -0.7349792718887329 0.45686399936676025 -1.2261704206466675 1.3174803256988525 -2.051603317260742 -0.622482180595398 1.0831800699234009 -0.017073815688490868 -0.11156287789344788 -1.2283673286437988 0.8077619075775146 0.34564492106437683 -0.7008990049362183 0.9203847050666809 -0.18917596340179443 0.08542340248823166 0.5097100734710693 1.8753522634506226 -0.5284780263900757 -0.5914656519889832 0.9250019192695618 -0.43021857738494873 -0.584389865398407 0.8688188791275024 -1.2037988901138306 0.4756087064743042 -0.7717997431755066 0.2773994207382202 -0.8949829936027527 -0.2984731197357178 0.5546278357505798 -2.5582263469696045 0.24290090799331665 -1.034841775894165 -0.5839357972145081 1.282020092010498 0.9857664108276367 -0.7619690895080566 -0.01615097187459469 0.35581353306770325 1.4848235845565796 -0.3836089074611664 0.9216917753219604 1.0863335132598877 1.1126275062561035 -1.4986821413040161 -0.19170424342155457 -1.3331928253173828 1.4088635444641113 -0.25244536995887756 0.15692724287509918 -1.0739103555679321 2.0460045337677 -0.006547067780047655 0.11449715495109558 -0.7100569605827332 -0.9623318910598755 -1.5070304870605469 -0.9326279759407043 -0.4810805916786194 1.1288748979568481 0.27581846714019775 1.3606871366500854 -0.1889938861131668 0.5919670462608337 -0.5199849605560303 -0.33970022201538086 0.1286083310842514 0.25988051295280457 1.413679838180542 -0.8217660188674927 0.2879076898097992 0.27320098876953125
Q18624335 0.5716948509216309 -0.45628461241722107 1.7226680517196655 -2.2743334770202637 -0.07956071197986603 -1.4887375831604004 -1.6502374410629272 0.6389244198799133 -0.7324735522270203 -0.8054759502410889 -0.018742932006716728 0.24475812911987305 1.166445255279541 -2.3063528537750244 1.2009865045547485 0.278011679649353 0.3579794466495514 1.3977556228637695 -0.30084171891212463 -0.07269786298274994 1.4655991792678833 -0.8188493251800537 -1.5638151168823242 -0.5371732711791992 -0.27480605244636536 -0.6328230500221252 1.211562156677246 0.6708626747131348 -0.23509255051612854 0.5643514394760132 0.03778956085443497 3.0755443572998047 -0.5118439793586731 -0.13099679350852966 -0.23628833889961243 -0.4602214992046356 -1.843982458114624 -2.018792152404785 1.153463363647461 0.060583293437957764 -0.3576229512691498 0.9057576656341553 0.19623827934265137 -0.3595876097679138 -0.17432954907417297 -0.09379862248897552 0.3307911157608032 0.2499241977930069 -0.27982720732688904 0.6295510530471802 2.2729921340942383 -0.009907353669404984 -0.3097527325153351 0.039202556014060974 -0.2324242740869522 1.4073338508605957 -0.0074548316188156605 0.4742724895477295 -0.23176667094230652 2.822324275970459 -0.6087938547134399 0.35435950756073 0.26260310411453247 -0.8760306239128113 1.3199156522750854 1.2851618528366089 0.12493067234754562 -0.17519555985927582 0.9483895301818848 0.3268063962459564 -1.1167535781860352 -1.6544833183288574 -1.062911033630371 0.48145851492881775 -0.6270743012428284 -0.33943814039230347 -0.8212659358978271 0.41491061449050903 -1.5474293231964111 1.1980767250061035 -0.29572901129722595 -0.12519003450870514 -0.69356769323349 1.5266095399856567 0.2530398666858673 -0.07550371438264847 -1.0282628536224365 0.18792369961738586 1.7016143798828125 0.11631877720355988 0.7863847613334656 -0.03649655729532242 0.6085427403450012 0.46604374051094055 2.4929771423339844 0.8052365183830261 1.06969153881073 -1.2231541872024536 -1.1189504861831665 0.6853446960449219 1.2172250747680664 -1.1512935161590576 1.8952149152755737 0.3115365207195282 -0.4968779981136322 -0.41093775629997253 -2.2094619274139404 -0.6723873019218445 -0.8263460397720337 0.007408193778246641 0.05687516927719116 0.08303699642419815 -1.275181770324707 -0.4138057827949524 -1.2457624673843384 -0.4595760703086853 1.3248918056488037 -1.2008087635040283 0.9197429418563843 0.3891860842704773 -0.09227367490530014 1.0245320796966553 0.6572266817092896 -0.8875482678413391 -0.7661057710647583 0.3095235526561737 1.0576790571212769 0.6999841928482056 -0.8663572669029236 0.3397281765937805 3.0757675170898438 1.2795723676681519 0.4324111044406891 -1.2861896753311157 0.0005917283124290407 -0.20815123617649078 0.6541264057159424 -1.4724271297454834 -0.3421115577220917 1.0031158924102783 0.1278543770313263 0.24737566709518433 1.8885409832000732 0.08770113438367844 -0.8560675978660583 -2.2159087657928467 -0.05527718365192413 -0.7202911972999573 1.6655547618865967 2.3394103050231934 -0.26720261573791504 1.1547726392745972 0.7124519944190979 0.21265827119350433 -0.27133485674858093 -0.2580481469631195 1.8867323398590088 -1.924824595451355 -0.6741479635238647 0.04299641400575638 0.8921181559562683 1.2380995750427246 -1.3557592630386353 0.7960752248764038 -0.6436260938644409 -2.2623515129089355 -0.31209659576416016 0.08571561425924301 1.2856550216674805 -0.8661629557609558 1.9939862489700317 -0.6842272281646729 0.5294273495674133 0.40108999609947205 -0.10300776362419128 -0.40693795680999756 -0.21390177309513092 0.0745813399553299 -0.6600103378295898 -0.3116174638271332 1.051552414894104 0.3437599539756775 -0.30850639939308167 1.2337327003479004 -0.5754299759864807 -1.6190820932388306 -0.45788872241973877 1.671553373336792 -0.9590697884559631 0.9153023362159729 -0.14227283000946045 0.43120336532592773 1.257370948791504 -0.28947675228118896 1.9839872121810913 1.7892334461212158 1.0527760982513428 -0.5786628723144531 -0.7452654838562012 -0.656629741191864 -0.9942629337310791 -0.26159510016441345 -2.083200454711914 3.800126075744629 1.902157187461853 -1.7150335311889648 -0.37844371795654297 1.1122400760650635 2.4729092121124268 -2.1635053157806396 0.8554871678352356 0.10444560647010803 -1.664689302444458 -0.20027534663677216 -0.43131738901138306 0.5584139823913574 2.6018948554992676 0.5850802063941956 0.3919517993927002 0.45588448643684387 -1.7195473909378052 -0.5165296792984009 0.15596012771129608 1.0939908027648926 0.1304539442062378 -0.47237786650657654 1.1551603078842163 0.3527534008026123 -2.00290584564209 0.7982832789421082 0.26166924834251404 -0.4289901554584503 0.4406525790691376 -1.5370956659317017 2.4207630157470703 -2.617398977279663 0.2571948170661926 0.3050304353237152 -0.6812741756439209 -0.34546980261802673 -0.3043510615825653 1.7738085985183716 -1.167820692062378 -0.15005265176296234 2.558562994003296 0.8945261240005493 0.4168083071708679 1.0057016611099243 -0.13573847711086273 -1.972744107246399 -0.425052672624588 -0.14062075316905975 0.4662878215312958 -1.4912846088409424 -0.6563335657119751 -0.3458479940891266 0.4050992429256439 -0.4569333493709564 0.31200242042541504 0.2913115620613098 0.8675829172134399 -1.3476734161376953 -0.2603203058242798 0.26468294858932495 2.2642927169799805 1.5529899597167969 0.16596978902816772 -0.40453317761421204 0.27364128828048706 0.14744417369365692 1.3522770404815674 -0.04348684102296829 -0.14439015090465546 2.3710081577301025 -1.6156020164489746 -1.5229082107543945 -1.16380774974823 -0.31407931447029114 -0.3491884469985962 1.2897101640701294 -0.48979881405830383 -1.7584365606307983 -0.16296149790287018 -0.7631138563156128 0.22038383781909943 -1.016410231590271 0.6448282599449158 -0.20559142529964447 -0.8149043321609497 1.6029824018478394 -0.3008454740047455 -1.372623324394226 -0.7773042917251587 -0.09049023687839508 -0.7171257138252258 -0.3008270859718323 1.2618581056594849 0.11203698068857193 1.5573294162750244 1.7488518953323364
