Q1222382 0.0947644638483706 0.05952487329436357 0.029287045458986333 0.06412400894156717 -0.03336248556773206 -0.025508032465867 0.013508843798824298 0.08658889571263656 0.03302472394694652 -0.014102788354577603 0.08010194826981903 0.025580804872346784 0.08054778547370954 0.03892035811509572 -0.09283041809228487 0.01853257922976536 -0.036401587720939564 -0.012829337708472156 0.03386965131285371 0.07788552276431669 -0.09876553242143825 -0.04898767869603508 0.09371050468596374 -0.07978643016079794 0.04663639337683832 -0.05747693558450601 0.09483538072818297 -0.09076205888942573 -0.09426790586887115 -0.0972771218766122 -0.06278489496343807 0.015268348978831144 0.043867562949660106 0.08591591025679139 -0.05880589628929608 -0.10182800307466061 -0.004117522272648952 0.025418616158939752 -0.09458917223304592 0.077033327013702 0.09725971533352154 -0.07314785094115003 -0.05477511972103281 -0.023031474854979736 -0.0611142331076481 -0.05577631272857686 0.09831905273787854 -0.09951612228237804 -0.02767392298327691 -0.021944623298397328 0.003659337913131771 -0.011400402569800508 0.008389820008475832 0.03597887750722165 -0.016770214655421688 0.07502333592632701 0.09191699482623504 0.07335135018417972 -0.006696068387248611 -0.006043693608033341 -0.0460765306175745 -0.0936489792347356 -0.058542944864845875 0.030883780072270817 -0.031782367708242144 -0.07406153765572811 0.08571581464171207 0.1004474603991849 -0.07810434628660846 -0.09375203349482314 0.00290610467440976 -0.00877348850796246 -0.04257900848504582 0.027419876510833347 -0.01413938759055428 0.05055916673482738 0.10416460262234671 0.09526178330909037 -0.09734000283693237 0.061945150816378365 0.03130558655281867 -0.054539822184645995 0.025360321980873228 -0.09829432983606805 0.08129541361461452 0.047048689331373676 0.0251542967982831 -0.05025387634792326 0.023707618399096946 -0.06783268389989293 0.06458059517987477 -0.07286470024055088 0.10212954827453966 -0.06163923134938324 0.05990438848723804 0.06721786193362649 -0.10090152290745005 -0.07092009128109852 -0.08435854585118027 -0.05560521870722809 0.02393629791415647 0.02074972076179468 -0.0012258422137384883 -0.027669616390910604 -0.04372443676236486 0.06276965193958174 -0.056693680300570176 -0.06025172469250478 -0.08315198660119062 -0.0022845166152809728 -0.05641140034677417 -0.016707552574549124 -0.02847863625100132 0.05131380914206147 -0.013593022106744079 -0.09546466682522914 0.07948568333490091 0.04771006553741813 0.016423654796120766 0.05890278390157582 -0.06573514325966565 0.008006869816505478 -0.08360184769807878 -0.0003784414047750965 -0.058945735375883754 0.06109784041764475 -0.0899976888020492 -0.055079963002953584 0.015674534069304927 0.0999899012138538 -0.0028094508662175302 -0.006268457708885172 0.03839909470685765 0.07550525046736131 0.017607773067040703 0.06924203712997458 0.07227079601053034 -0.038642874844512794 0.08005990642480285 -0.09307229226396864 -0.02279619529643143 0.059077369368045925 -0.005106015078793543 0.02559465467235628 -0.00662664552499633 0.018126187841420477 -0.017767714498243867 0.03447583048358542 0.039218823087811286 0.07763566958772715 -0.00170340907440082 0.014797304060546593 -0.04124400823344277 -0.029612202495572223 0.10398411026485913 0.031723889986253986 -0.0021568092253966783 0.08679101553728259 -0.0041353311106579905 -0.03863755560574822 0.02432261825494376 0.016755277438399448 -0.048967900981772575 0.0792689303613783 -0.0765269536660911 -0.09070024618512489 -0.035944521684766695 0.08016965818036662 -0.036553845651390846 0.0901054058143962 0.019359766424130453 0.053277194777520666 -0.04306069813232569 -0.011179676575753101 -0.092901828950456 0.06268382368511985 0.03665508566422621 -0.007919110452991476 0.044238297156418395 -0.04650319470341833 0.020428702553098775 0.08571079934459534 0.0283451098211779 0.026259674020180687 0.022168115167787578 -0.041081040546780266 -0.03240731197543908 -0.10329631697447193 0.08059258787619421 -0.02524606366687433 -0.04210273322547191 -0.027571806819633993 0.09651463136502868 -0.057941633123814965 0.07194811180803713 0.02752024491871923 0.07331675290736622 -0.08825815030047209 0.01695190291732133 -0.03235075198710737 -0.047218427284707785 0.056354538848981804 -0.0427864736869991 0.09701638652140591 -0.0971951214953824 -0.0742997831742281 0.062366601357057155 0.04826822593159076 0.03310200361762784 -0.10246695610586004 -0.06738905771366943 -0.030043737299744345 -0.04989207580925774 -0.021097270033685823 0.043218752249489 -0.005061520148456272 -0.007200530129267526 0.07448304960900382 0.01827335779139258 0.06845551880830175 -0.0354117976769768 0.017522239951294108 -0.07742463212198446 0.09509128894264764 -0.07642877732394922 -0.020272030244201735 0.10219953280923501 0.02915022859500946 0.0518133150001192 0.0466416088909151 -0.013067622666518045 -0.037092704295071666 0.01373286304280815 0.02907314791230108 0.029109438211606775 -0.019539864329199744 0.06363837907297751 -0.09313369683279255 0.08178408508181254 0.10031169988394992 0.018135436182004933 0.014128371987967618 -0.02894485140701362 -0.002594910543318522 -0.050344866139512064 0.03522292331567243 0.018932440550881523 0.00037506257004502194 0.03724423397580855 0.09994514866037059 -0.08999301307763355 0.030922547908307473 0.06939736904423831 0.007094725404364269 0.04378904270519291 0.013670981616279942 -0.05564491118562924 -0.034239596683573396 -0.008793549252040279 0.031017530689432464 -0.02364657190496454 -0.022684694995831794 0.04343605628091347 -0.03823354311032506 -0.035011085755648465 -0.06643327183119054 -0.03494097549579958 -0.0018152229771676756 0.0405720706717922 0.019450838183223088 0.09729567839038365 -5.079369793857747e-05 0.08042986448328723 0.05634825543950519 0.056065124549587696 -0.004272577174115933 0.03823627315717446 0.01824651279726111 -0.024733188200837107 -0.07503268584706041 0.01689870006779891 -0.05826301026339259 0.015413714116567832 0.003309888100851533 -0.04406575357802234 0.04024124251248495 -0.10387229372435643 -0.07368653030484906 -0.009065175109460697 0.017849015225435468 -0.09497041912786387 -0.015285053068816468 0.050826776199718635 0.015139659067024351 0.00042072567857938305 -0.08769802094486358 0.05186990741469113 0.04454205522570564 -0.08658318633787743 0.08254119486364432
Q61051 0.014639466380380524 -0.05310725088823446 -0.021295231346899434 0.030672169406911465 -0.09017975597949522 0.054845933312741096 0.008268886060137579 0.09069541493242798 0.05052703291980073 0.020017708636969573 0.0031671506931358305 -0.0027859544848607525 -0.08521525717675116 -0.08625648908227797 -0.03933320588339216 -0.016004417564193064 0.02827190152104999 -0.09318259424724326 0.007378250273060474 -0.014557870798553972 0.03901966916703153 0.010236665603791517 0.040281886743507335 0.09550530676634152 -0.0438116103422064 0.02348906240394526 -0.06792618479688659 -0.09535483545770697 0.08476828000391133 0.04825399773417015 -0.08506833140130873 0.009142718924384733 0.06852637095391655 0.06488833196331445 -0.05145130355012516 -0.005978848696456919 0.06005698762601003 0.09520682751661132 -0.02757474977103052 0.02886861687399087 -0.07252732546335201 0.0885790792417236 -0.09363130871717609 -0.04987730093983163 -0.04024047221046008 -0.08393705983128971 0.0884642205063458 -0.051710174244106566 0.06057774320591953 0.0947510478675382 -0.011927039384863667 0.056898499468702846 -0.056787210984863896 0.07982781676038819 -0.060412108487505715 -0.02043446684550442 0.01865084121312605 0.055928012582354344 0.09217970700838134 0.07786156215784647 -0.05930870900753107 -0.022300116263272142 -0.0468856729127638 -0.012649534311468886 -0.09093411980301484 -0.09744546092665146 -0.046262965210528056 -0.046483425947155474 0.00019004578735794651 -0.014971230677296726 0.0480167005833719 0.05521707157151478 0.08635142387448679 0.008785312034838195 0.028490043010878447 -0.019543285753213034 0.029599398150805874 0.0967321274934108 -0.07309181489487239 -0.029925953904547192 -0.08288779941289444 0.06983213408608734 0.02097204695160832 0.024696764585446066 -0.05969269810614691 -0.008027447298230775 0.10074559764048316 -0.05032303573361884 0.04238472200504041 0.008709156828078083 0.017279880484750477 -0.07347423550711794 0.04848173387165204 -0.03754027954529969 -0.04133368532808178 0.05995934508669643 0.015844796751419636 0.08065741727225509 -0.034349852146075534 0.05164335793463538 0.06813858366566754 -0.07484718028439473 0.08016784566741661 0.0315187046799362 -0.09376238527118642 0.09766234216641421 -0.07363378784438442 -0.08320407446781188 -0.0042766471274767286 -0.06704253597686168 0.010339773667192765 0.010673443253481366 0.07394907581908679 -0.09544524875119377 -0.046790956109869636 0.010333886345583734 -0.08630396109194098 -0.07614524510867646 -0.04203426057648333 0.04880461564735156 -0.02174050046657883 0.05385442457984978 -0.04178264541934897 0.007783223687353773 -0.07154534955652847 -0.03583306271064084 0.038694405225297594 0.03733560531636562 -0.0297619935262565 0.06586784265148768 -0.026992716469686893 0.09795781701184302 0.036970122065293834 0.04587609287958302 0.007686486479214484 -0.06451798912357237 0.03151657207237967 -0.02026363359736031 -0.08241335173960898 -0.09624968322903601 -0.08365134442380093 0.07610981860346318 0.07296030699538726 -0.04253721988769861 0.008316696653459377 0.030543972667893902 0.020213888942382165 -0.0016674587743337385 -0.01952445083814226 0.04116424224450129 -0.03231469076214931 -0.0564630918504884 0.08658900739867138 0.02227227016054946 0.021763785861030782 0.0820510769015221 -0.017777235196841483 0.05194924761557695 -0.060267329626409724 0.10079614736196686 -0.020573027591853414 0.1000873510982401 0.04667776380944649 -0.08581953854578575 -0.044833943640051714 0.039411882753667304 -0.06230763766461948 0.06440034746350494 -0.07451183634115785 0.0377273290771263 0.022246804418141097 0.027110125431019264 0.09367557680124766 0.062239800158132554 0.007227637313125896 0.059629490120741147 0.014402214709992145 -0.09267097424572932 -0.031182298696655324 -0.0792352137936635 -0.03262421622143167 0.006313749888873961 0.029164418225346427 0.015179378822515232 -0.07097048221127386 0.0230025786117328 -0.06233778382632886 -0.08153313562167364 -0.01732764224986991 -0.022512774115675007 0.06494639175571285 -0.0707866493644467 0.0572184253404275 0.004717722298943099 -0.032895223619691966 0.07281339003985064 0.007030019752515596 -0.034243420638812805 0.08793981421932878 0.04654244860025633 -0.026377342442504934 -0.06823574962129762 -0.08380452663499112 0.04929307741339112 -0.002918536654006157 -0.0356847084542094 -0.04542872330113734 -0.029590330168676557 0.008085109711154732 0.08798548848900713 -0.0005957084730169941 -0.09001867543736577 0.10151186306119557 -0.09854334039870814 -0.03352562655112668 0.04635003792074896 0.09338923711206351 -0.09659666702255985 -0.02671830269691901 -0.01861819945351262 -0.008260099442822915 0.07251012053865037 0.06714754468977535 -0.03628339992534122 -0.09375271243024837 -0.06248767379422421 0.06470041635628963 0.09566339899015176 0.06960049599043037 0.066461861881783 0.06314203374638601 0.08971624182528161 0.024605370665972553 -0.09443767861879863 0.07617529885029999 -0.059721083523886186 -0.016908249402213055 -0.09541647286274392 -0.041719383368987034 -0.017954729687829765 -0.055822244230289586 0.007357502698942276 0.08247844955127007 0.06944913397383648 -0.08932529896987855 0.002835580943264892 -0.06778813495507345 0.01767773172024395 0.010381945077696457 0.051896834521913654 -0.036824881041862045 0.03747556819668766 -0.07908348032719043 0.045171560305887634 0.006299075949687279 -0.053319635392330575 0.023076399666730505 -0.07106612708080949 0.0253044603604196 -0.09727733267634593 -0.06071503350420776 0.05518912646560935 0.05184145409900368 -0.03923716829350678 0.08312032636985828 0.08332617578983156 0.05144749407355312 -0.07767978942048387 0.0407774439216325 0.08963382287082967 -0.05104633571628029 0.019881275538585094 -0.07674465703506218 -0.0493518359450694 -0.06713873727936989 -0.03152013176702606 -0.014105699874146511 -0.007068645534419205 -0.004324759165076052 -0.019861554730698196 -0.028957755201540276 0.08051470112245886 0.06408619368385667 0.049432739502996044 -0.05784319073771801 -0.09217849692341211 -0.011938439015678018 -0.024093445786971694 -0.026246766416279644 -0.01824188015629557 -0.004408275234392977 0.08890647363645145 -0.019942288620422008 -0.02795059634327784 -0.06902439006079172 0.0805995955005936 -0.06192472977512493 0.04675002439506534 -0.0015371648780867287 0.06842248363103824
Q7477615 0.08435775341304501 -0.09697839966456007 0.07224418908041849 -0.03977778796339481 0.10064636958758519 -0.04227851346419271 0.05948855736714224 -0.034569753000314854 -0.06487927059482104 -0.058139383826720036 -0.0004492776615409788 -0.005761612036854582 -0.060118124063067234 -0.036404005706137346 -0.08586881056265487 -0.07271539892651259 -0.039164239735982306 0.02933448773079615 0.05345079649803247 -0.07179553052711661 -0.05043254466455504 0.07641105700860926 0.046412370075356084 0.09937544472300801 0.0725157613256935 0.09288327221118702 -0.0987372175769208 0.09926074855662538 0.050517687504251764 0.09835588493066276 -0.011168511027185699 -0.042134607275422536 -0.004190100643764536 0.0917019635192027 -0.003067616613343234 0.0647974098237422 0.011662703179458243 -0.09654915991063025 -0.08496028499759009 -0.05134562343618832 -0.021072210294986488 0.03920125150742054 -0.074835792263573 0.04460918931580423 0.07752118778907759 -0.10039357367750332 0.05246012350509449 -0.0293672071694382 0.0035273270624291667 -0.08886736804678597 -0.04274024239102206 -0.016911829843158668 -0.022628707007768003 -0.019196205548501922 0.04899835550009265 0.0754709890578401 -0.05950414508292477 0.05482192657873171 -0.027976183130738106 -0.09954280574662766 -0.05533421705542034 -0.0012393555215218116 -0.009317094201192016 0.05456349560321619 -0.04119735129978048 0.04501151238877505 0.03750729735397879 0.09035119922315658 0.025507726823032827 0.049569635418347954 -0.02635033107668654 0.050689437785268035 -0.09588100411285758 -0.1017795066642346 -0.03417945483591799 -0.036818232993690886 -0.03847487235858685 0.043379773237670664 0.04757005450728681 -0.011628302302196225 0.03715287856029932 -0.03461902167031409 0.011749180869757547 -0.016360050806752822 -0.07918668902377925 0.06285666718506316 0.025694947827104235 0.03226316240547724 -0.09920486135091194 -0.07281598829844911 0.03414884408445556 -0.05116568303791496 0.05981690889976025 -0.08143114817591342 -0.04718182541916817 0.010160704317392098 -0.07629211661880816 0.06025750081258863 -0.0031892019468724247 0.0031320607775208527 0.09316683075255243 0.06188536214810877 -0.04270877448317549 0.08283490831534392 0.06922140518054481 0.07280356740344786 0.00726063794370045 -0.08024004143842892 -0.07652568670039325 0.04507450927825021 0.011873217565341099 0.07416757196968035 -0.04521261773979032 -0.10276899579698835 -0.038762103790406455 -0.07035226479617271 -0.048846511465038045 0.047794435931977165 -0.07988542214985986 -0.02369568210279468 -0.025830460932339826 0.030536080629004328 -0.029181414454173212 0.06357798478392887 -0.021720893173852757 0.09327042985744764 -0.06927640080867707 -0.0009637786153030503 -0.008336226867138283 0.04523593513750718 -0.00810452978570727 -0.014212723304307685 -0.046572765896217116 0.020587995024517507 -0.022381627304699704 0.020296368813510417 -0.06589285754929841 0.060482835941712755 -0.008309719512636479 0.09667591826791037 0.09218438273409603 -0.07832225700849083 0.08663970671948451 0.06296115742413186 -0.007541748478788897 -0.09413018112384317 0.03762033456577028 -0.0849659276617845 -0.04090938309111364 -0.003978379643822274 0.0044202789915631395 0.042393500153682484 0.030249387098543426 0.014635474940765402 0.07050322222728732 0.06304631151432342 -0.06582982181007603 -0.04345527894635156 -0.0562113945669772 0.04251571472737829 0.05456014191167349 0.07341010685733944 -0.09238623218935658 0.05766499852538447 -0.04513931559901485 -0.04220401940814467 0.0004969560369001677 0.06786334125783533 0.04843263758937226 0.05800092326153735 -0.04304890226036285 0.03181908172289321 0.035769606533711897 0.0377495162840911 -0.06785679156615695 0.03425465732234484 -0.09632921264609492 -0.08237804657509525 -0.008363599560676201 0.009423442724847242 -0.06653988079046312 -0.04789053794866504 -0.012656388497407344 0.012232958052969601 -0.027354926558432267 -0.01666676095097878 -0.03663558770848951 -0.01499531837378524 0.0542587361345462 0.0733222662525278 -0.05303848555844089 0.023092198827135986 0.049558887156431114 0.07024996442713997 -0.07551811929083514 0.042121141190935935 -0.01552755999173201 0.08693928620152219 -0.0733675236364115 0.0783847977776614 0.07471022801638832 -0.011738322914281368 -0.0025238840252223764 0.013925490928250614 0.08741545868164226 0.0391723795846899 0.08728113559746788 -0.09265952539934111 0.04581717341095414 -0.011910958580932694 -0.03232406622576686 -0.014939058719505478 0.049866204279662436 0.000185051852811998 -0.03234517383607383 0.09432194983696997 -0.04107527573897634 0.09019766739509927 0.02288219217674249 0.048178238532588104 0.06944307175025238 0.07459641800739569 0.04732958672333025 -0.05009665357427636 0.08555886336582663 0.036992969049793184 0.000991324668205793 0.09260580421407903 -0.07748867245141652 -0.016022445525317782 0.020362235655311707 -0.06091613932231313 -0.04775264784746698 0.012301546572761718 0.002236917409162616 0.09893088685203079 -0.06293660329236987 -0.022644931049620926 -0.050899609488204704 0.09179528091365656 -0.07066952578104309 0.07781676620514866 -0.0950729834659015 -0.008188489873338754 0.09834316738613474 0.08523197006924665 -0.09214389483166213 0.035437089029627944 -0.012787029096551689 0.013770713638876933 0.08646484579498155 -0.10081801911785494 -0.09142443710173043 -0.04072886448282406 -0.020643320999959084 0.027701521634086138 0.038933351548626094 -0.010456453748846047 0.0012665802381392627 -0.031958812453820346 -0.03924034721926178 0.03696215041810336 0.021865649551791932 -0.07176079879788218 0.030142428483503587 -0.004331082231208847 -0.004919638159843307 0.06432244325801417 0.034064694568414 -0.04282020396262808 0.02810525336622294 -0.04816368067718189 -0.024511724378984807 0.10019080916611138 -0.03999078879253221 0.08693015732636729 0.0678093502105992 0.06954419194454065 0.09070009001573369 0.04093462346705542 -0.09617427490697446 0.08845630156162938 -0.046197783215945705 0.06701396723939558 0.04109815730838774 0.06984359736194283 -0.01304833124036402 -0.018243670730173106 0.04850694903513043 -0.0012513589393589237 0.04541593661025427 -0.09899156852726415 -0.012199115779553087 -0.029965113362691136 -0.08762922849297601 0.011476908783891857 -0.07595450519722056 0.00416697038431041 -0.04632034049711042 -0.09008283591222581
Q696432 0.043273483665145863 -0.08180127721221266 -0.0006009011748588077 0.023997809571968988 0.05820207165261681 -0.014135095401599476 -0.042103536258387586 0.09129011180854722 0.0014384781358513022 -0.09025843144736552 0.09084900342249697 -0.002765769177829097 0.04505680822134995 -0.01845554260713927 0.046666095001197824 -0.051590999028107744 0.02152485619190942 0.05164482481845191 -0.08825496339382659 -0.09387426382356621 0.029762633507384024 -0.08403026604619013 0.04260641538033239 0.08072075726125175 -0.09223020935207704 0.0741979454321606 -0.06465909743354349 0.014245684660091603 0.04443895867918449 -0.059815796765139845 0.0324545102684933 0.09361553428626013 0.04971454483861411 -0.03477506941018223 0.05785122065629699 0.06540271543593423 0.0284303631431717 0.0481338405389562 0.026924821262555625 0.08719547047732469 0.030071492277124818 -0.09416893634149617 -0.047670493411717065 -0.08483765609853086 0.07498798241127841 0.08694983296186572 0.04300006667969239 -0.038079192455967824 0.07070178499740243 -0.07041215418702104 -0.003366471813218391 0.051825714391336576 0.053601215258931155 -0.06701464689874541 0.014698400812499741 0.03851498076818644 -0.06982742357368425 0.09306467791734248 -0.02991239968592384 0.03949006772373147 -0.05141008321028769 -0.0755116773726862 -0.0705108864147604 0.03476648129399459 -0.029565374301580283 0.07240169459793784 0.09002035069121628 0.013948675307267403 -0.06298103879448852 -0.013606791201334742 -0.06926335418963246 0.0943363538650103 0.07583944851998574 -0.01904585457653676 -0.08475355623416304 -0.08125599258428635 -0.024623296559524263 0.06907497070163292 0.09300184890848236 0.08923651385835436 0.002303085203131981 -0.047902655284364264 -0.09177907761466994 -0.045407168425755456 -0.03304330226190834 0.076611333978471 -0.007879437986913056 0.005885623224834576 0.03647379040922551 -0.04610755525509403 0.020677897827129522 0.057510438547152466 -0.07825126681182268 0.06434378819940477 -0.08727561327237876 0.0071421877310927015 -0.09016309505040167 -0.01461936073256804 0.01697979036437089 0.02813229739512067 0.04932294817774758 0.07084577414192084 -0.06613588592371088 0.00041033580379158885 0.040570208127172325 -0.02366272843424036 -0.013614493037517158 -0.0650746742975537 0.08832902337384452 0.0453701709124062 0.012797669598821334 0.06351362999434264 -0.06567783136491528 0.0054079303519020796 0.024403468073122887 -0.06046660623935575 -0.048762988738829456 -0.06173719528360132 -0.05760782253154912 -0.011434030068108421 -0.039163884044276676 -0.004771261224410905 -0.09312821353333071 -0.03989384296440825 -0.06370021889563902 0.07226338999410725 0.025823208993406583 0.06050366494379345 -0.04300131608259372 0.02141130484035527 -0.08015798574300395 -0.07398497824467992 -0.07652228214877163 -0.06147761151494635 0.08491940724090281 0.06497096439822546 0.040512716826488375 -0.05955215537553411 0.021534050069300186 -0.00012727999288621904 0.0780234844417025 0.014928308362948664 -0.07903600198634493 0.004793707524067967 0.08947970642871755 0.04020355659808472 0.08394070572750639 0.004038780380572509 -0.007302520807760361 -0.03485588311136071 0.058075694628792605 -0.00803623654342954 0.08573203013099853 0.0400644460694057 -0.06940612459495006 -0.09468770544646654 0.09351242177957929 -0.08172291163836613 0.005808084910005988 -0.040519862052715024 -0.041601426777276976 -0.02453757465177872 -0.05789182593156277 -0.07058503724851227 -0.07235108599196041 -0.04713035232701281 0.06380773842989931 -0.07904874391806656 0.02745030756555311 0.01898584616174173 0.044189843669991305 0.020061414833697357 -0.04955662119412098 -0.02687508513845163 -0.046723949776238095 0.08573372263747413 -0.04668048485138082 0.05295903356723654 -0.0654094290132057 0.09427447745225902 -0.0440737752387724 -0.08423214010460597 0.0018896535584693728 0.02121927117535962 0.01043199827273178 -0.03562937306464181 0.08138676340103614 0.025193335194110145 -0.06965241075756422 0.021944344102401574 -0.091779886481443 0.014957461589831128 0.06275095390238435 0.018323053706383027 0.011588022165687387 -0.047787771485050784 0.09352189889007656 -0.020033573860666214 -0.051506298884175315 0.03302147914588896 -0.04992246223273185 -0.017146853860509806 0.08507868867141143 0.029686048679496237 0.026281260703234877 -0.0034280198247622715 -0.023896425778249925 -0.02998291643188366 0.07428002935057486 0.08834636963525284 0.0013084738031857533 -0.050785181438367126 0.03097188363013411 0.03799358845731662 -0.0381937702373732 -0.03959458484001038 -0.0067213431659603326 -0.062440682133742785 -0.09067263396973338 -0.0638852853003275 -0.023618904086176448 0.00522391738645732 0.006242572584554361 -0.0657589758455757 -0.0567120697026507 -0.04020408930552891 0.054930259318529545 -0.006645427975952044 0.09278297825969967 -0.017576844510398718 -0.057316068841747815 0.08632074798775777 -0.054216396985463135 -0.0332670856878369 -0.061987417457620264 0.00081354843983319 0.05676942367125119 -0.0295905234697081 -0.05035906541952646 0.012410504938306725 -0.09478842961057408 0.010837611235172415 -0.08620858165051891 -0.07104641122900576 -0.003870198154133886 0.00445166233318351 0.0264500631886007 0.04332358040828518 -0.06951437320391121 0.06422985692000797 -0.005589563534619817 -0.04939233894710682 0.018282946642629694 0.07829648232396186 -0.08182032469179452 0.09490058712612481 0.010234658950346026 0.09513707287060075 -0.09226819257401944 -0.05431556317020597 -0.00976207189865374 -0.05235061320574823 0.04399203538800323 -0.08331097515574526 0.022167428734090774 0.08677085380787426 0.024375412704880244 -0.08213191456925384 0.06678150429039531 0.0821755751171732 -0.0956846963877611 0.07648513240987367 -0.020164681593794472 0.04311605646789764 -0.06821386380479266 0.01099136501166846 0.043130941997807676 0.04659471746447993 -0.08663464208681242 -0.08665572481084534 0.09484222995261991 0.08161218390799932 0.08571773158126182 -0.0571929539002761 -0.08197932205112579 0.05491628093608805 -0.08076633809194367 -0.054004094569173676 0.07999195618249777 0.04136905384586403 -0.043201403926094166 0.03065428323649809 0.005968124031723991 -0.06861198973426913 0.07805366419665173 0.03785009350095118 0.05152130880640283 0.07163680314930909 -0.08317877313762115 0.013734225478747177
Q69346 0.052406089422062464 0.01686094604546262 0.004787492262091697 -0.05329112180976197 0.061015261238357654 -0.05631845515241124 0.07575472219553084 -0.038430892210175774 -0.026474972388375203 -0.06556109147523888 0.09349033825227462 -0.0927391457730394 -0.04462949657089173 -0.08725005227567577 0.04471150242500945 -0.058318871211221215 -0.08482550848899918 0.0126347513656812 -0.04007518857864958 0.03461329939773634 -0.056872934435366014 -0.06559445761105857 -0.09510219365141728 -0.007053855310261798 0.045862451562033404 0.04456700942556428 0.08508703187670227 -0.0910314756528042 -0.08187097109860264 0.012437543532978126 -0.07888270545130566 -0.014894830514547425 -0.06759235514165482 -0.07913114938065537 -0.04861578213668077 0.07845601344991898 0.030536173242231957 -0.028116183350834628 -0.006361276609768051 -0.03962746435764623 0.0008766973751833728 -0.03621671169709835 0.04267123859953299 -0.04836008832365261 0.062632090905812 0.07596689785376146 0.022683033263124226 0.04191142613452156 -0.04898861354287183 -0.09614210672413172 0.050526036456922316 -0.04724155035291064 0.01375922575222689 -0.08637843745069336 -0.032243175879156295 -0.06570342210077654 -0.03380160463768267 -0.06652493000946792 -0.02300524643116091 -0.03415248148633049 0.03297742405922283 0.04362309368499831 0.0411724692658113 -0.007498962807860616 -0.04860349435438471 0.025005898339028648 0.06177787639957381 -0.04870920128985512 0.021022578179569915 -0.07181336323482367 0.03603724462687346 0.0034979422252734236 0.02716520300553937 0.059588936175828465 -0.08686139285318521 -0.06003224819605472 -0.06267593026551814 0.09538941907316985 0.07375051393658373 -0.05249804736753901 -0.0824016564089312 0.033951200378659625 -0.020559980563448172 0.02195109597975086 -0.0719007685132194 -0.02725600987315743 -0.0822964602577539 -0.034003687751892324 -0.04775300360783125 -0.06589905854863529 0.08742102624714318 -0.0033362826691013384 -0.02204712868580629 -0.008198599848865446 -0.022221468671668895 -0.07192395960041026 0.09236360610780557 -0.08811745223404552 -0.09552520418972422 0.05763098886397177 0.020689201338013764 0.030729550348312647 -0.00036793970375144727 -0.051694208300120455 0.09258711581556338 -0.046706601995332296 0.08831382311602823 -0.05551184895232037 -0.009912880981045508 -0.04193154782244784 -0.0545434355730084 0.03514721509887527 0.03157813562161299 -0.0233604939962517 -0.09533486170185605 -0.012078122073716497 0.04147179604906869 0.030297271878520653 -0.062134519594399126 -0.07165916185553209 0.05920445204320768 0.026807699927969778 -0.025829722209285807 0.013364644369805135 -0.0906825357656251 0.07787468361793519 -0.031021356512598797 -0.08564263342430774 -0.02946323900475699 -0.01298182779614499 -0.04384997471541675 0.001241770416990633 -0.06279472100066782 -0.03780772101157383 0.03743333602299902 -0.004271324345541431 -0.07990543108959196 -0.094976818498152 0.023037167457113067 -0.0794603548210085 -0.04423044577536705 -0.07494775788523238 0.09315096345027243 0.07849402424376076 0.036915506386959264 -0.04683165243152858 0.03101437604028136 -0.07607842808414256 -0.05717445726514334 0.07931704368136806 -0.06051203640472713 0.03146672342402961 0.04663023940997965 0.07072665127984737 0.07910396755386256 -0.05193860885190689 0.06853601354874235 -0.020883785591547303 -0.038490963419199 -0.09365778506377676 0.027698169428075285 -0.04512761126370479 -0.03712748346623499 0.0067776561033233715 -0.07518358150132737 -0.017960789535181484 -0.0018315052599914541 0.07576839787635775 0.03813439792396719 -0.05749890684707759 0.04393459867642893 -0.09158070659332822 -0.07056068892350184 0.06404198127077508 -0.0730657249958755 -0.019937002196941132 0.012726259049149782 -0.016720066565149006 0.06539911315285941 -0.06405863069922596 -0.07503470116486004 0.025239544304111395 0.0743308368712656 0.08679710595623649 -0.08141672111584612 -0.05697672491121114 -0.03779575784551055 -0.07466376089064579 0.051249255306417996 0.039675011499471856 -0.024056250569285745 -0.008420307100644285 0.05196303672850833 -0.0878815868434235 -0.02577839826525127 0.06864718396803067 0.00161041390552309 0.08870377223768951 0.005279622584313103 -0.028394845333275652 -0.029951145976052664 -0.06572292217458676 -0.05845710123437951 0.07838661411796172 0.05974643626028732 0.025030132219071903 -0.08562097892828922 0.07957062566551444 -0.005074788542845802 -0.061449745259065686 -0.08218562114334972 -0.026449165843427595 -0.0777676948582472 -0.05952001457796219 0.03675329319642608 -0.052070991433909274 0.05602302740076857 -0.06648349051287132 -0.03282488088764643 0.08646036298087209 -0.05741061715020735 -0.06477012205597162 0.00921554309658241 -0.026560163591327693 0.08322478784164919 0.04156141199093961 0.08859336336014534 0.07688078402784504 0.06821822013002299 -0.047220522659013345 0.021879894466548252 -0.08150248092442018 -0.01938213829072694 -0.06051582112184428 -0.0033681298806777526 0.031648553613346515 0.08422179338893318 -0.04351144651612028 -0.09474961285827593 -0.025075678131835033 0.08682615213652421 0.08681261722848177 0.06508222910744582 0.058996271621938705 0.09185156140843126 -0.04002529362240406 0.05470157662567916 0.09054653009214332 -0.07102535607755736 -0.09545190931863229 0.03230724704582041 -0.0310019122427436 -0.04896324525330681 -0.0605524034446116 0.0898310739951695 -0.08682422172898425 0.015807024774700314 0.01146044500518303 0.036191059400054584 -0.033350505798773585 0.04750707923566081 -0.09028777268629677 0.08037227597576388 -0.04789974518267491 -0.0728509363571861 -0.04040406725417563 -0.08586497771219347 -0.05948478621417172 -0.09544089013156466 0.055913125377691476 0.08907390458575239 0.051779207993408426 0.0405566934400272 0.041360684791932036 0.0362065660866074 0.08457275560811811 -0.042861172580860744 -0.013370858659441435 -0.0017677503091685066 -0.011183339931766281 0.01542831370729402 -0.03829339700888939 0.08919223047457159 0.09426907086441424 -0.035320511449313176 -0.046856445553872764 0.04085759460591667 -0.026893388101969052 -0.089150920285001 0.0027024877658535593 0.037412461423614485 0.0018447385014846614 -0.03675674388733607 0.08002747739163639 -0.00524520353982676 -0.09016132471201402 0.050729013121311596 -0.09362686531927542 0.05211084148182507 0.0054569946594025575
Q1648387 -0.01044359286375547 0.08875916676021728 -0.0500922657784524 -0.017274491757939804 0.07919987821870182 -0.006842828513940205 0.006233928030193741 0.03452105381618035 -0.03731770908530929 0.01805764852989851 0.08992281476943886 0.07603760471192002 -0.014727952653688295 0.026773724940766144 0.0049939933832793115 0.06570043032986779 -0.04809574370558234 -0.03099355824809156 0.06813867757523896 0.01874081766388449 -0.09201118633666355 0.021412988874768116 0.08278015819186144 0.05203756684803197 -0.052976874152903496 -0.02125107013228086 -0.020619071434434363 -0.10125304482219127 -0.027012538367007104 0.010332217038207369 -0.0581732681412817 0.009371383252348967 -0.0005789331304934168 -0.036779240744611384 -0.008829921099890189 0.07538678096306207 -0.016830098248465195 -0.016044913879833998 -0.05194293845320451 0.02246208756176634 0.08144961909571463 0.04388058905565551 -0.006247638270537746 0.05013681458423959 0.09356773488856662 -0.031212684869379892 -0.03079844692875708 0.05786838394346873 -0.05672063190810487 -0.06160943636479929 -0.03289423219649419 -0.10068005516640721 -0.0491738936144716 -0.04836512398740563 0.06389381001120159 0.06404700581120316 -0.014379179907901666 -0.06057518335109244 -0.07094932614466794 -0.09675490642551669 0.09357526891354763 0.01583915696445619 -0.042319810276544675 -0.021139383323423917 -0.07134054683910544 0.09222197650756647 -0.06922263980351237 -0.06836116949273609 -0.055177154549330545 0.01652333531493729 0.026776007935492997 0.10245319252619865 0.019176474701014332 -0.018434122747559498 -0.02753162893282411 -0.08023008742238921 -0.014164084053338835 -0.018598696852640356 -0.09119223520398696 -0.01100673763454713 -0.09078185495340639 0.04859504444864647 0.02097409285584178 -0.09565988860864058 0.07868211810351845 -0.010396332007344222 -0.0504820473216047 0.01553944740470771 -0.06178477280917118 -0.09545169616952516 -0.030499782216784337 -0.02356137454208669 0.09454709007831373 -0.023448242422260887 -0.044273052730403016 0.07534509565619844 0.0613134998940441 -0.05810147991673152 0.07137325627998661 0.029164232436800927 0.027042220987084767 -0.06903077387709511 -0.022911392772443747 -0.03766508784687355 -0.04181753960420234 -0.016711882088557922 0.09178586163716712 -0.09739781676724703 0.06058549241449657 0.022235829626292974 0.03283653683505571 -0.08701159342640317 0.024234820341289345 -0.025207741963547282 0.04566652571397206 0.01726681780316509 0.02302697302862533 0.07510691804017618 0.07231070325943735 -0.02078521527965875 0.026794584531558144 0.08693906437971606 0.1006298230792746 0.09273647089922128 0.04003053750420577 -0.06318297461959373 0.07930104258567328 -0.08368772364553595 -0.07950788038837316 0.07971740089400346 -0.017921827241332115 -0.037770335735666107 -0.04891562606356681 -0.0450528955433305 -0.04992053899964302 -0.03861442845473066 -0.04765381895749914 -0.013928244472981409 0.09557092939897757 -0.06809018205150956 0.010919805891469151 0.050819000668133114 -0.07153887889666923 -0.018271140602464906 -0.0006569227202362718 0.0010680106468822156 -0.021712356326849116 0.05780706893385768 0.042393108275393235 0.004997163661549083 0.03099220407633547 0.03964270333892688 0.07961137151161726 -0.07061564489449963 0.04888612284843527 0.05251049269215034 -0.0698971037982632 -0.021657184801755932 0.08346563828975297 -0.016600250773351356 0.021119798063385566 -0.03619429155818279 0.04820023997238849 -0.04875922217512194 -0.035164336375721895 0.017726073649069283 -0.08944213897416836 -0.09290709631772848 0.024166738124764647 0.038369521072880684 -0.07905358392995536 -0.008599314048870106 0.043279305017710774 0.08329127537757448 0.08599290520736132 0.010596922905470351 -0.06526249891664289 -0.08983778648354449 -0.013939886266634163 -0.03999069583865412 -0.08718886544412673 0.024901721272627214 1.4381645594777834e-05 0.05559615636384742 -0.008042090637355184 -0.01836962516807088 -0.05436612760583263 -0.047473204821520405 -0.07847354506189491 0.07292827402687495 0.0012129825162810431 -0.09175295538546348 -0.04561418049496672 -0.08943695744333567 -0.05715955561292276 0.03209233246875244 0.058322615822401856 0.01426996555665584 -0.09512564263647741 0.08151045829761748 0.03074371894620525 -0.04290867285596557 0.04352972682408298 0.018783468181456056 -0.029805737887132984 -0.09097455491440117 0.048614995950743256 0.008154000073131024 -0.0898089234253009 -0.014839224978378484 -0.049207932500431754 0.06124140642652831 -0.10271694654361722 0.040591659717063314 0.0955762944406787 0.09345462008627517 -0.08181614114144758 -0.10272187844885787 0.0969265911660244 -0.00850343334241148 -0.08117266594579947 0.07013401522294503 -0.007956060153304982 0.02012881180568151 0.06887067996528705 0.10281617230851144 -0.022236299568738065 -0.06270653298869963 0.08496954526683383 0.016160492420982702 -0.009572848293292704 0.09851879610284607 0.018241969601708076 -0.028767319159639662 0.015508263145503286 0.03024318980310638 -0.0744266577623015 0.08435030913442751 0.0751068059665631 -0.08215017642130555 -0.10146148375265193 0.08091947868695362 -0.0499223884410338 0.07780880258915607 0.08400150644038822 0.07313510561457112 -0.010075360537100899 -0.0067182236506880865 -0.023188853903338524 0.025029390606915804 0.08567134958487385 0.08912227255384066 0.01099456406054945 0.005981711635056815 -0.08214444854142881 0.001477427450232094 0.008825012507750458 -0.04634446818755083 0.03370859509436129 -0.03560391873563521 0.10082316920537013 -0.07622393904142923 0.09584119592794023 0.05013783876247874 0.07176923199634637 -0.06230648122547049 -0.09647772640966984 -0.017954507913297335 -0.03441534697101058 0.09455459648916124 0.10028786466901808 -0.06491582019114353 -0.0029963048692711733 -0.013538918778588507 0.0479421478189643 0.02286019911009112 0.008737237017497977 0.04032925454281696 -0.07215288979238892 -0.07623796833550178 -0.08221721928445899 0.03360174401432173 -0.016191751335932 -0.02003554521584919 -0.010125705309605304 -6.8841856756284e-05 0.09180099419295278 -0.07901315819500516 -0.05108113567692883 0.02571939690948438 0.003609707352421233 0.054934412394146155 -0.025868495219495215 0.021583027756141397 0.09488632540544427 0.002281941096888614 -0.014249552897592822 -0.0810882788426973 -0.0873840181130295 -0.0007497559530124363
Q1670311 -0.09970904451384477 -0.014083909698804605 -0.006554591211084819 -0.049470845514577 -0.0900512839975279 -0.03162057730534301 0.08874869554779993 -0.05136614933358093 -0.022135988972585893 -0.08148321555469273 0.07402779864361679 -0.09681767430496323 -0.003920215772382265 0.06342318571980216 0.00805657641040843 -0.012959632552460902 0.1014054310156604 -0.03844153694131472 -0.06501109960203051 0.07589792350550369 -0.07187211421412208 -0.06967161713894213 0.09040247249007194 -0.08969815145561567 0.09228141685918635 -0.09725938621114931 0.0693568543680439 -0.0352543917952508 0.021828263898587955 -0.012541038218086827 0.0647208635504144 -0.056157880124837495 -0.01175378820387026 0.09610625538924174 0.010214168942046785 -0.04932615454977105 -0.08962302189464735 0.07352733627800946 0.00636009107078483 0.06782731084773101 -0.08705140089204448 -0.08943417727251414 -0.00978343263810477 -0.0719636997369911 0.021899887762843198 0.061729012401890784 -0.02028544005137181 0.06867170802315434 -0.07107904126496144 -0.04341805516910931 0.09176347695367536 0.007663695701303733 0.0383670152066606 0.09610825396106291 -0.001569870256008415 0.028825535148266163 0.09358705112789403 -0.0936456678425764 0.04367095029305717 0.04670071306374676 0.071717573618087 -0.03926427005110011 -0.03764608668326777 -0.005984258210007316 -0.0052423143374523895 -0.08072088247833392 0.07042837494068864 0.09441552473340467 -0.10167346788717357 -0.07137944503627831 0.04738501656983308 0.0025340187127570104 0.0037885720600445384 -0.10117831354307828 -0.024520677579053154 0.08699628314538045 0.01975776636060297 0.046236506753041466 0.04314917020740411 -0.0324715289031155 -0.02224557783439017 0.08650643357714843 0.013581358790013483 -0.0863343646519921 0.021571447187973495 -0.037357709208447276 -0.011651385099695695 0.02738482063453279 -0.017870988717741093 0.0913976676370089 -0.022511635389457572 0.03655461905878448 0.07175646807228067 0.059217964477645026 -0.0784042765963765 -0.05180413707765343 0.09539110940519246 -0.039554253921571164 0.03762505668267888 0.08964692675820883 0.011980613134443385 -0.08328437206417935 -0.00890004363912934 0.016691225630974457 0.015253503795024286 -0.0332564871659208 0.06898908600515004 0.02016227593025822 -0.014060506971228485 -0.05714421875556027 0.05165382672187601 0.0028366904329435775 0.03850808746762945 0.020183526249435847 0.08557358881881373 -0.0017178760679613062 -0.019687318259239292 0.04773371769538855 0.02375513458598845 -0.09738499314600618 -0.10305309454918192 -0.09172526230296339 -0.03155818347858795 -0.07135563146545534 0.08810057836023207 0.03877778757550589 0.0640362649992562 0.08530572495419556 -0.03053994127982102 -0.0306014349458006 0.010354083957616318 -0.058364962272781436 -0.10173390844134687 -0.011463446637141796 0.07499522150550639 -0.09346702886776748 0.03234623286749185 0.048747073075348486 0.03753332456239872 -0.07519641266548124 -0.00964327675169645 0.08204031714191902 0.02213116464080372 0.07428772036284172 0.038283933961725344 0.02030836196664895 0.013090751085639516 0.060966054925146146 -0.0015934319699313767 -0.034575612908132256 0.01640481427830134 -0.013994035727559119 0.090687765872865 0.01052579474663584 0.05901565844931177 0.012368150929723671 -0.0036069012670897167 0.07848686669747375 0.050021267289301515 0.061867752418923054 0.06056212607839848 0.06787151655549153 -0.05848234139285551 0.05624664246326837 0.10273095042744995 -0.08439060745312914 -0.03394839122277408 -0.0017619644493601049 -0.009675578019237945 -0.08617411817900357 -0.015641951658185882 0.08594062303657028 -0.0025504741495843645 0.039634072825483035 -0.1032744130281158 -0.04123785582352698 -0.09328536689538756 -0.029893346589113266 0.026643878844882923 0.08368983224695785 0.0786754495786006 -0.047200670088274624 -0.0031266210010677223 0.04732015939376738 -0.10161250043517145 0.03689998541501644 -0.006768079826317973 0.05027688299700794 0.03596690478682742 -0.07534438779534561 0.009279776867484718 0.053230131443226913 -0.09023908315455072 -0.07080606123175537 0.038570255150655264 0.015115147283824312 0.05848945898717037 0.07729123495962169 0.03057907008692499 0.019385114936082394 -0.07083667915859443 -0.014270764136839517 -0.004650324040954619 -0.029839524130050595 0.009214808282990452 -0.02687995350048213 0.020304726786902955 0.06309051004406653 0.062098868469173125 -0.07143921704467766 -0.06699511708892114 0.0871232754351499 0.012935682043336408 0.05647727162511103 -0.09282482076795788 -0.09629178021435858 0.006617697654956144 0.05337098584191176 -0.0153146494865411 -0.009167003834576502 0.08181531028367212 -0.03388983966440638 -0.060447628719736385 -0.09658622767611683 0.0014371506283003303 -0.09338364634656643 -0.06198851427819503 0.0993068085675367 0.051710662637350344 0.013637845656277979 0.06943398946348851 0.08788498082809003 -0.06409391198281263 -0.04326460296431455 0.039631220593771325 -0.017519068127975126 -0.08822330915267615 0.005544531603864281 -0.08682257367942804 0.008478075426686285 0.046552431455258086 -0.07656159995765084 -0.10135410780826941 -0.011332224381370192 -0.08761081090647117 -0.013561872250199291 -0.020189274589486227 -0.060310039171153004 -0.04848745100373486 0.09107963881993038 0.027008442088573385 0.04268979638225074 0.0364041629610973 -0.017061048657899005 -0.05181959395171172 -0.0010580046306493296 0.05442331583481692 0.016541623153906372 -0.0866367050539954 0.05191365217879649 -0.011286609780972486 0.05139918167923387 0.06551574756457904 -0.04853318627098116 0.025129182101410477 -0.06414776681405567 0.0018356257222536998 -0.03293249116954935 -0.08952282922543094 0.052677783514595136 -0.04068958866664239 0.05319916950145279 -0.07763001337197835 0.02407339013523805 -0.09801568443901354 -0.01303630865782195 0.020331217502850375 0.01221088387946774 -0.049342884896119606 0.007387600809898393 -0.05349711265606061 -0.03897877470749922 0.05877636323663979 0.014103268693195286 0.03526120722748437 -0.09989191214353191 -0.025401825877169087 -0.0060890414843361345 -0.07616084778004009 0.021115494240513833 -0.011930582420867525 -0.009020489022839766 -0.0032855978363007855 0.027351373659553303 0.0585327137634203 -0.05905655305152284 -0.05369057175366017 0.07358058428850361 0.09211275118648697 0.03880679788930424
Q1443264 -0.009524561515886954 -0.039407300524785804 -0.05155159212420274 0.06010127816218164 -0.033790359691168455 0.09378274796836004 -0.030901312968524084 -0.0026135845390380906 0.05077646688478791 0.08041375786600093 -0.06787335651185628 0.025500863573206724 -0.07003180718204913 -0.007306162132484857 -0.007217526441760926 -0.0074101546211151935 0.023564435165695112 -0.05679635426607858 -0.0686000065291918 -0.06412948031574088 0.033103095747135165 0.03293672769731432 0.04647005807420247 -0.03946712766514512 0.05240244953620386 0.08617949656482063 0.05577337393056518 0.00103108074677116 0.021555827954557384 0.04246918938513013 0.04622442055566417 0.08068658506833848 -0.017049096495606025 0.07017166627614328 0.06098151231477034 -0.023752271878963335 -0.043220706861299966 0.06863666724664857 -0.0792012353481021 0.09346803790832701 -0.08540157238271862 -9.08936786921247e-05 0.05679719325082099 0.0035557636335665044 0.07287903586750545 -0.09066331311123091 -0.026296860494227935 -0.006101905996832496 -0.03897651695942972 0.06143582809126086 0.0011191556662795941 -0.08783022938696892 0.012739936781542534 -0.040314902549285575 -0.0653495835923895 0.019837684741760425 0.05470532842154717 0.00959622526874693 -0.06564381134525077 0.009576470011312808 0.09193268984533648 -0.08994722675279239 -0.07205355100071743 0.030410268524832123 -0.07793293351484547 -0.0534978172983368 -0.05391380259158764 -0.08327663077141939 -0.07467837813160848 -0.08073908743392312 0.02415344796027647 -0.020585233304669593 0.03979618789219959 -0.05581186362430834 0.09173267208925698 -0.04638020574951244 0.08429969346302534 0.006780085774232395 -0.0660299098288024 -0.09215493602901172 0.051203768393726735 0.05465852889339653 0.027963886219610455 -0.02048461411831402 0.054472925566870736 -0.0439960248936991 -0.09566449823366353 -0.08814467984791606 -0.07620814872701376 0.04282663974086444 0.06412906628879504 -0.005654038126763301 -0.06260704779647004 0.05766099086090573 -0.06946756031211224 0.03896783951375791 0.0953983047044016 -0.08246480597941903 0.09547624694765434 0.07875842209932099 0.04027642420422391 0.08539552024069783 0.053742193575817034 -0.05136964107807323 0.01016018111208214 0.054256751761780485 0.053169319338063535 -0.0025417369405509272 -0.06508431317243145 -0.06366924725558865 0.04418262754787538 0.0027048562620805797 0.020373632703621858 0.07619538889407569 -0.030439318631099666 0.044682139031041936 -0.04053189558862008 -0.08255342756587057 -0.0894671673067947 0.048626795493675434 0.004364610741995662 0.05692187749834093 0.03754705621173672 0.025394023500328416 0.05132418601642619 0.08064141657329657 0.09334299006445167 -0.08681281856980413 -0.08728631632550791 0.09230620475996584 -0.046298673163024315 0.026805771897688783 -0.085083289362582 0.001071715188984886 0.09548287590096016 0.09307833483851298 0.04779280190363652 0.0035810766042215104 -0.030482776732751522 -0.09312046832242055 0.018859525033962734 0.006712418145857101 0.07996509470889519 -0.025924241837398724 0.024099542080101573 -0.06417727023596183 0.07152364885826883 -0.06607963678601071 -0.08475397485306804 -0.09573905182437674 0.04825882314045947 0.004643054483656025 0.08346834131392397 -0.02122258928783489 -0.05751279900684544 -0.02271992758709813 -0.02160219916607163 0.02748888321584845 -0.07378396675141177 -0.09070967850843421 0.01831246261807538 -0.037347554085538213 0.08200416317904852 -0.04689268325513061 -0.015349649538195727 0.029096444689016916 0.0397209775132121 -0.0544252952750617 -0.06466269385803176 -0.07489816114577881 0.031426635966244856 -0.02918671168085603 0.02825790614047713 -0.05979756063610595 0.030234545235097877 0.00040107039392065007 0.042662310110420223 -0.08390582655688666 0.05831099642232522 0.05975020936699722 0.05292576031844734 0.01841947808346031 -0.07249607001730124 -0.08331467038127012 0.05012276732844089 0.03381227307250548 0.085046074824534 0.059348458018447875 0.024987784305763143 0.0463727650584499 -0.08313088404568147 0.03638316069017197 -0.0765327522910542 0.09610691695034297 -0.07697400302054266 -0.09393257396514373 0.09590096898974422 0.08053386016611848 0.0014178695794865406 0.07978411977530696 0.08087846201234969 0.05549261454205561 0.02125841024940832 -0.08325591473257986 0.06328115914317213 0.08202404076569458 0.01710421591692677 -0.06363938713297375 -0.09411101351338373 -0.0413052167255622 0.015139534435336428 -0.041352580064959316 0.08050175892493172 -0.0033017584039846757 0.09384006971524844 -0.0055634496383503455 -0.07037787924886817 0.0652059902217753 -3.231114352611693e-05 0.07921310517216508 -0.014517946719508443 -0.05486525152110037 -0.010872637609384506 0.03445588671462674 -0.0322710215086097 -0.03394632030748742 -0.08328884968572534 0.05534042016038837 0.04329880840391881 0.04348136788953615 0.03651352047580259 -0.08083195207693004 -0.07168370288562527 -0.04488989666281885 -0.04751031202476561 -0.02222725881671377 0.05601041615147829 -0.05880990227977584 0.07616279185611198 0.05731018800036841 0.026443056853202664 0.06387106013441957 -0.09598872803457296 -0.07054523524826412 -0.05250000229354447 0.058375261723173595 -0.06971875286501766 0.021124077193540595 0.09378593986189597 0.0031869635098499367 0.08182227034255272 -0.013794150631249318 0.08910083837147521 -0.006787390145747263 -0.07659666829751005 0.00495805959426536 0.019854126007620244 0.05826485310566648 -0.07333212877969673 -0.028750822924751274 0.07332915937842567 -0.04323212868508694 -0.0015902252852899893 0.024885494196934727 0.014360775508784377 0.06335348085112384 -0.05301875065559115 -0.06568597602633505 0.04937954710924641 0.0015542140868274694 -0.028053679673545773 -0.09374341416248018 0.08485917426836265 -0.0022020798018387872 0.03341832169106465 -1.1338826438224358e-06 0.06771691149630034 -0.008580201019505566 -0.025743753698657498 0.03915548136363348 -0.07467922277077474 0.07377841972334484 -0.06631251524420254 -0.059842308038143964 -0.03403471662747685 -0.07889072881908651 0.004848289885186538 -0.0034530215890045454 0.09512442710276209 -0.00550116726479621 0.08172353062851367 0.04986925613202027 -0.04778315390841739 0.019299450656982617 0.09272634996837868 -0.005552411803334048 -0.02235855744683313 0.07582056241996796 0.0016239406593476391 -0.002755948482944788
Q2371230 0.007988169972695467 -0.08821078650672641 -0.016653940638285486 -0.013534854524683497 -0.05074790584833851 0.032854163698266256 0.04307351475306428 0.0059409945022103885 -0.02597708200067222 0.035518877077713104 0.08992925026852443 -0.057712256677791555 -0.04796035186556486 0.03180041893754061 -0.006313182634021667 0.00032264681068296564 0.04900365705937322 -0.08146501142128001 -0.03171971848814265 0.0850178329255287 -0.05784370674487362 -0.03000413312566642 0.06707374518101095 0.07541625215301778 0.056378622649639616 0.057826707613336546 0.09266820970924129 0.07574226638146933 0.037647696490157645 -0.062419973878107875 0.03995400085966547 0.08773066654422204 -0.07901391784880282 0.07368380600410504 -0.01560477922757412 -0.09656831300303173 0.05135550265122724 0.04033310219539111 -0.06309366915081074 0.0011190451594303783 -0.09405901635497804 0.03287668935290965 0.06535835864120622 0.04184595770507324 -0.09150669752830917 0.05678696211676116 0.07657791747033599 0.08524950028340701 -0.010885101445667419 -0.07158035207889994 0.04058153916149593 0.06118276599189671 0.05392277782299619 0.03619912023593645 -0.004951088432557165 -2.576639419427304e-05 -0.07682154619904126 -0.006141303889477426 -0.028681727362642084 0.09414804938126861 0.08091476750206719 -0.02538459194684741 -0.08987107317911651 -0.023327783385158757 0.00894711700281947 -0.0888909886081953 -0.0796119360631191 -0.020325100266080417 -0.05116688694535489 0.018280607570941205 -0.0950092378854878 -0.09661905758855714 -0.043020670908118286 -0.07996338881059557 0.022335154818849814 0.06072370241700152 0.06959839387078029 0.005472526995054886 0.0798193414635955 0.06911725553073836 -0.014750651629556978 0.04586500970178737 -0.020216838546654795 -0.09478277120649221 0.008303218975754903 0.048957005904590366 0.04653075918828257 0.044808301673292396 0.017104603184151492 0.023569058153460838 0.06214760293501351 0.04313708519667562 -0.021475150067019083 0.08405109589491994 0.07166289580413922 -0.05635935799689002 -0.018077100780305975 -0.0588256219962644 -0.06628969509293674 0.07332404975574336 -0.07789966819279126 -0.07865684260225278 -0.07464098782164605 0.07259955747718422 -0.0072034116432242576 -0.061024128537766675 -0.056232366411025275 -0.015266476460868804 -0.08328557129876855 -0.08346111752184814 0.08751764729934573 -0.03987462545397584 -0.01296482359773806 -0.05505734693107531 -0.044229351705456214 0.020900149568485998 0.08136002188099284 -0.05938711789371898 0.08165487322913603 -0.04223289111466756 -0.08411705243903023 0.0618269872313992 0.09594694894788013 0.00916627548820274 -0.06652739125619878 0.027761665777192142 -0.0637255603319641 -0.08448569850472079 -0.06529171081472926 -0.03125695126484602 0.0839820561779343 0.02083858683732567 0.02381188471874923 0.05596232807680282 0.05314624982552364 0.03414492836888808 0.06506761465416147 -0.07782727038472709 -0.03837695993836526 0.006066153911412071 -0.045238352460678324 -0.07251928434451073 -0.0141733877291498 -0.0499139274448563 1.2180830975937908e-05 -0.056092265646864946 -0.08268392158425823 0.08787892680347137 -0.024040613916685844 -0.07662625804160209 0.011768871850899768 -0.07506723559733108 0.03455418323481204 -0.03050392832734063 -0.09056718505753357 -0.0012921962639061235 -0.06681835843029463 -0.0026775433089603305 0.06569998415542995 0.06919829522699635 -0.09543800101689288 0.04645031981728015 0.016463496277732227 -0.067204358255435 -0.08384039530730929 0.07686842761881953 0.05051809593004024 0.0270753942952007 -0.04788727818239164 -0.06635708307308578 0.07255253167054479 -0.07534190755544311 -0.03647016643933244 0.057053472017781215 -0.03669290749393684 -0.07288635473949479 0.03974803820519112 -0.08559900163921548 0.0357385633766219 -0.011826384017349992 -0.061584855983052994 0.06010528349955608 0.01902506752475467 -0.07430882836057288 0.07600216640678137 0.08679726096442117 0.051895889896101714 -0.025161495637871695 0.027200038435252528 0.06617526153396812 -0.04080302703938831 0.06245613497511639 -0.046796757678739795 -0.07838538543869972 -0.030109104086845487 -0.02572127564225042 0.046908924056473046 0.03493776734619009 0.08546536196763231 -0.09564473914495646 0.014181934476747711 -0.046902028980264875 -0.013672352458851289 0.0007463625126693973 -0.0694115840709053 0.04111590907392424 -0.039258645068065194 0.05978308831977568 -0.014420335444696602 0.020057193765717112 -0.06406742930461362 -0.06736721775684812 -0.09151629879576549 0.04514128052649791 -0.015843058516177982 0.0495405238536656 -0.007276294765635371 -0.016511592625983135 -0.04758336721733815 -0.015020524878073965 0.04142321893432548 -0.07533240344242462 0.014460987390702694 -0.0758175691714174 0.03924763027551324 0.09189254354075684 0.03761174517643765 0.09244194273646929 -0.050277963870854085 -0.0068932016725977 -0.0467262144954124 -0.030678380638505583 0.003183340307062776 0.04481177747067587 -0.03096909042127649 0.05654260125207871 0.0767641913956744 0.07195143854172698 0.015726225987957088 0.07881027100919313 -0.09583002042299633 0.02566422308884517 0.02548405240133763 0.06509571809747644 0.07661846064770861 0.028702643643493432 0.08491583163941936 0.051222617550737835 -0.03390772497754583 -0.05177820338123622 -0.0537764978011896 0.08455479673720218 -0.09236478135593501 0.08036675777476504 0.06115300797607995 0.09244224498750116 -0.02650634349136294 -0.08668769009502962 0.047427091509275904 0.09516835180012584 -0.07070011879956033 0.04997693346786446 0.05586844475332177 0.024302383294084847 -0.08866216157902368 0.053209420330110835 -0.07202667635045028 -0.07515478421393412 -0.019997606385777526 -0.07617749546987362 -0.07917307585446381 0.03994071874248022 -0.05840996766797373 -0.03575579949536556 0.016839277414696957 -0.06938526852510575 0.002914503800737412 -0.05084768147848047 -0.08337520012858686 0.018855704749643338 0.02194113219949563 0.09003083173520723 0.07921397134882294 0.055285080300085554 0.00905634719964674 0.06475726800853844 -0.07584703641257126 0.0324578178822706 0.08700491630681514 0.03475341424838349 0.03449185131157253 -0.042127462045708 -0.010439869728369487 -0.07153088825703123 -0.041508114028770714 -0.038781900474881836 -0.0006823954295833745 0.017371381704835324 0.06778712073548401 -0.01635326665132979
Q1222671 0.09100586184420101 0.02261199161179623 0.07211959166233743 -0.09455961131456064 0.08136266406663145 -0.07452511295690235 -0.07599282578413043 0.0643241225039823 -0.05640018108357529 -0.0850751005020494 -0.09312469376490107 0.0072321719580568595 -0.03143075553023211 -0.07409940130463558 0.05401473818725604 -0.021127010473905198 0.09833553594658442 -0.040535079722406026 0.04321802200758658 -0.09995227474221591 0.08980714525106298 -0.0556300566132893 0.009287949549441038 -0.08659244131095375 -0.003618641731024476 -0.05206929496500444 0.01089884185726721 -0.09832973801310883 -0.0628236821259779 -0.06794286102140278 0.04820473864271603 -0.06903138996344013 0.03564501756363137 0.09198531926035926 0.08546994458079656 -0.09861635499393213 0.002033921394101976 0.0586465568001409 -0.04670291271990661 0.0647666372896395 0.041613424233883145 0.01987955304738659 0.008253805240829653 -0.004184662334875564 -0.07590252665549048 -0.09705792002096719 -0.09118926936550294 -0.0734677425340797 -0.03964756266521939 0.04660939466268388 0.05230929282862361 -0.039912160992408685 -0.04887841537246831 0.07829548016368984 -0.07621203751584531 -0.05985264851665412 0.006522057375973308 -0.031112308162484417 0.033683350873173735 0.00542583009472636 0.01800146240700848 -0.008794434112173287 0.07263526120784254 -0.01098455950087091 0.06292041363487212 0.01693029282460725 0.07067760151994201 -0.06678105514700249 -0.008183617903455178 0.07379720756113807 0.09770066231589254 0.052078114652582344 -0.019481273583798333 -0.04431317728327843 0.053752826005309645 0.029323774234298466 0.0363837675439532 -0.0877331352637006 -0.00339739074688712 0.07056299051782301 -0.02935748539015996 -5.6203465388700766e-05 -0.010455062160837414 -0.03814965111298971 0.023577154872961196 -0.08287173088473947 0.08900400389778262 0.08817166346273049 -0.05046187945652312 -0.00918746093670936 -0.033046166501881656 -0.04081157126570163 0.04622099344668594 -0.028921464646174552 -0.09585339214109857 -0.029331482473000808 -0.02381258112034738 0.09676098052958547 -0.005045382617319382 0.07864365078281615 0.022986850816235 -0.03258077906254477 -0.06694828712146153 0.04146463999015231 -0.02619218568058371 -0.060034532586565964 -0.016612502297629367 0.0924648884940841 0.09850727461790364 -0.09629435550161297 -0.0778522676375829 0.016758752999761328 -0.04881399655296565 0.018141879887733782 0.028771846522795828 -0.09570187670787006 0.043932590373078916 0.04360089481937474 0.08979697699223615 0.04405539371845571 -0.04723904915046432 -0.08149932597061166 -0.09615464119905359 0.04000953331790511 0.05656684747836663 0.07849387453753899 0.06990955854118025 -0.06816609000253873 0.07872555282361944 -0.003015968189546188 -0.046327975677888523 -0.020374639429686633 -0.07429621579028119 0.05020742934788902 0.049802262805122906 0.07315928320845928 -0.01010748704984323 -0.025313161581769026 0.034607973794009914 -0.023825415712124615 -0.08811202494604944 0.08484280277375252 -0.06255283991721786 -0.05571029753458262 -0.05267292504314478 0.05432843678277821 -0.09193071158844404 0.04719395477060756 -0.06552486364617356 0.03713367010919596 -0.029239945902278606 -0.036326944101522506 -0.047820571845782076 0.0028764877287027874 -0.08939590195348857 -0.048182581548486036 0.014394580036168532 0.005547908196349986 -0.02604023498353846 -0.03799569957984708 -0.07635551624492937 -0.07251010561006963 -0.07997608839959709 -0.005040715837537131 0.014848279306908428 0.0418021651102263 0.07626404337823302 0.08164190007028133 -0.059801843918238465 -0.02962919566834981 0.046970436886475314 -0.0014972938365245497 -0.023463552730341036 0.014565040250717295 0.010898810631878572 -0.023486208906797985 0.005071930179696024 0.06961357442550596 0.05557248902792422 0.07616936160580778 0.07546497457659562 0.07341043279590091 -0.08993971164876137 -0.06112962083207018 0.08061020790351395 -0.004031927333751494 0.08147214424585357 -0.039233024300156724 -0.08400005828171551 -0.012777053984998517 0.06301487796132048 -0.04278585735607348 0.08566150088163905 0.029142951969115656 0.09696863659584097 0.024524341905263352 -0.004812645882287253 0.08809637527242813 0.08640830793980916 -0.0245366742412548 -0.0759545675541496 -0.08086673705580101 0.07240066568309898 0.02896273675503909 -0.0015635746507778772 0.05159030021721515 0.044283172620645316 -0.058406828944446425 -0.06402233222881482 -0.06410359310103517 -0.0920154412308423 -0.057424060931634005 -0.05982143220926272 0.0942540362381188 -0.0657563857971311 -0.09757392442759176 -0.061564103741935695 0.07534601045664628 -0.013209021934743943 0.060920406648577646 -0.009625371443936935 0.02266186481808749 0.06375020075691688 -0.023445977610776002 0.08117618696227463 0.09363886315158544 -0.02998025557496224 -0.07599089138051024 0.055121243528355686 0.025509340059841203 0.044359017962984956 -0.04990513834707431 0.009810358587306788 -0.07280493696780095 0.005033892088561814 0.017942858512757086 0.029545987230318572 -0.0304916138097887 -0.010903572222927664 0.011559486812562718 0.06409278800924817 0.018748538251763588 0.01640768737390568 -0.07014743570685132 -0.03538431804236133 0.09914905298633526 -0.06295889050853314 -0.029281162409622415 0.005826826947247444 0.06193141663781907 -0.06894905851447604 -0.07282595696211659 0.00716508088607532 -0.08633107216021421 -0.019529731183544778 0.06048387835448277 -0.028812211325713537 -0.04977427482846687 0.0043948281631664915 -0.004876011998223656 0.05295878292735423 0.0654539613028571 0.02585689107657076 0.07320321285397222 -0.0004068069034184804 -0.0023337145690805463 -0.018151154525778316 0.002619033585732293 0.05719374524235358 0.06764215279901306 0.06792887039996236 0.036686447317691544 -0.01745600169870065 -0.07651878892113778 -0.054252320773605006 0.06802411373591656 -0.020477601983069922 0.06911742162395704 0.05404499041554958 -0.0579771616298175 -0.09170116376668694 -0.07429001832717462 -0.0715013221165502 -0.09095553743933858 0.0036768603474464433 -0.004297226735514845 0.048981146185586834 0.032686811634173606 0.032627826143759496 0.03818061157926937 0.08379211406997673 -0.08840052755665621 -0.06277834408131865 -0.04224145947082648 -0.03363549699321439 -0.08023361981226146 0.01713269319071795 -0.05220176214118726 -0.05326374877904391 -0.031076324432882843
Q105164 -0.022940753473602356 -0.03664544627799229 -0.0736525572667138 0.09859230490443416 0.01389991490299365 0.04206771817073947 0.039870823210279446 -0.04027360221826948 0.0457390572480732 0.04577984399840675 0.005483494379571684 0.027528633840418038 -0.04933812491826864 0.02850641495973781 0.06581019802447734 -0.036047192899967544 0.1008333463530216 -0.031148435963807838 0.07073135240518033 -0.03342209532547369 -0.05086426785552585 0.0616961292337387 -0.03436473263999808 0.05458990560585934 -0.07156287359731348 0.04908969194093857 0.09847892883827074 0.0821571133720083 0.0481495701127877 -0.0912758944508409 0.055318170808002616 -0.07181671542495034 0.0857274957441148 -0.09223425189698467 -0.03195063814337015 -0.030743196220986476 0.013820930837507737 -0.013998998711107316 0.061314472630113005 -0.07807039426285038 0.06951838389575454 -0.006375927732057869 0.07830723655716032 0.044519771307658315 -0.057262765805824505 0.08916396523643494 0.00869265131645458 0.021211732410293112 -0.004901031584948334 -0.004378503932084903 -0.09467898665283515 -0.09279845268612569 0.0892503627030494 0.021204453211050567 0.06339159365423962 0.04376976007090049 -0.08570098500973847 0.05795076679800653 -0.06571452167520128 -0.1011079641672027 -0.00405477884667375 -0.06238694125590031 0.06444149099000007 -0.10044439227821182 -0.02555401258993017 -0.09988344043895256 0.0037041659654444854 -0.04441898109195752 0.011240269410165683 -0.038063091625316424 0.013441400120632368 -0.06818540084695793 -0.012549707079521511 0.045698337059874285 -0.04672806661145298 0.06567637726592644 0.003115718829017532 -0.05649015811823163 0.10088126325476482 -0.025273326404883948 0.09763474739121061 -0.04595047497413244 0.059053720509595016 0.08872642008098747 -0.03482000670472164 -0.055344616217396905 0.02521417593699415 0.025157881070183664 0.039205861204099225 0.017700652921119647 0.03087167545970425 0.02520993907517519 0.0769964930660318 -0.0524027530308039 -0.03534876421231273 -0.0461244431248377 0.027747411442844955 -0.09564622988261692 0.06238510226244801 0.0531626528220709 0.05919105714147014 -0.008236200347345296 -0.058718254000610474 0.0895020967445734 -0.0280780500103896 -0.05813671569300421 -0.09986258957831208 -0.09444981532138308 -0.05766250283473256 0.028144865450526066 0.04041635920552613 0.021157472676268035 -0.0022199756737667398 0.08619209359425561 0.10017595842495039 -0.08738204018627256 -0.041188753372063416 0.055322650342361376 0.0274296999829452 0.0072742971374608134 0.0963930406112839 0.06551307936421716 0.05517395702253907 0.04280060707364284 0.04348275236904168 0.011156238530311823 -0.07366354596698872 0.039348877401703924 -0.013676767372223335 -0.029229828979428465 0.07680561932697869 0.04778189683179983 0.03300867726044341 0.04904223097354469 -0.03175340449337855 -0.019317631721660424 0.008827004720380702 0.028452740794683826 0.0663406724406453 -0.028529884729362354 0.0858169277930618 0.05742069264909778 0.005070517192446722 -0.07889663704417245 0.09274065518237777 -0.0005692768153299755 0.07323390792011694 -0.07715914128009409 0.02347033804977292 -0.08832946419555962 0.020338366099847783 0.030474941369080424 0.05319165388300202 0.03631542940403847 -0.07172029975396828 0.05602083646840135 0.07748209716971916 -0.08426561535519567 0.0537925956090448 0.06764421651802976 -0.0267230579468859 0.048256458863241015 -0.025847966880214155 0.05096792627382579 -0.07093238318084202 -0.04354065909718432 0.07437914538369712 0.04624600984800686 0.06099284627523781 0.08168094875153585 -0.018722095562133598 0.07447799532080564 -0.016175118464325258 0.044978949122564026 0.08779799848285616 0.09267553404024899 0.028526324007365426 0.016931730819099433 -0.030397713649279828 0.011458917666350309 -0.046511008207560496 -0.06960507676606353 0.00939932945705406 0.09215747560692135 -0.055709518059876305 0.07947322103612933 0.050678400771563686 0.040251089458015345 0.06906401177429448 -0.01602770383308296 0.03895118973361061 0.054708889617913696 -0.09268174046087221 -0.03804837850185014 -0.022851334743326346 -0.10156278947320553 -0.020448311353465483 0.01800850324083267 -0.04781342613370445 0.035704931649511766 -0.05846999831464202 0.021425680664808558 0.06660069307482513 0.040645666287896204 -0.10020704967108615 0.020255853680547425 0.01740597945341099 0.008642502763130978 0.1007504849166627 -0.00018568896657213233 -0.016044669455089394 0.013495514315239989 -0.0885465531454442 0.019605781221747897 0.08979451775646609 0.06444393988589729 -0.08798479952811068 -0.0698366415333284 0.032684836897007 -0.03925935211929223 0.0762202975666235 -0.00856235282022757 0.06882511797581707 0.07826095480169279 0.07372038026706582 -0.09327786153232594 -0.009771899923383813 -0.002328221526390781 0.09358870040509604 -0.0704336536740982 0.04453721334838875 0.09990086932538379 -0.04031606778319642 -0.034874824647973986 -0.00800067187379844 0.03906836480356564 0.07839332673981372 0.005148462452397757 0.035067335865980535 0.0583856407986173 -0.005833239533251489 0.055104630551421896 0.08045657058841528 -0.0018851382833570973 -0.0774415227375602 -0.04214540526602047 -0.0773947642182672 -0.0075997410788118825 -0.07633935894713716 -0.08037450787135658 0.07350778932341778 0.03400418423967967 0.04442805576928061 0.002685895399998346 0.06847984501698086 -0.06012547585520761 -0.0892694915780333 -0.0822956456375471 -0.018077976052307886 0.06948443969843897 -0.08353936347418295 -0.07067913668941031 -0.09929582070933268 0.019593649678746158 0.06924096116556579 0.03776307914603829 -0.08062520198282705 -0.04876766417494809 0.06559565954881352 -0.0393465312514528 -0.0025157137909517656 -0.009721973300272494 -0.018253195617425094 -0.06715122759623739 -0.09300432025329909 0.01710249892655081 0.028524601008471397 0.030189987080948905 -0.09491902342770075 0.014856912876326844 -0.09678470605975568 -0.006418648265932686 0.040938814641844595 -0.07843140145957246 0.05345599503328836 0.005854273905562844 0.08329829017679687 -0.025582267053741007 -0.012255219535962836 -0.010308359575468063 0.02337819767103472 0.03311862767919498 -0.014606332276105785 -0.08725843957363884 -0.04256653756168589 0.08960475184865738 -0.06907464007815277 -0.0014264971883884445 0.004853235509618917 0.08506827784286576
Q106206 -0.036437355699508366 -0.00015466640875901947 0.08071638865456855 0.06472862952326496 -0.0350793644898668 -0.07088248330284128 0.09089187513843287 0.002649823848725957 0.003059674779332141 -0.05354080576009055 0.01585292710463545 -0.03500762985514337 0.06623236663554995 0.029378898453403933 0.0031966292059745272 -0.08480279751579986 0.07209457776502931 0.0918081812017013 0.016615787961480322 -0.09694601625005055 -0.04042777655149309 0.09634280724408054 0.033475456355621123 -0.02711707566606067 0.013514472144745228 -0.054950765183812714 0.09242969274396415 -0.08091242605196576 -0.0041157855293403834 0.09306530745189544 0.05762158430764596 -0.027747964438703674 0.027620952146622732 0.05527396384146972 0.021868755181471283 -0.0880200637287447 -0.0852455068534124 -0.036692999608876266 0.09306038053025999 0.01490507039411159 0.03800068151964811 -0.024388072178977573 -0.0609794501788936 -0.013926285277363427 0.07382739426269604 -0.09625348965990285 0.10093663714998374 -0.0506600810517745 -0.0003805311539487857 -0.0820469726764604 0.07063823504940255 -0.055505885250139 -0.08636724466334758 -0.06081639586842793 -0.08328047621733618 -0.024770094466550856 0.04973297250309071 -0.09004647719775233 0.001931483711019708 0.03834960317276435 -0.03206790089334456 0.054225788187901275 0.008950318625150971 0.0318239169536679 -0.06565696786025131 0.06271665615303779 -0.06492686504487877 0.0936304718379838 0.09899346606795492 -0.006524147583037037 -0.06697131700577852 -0.024909356271958515 -0.06690575939747431 0.05825053000149084 -0.0009455981745694094 -0.00935166104687582 -0.029170414000456103 -0.0368422414798894 -0.03033639964024102 -0.041049811211671165 -0.08209269149364214 -0.04148156696905157 0.09323465696222624 0.058879083776964374 -0.04111198762557672 -0.02570973576951933 0.0965246697088337 -0.017044559930725945 -0.09380724570425412 -0.08453662347647897 -0.09217832931455519 0.09466965913487539 0.0018591722534486706 -0.016897656088793418 -0.05369452981647903 -0.06508400164582574 -0.015963614630037554 -0.04266074233699955 -0.025298558520154137 0.0037711801512577865 -0.03052921869651579 0.032337347591367874 0.017451575402898836 -0.07476021572074086 0.062162410833530996 -0.07710336305299283 0.06177213288285557 0.034924269353596715 0.10043144016848883 -0.07636307574361188 -0.09115200089360354 0.09713257445310262 -0.07750737629244232 0.012014169041619682 -0.07146920710945852 0.09454009233521207 -0.02033592506276289 -0.04899427236826293 0.010404581648084265 0.06615137910991593 -0.015407437061303918 -0.03281088399707836 -0.10153488320825277 0.030436019684380082 0.03897084162492713 -0.09472825295148203 -0.014595948187104094 0.010152448735479514 0.0575668508494129 -0.09595360004339351 -0.031594860943239794 0.01564552341122356 0.04446289110224511 -0.061066223884092684 -0.02080902991120755 0.03777906317219408 -0.035831414200773175 0.04412981133165847 0.09379942011985444 -0.007366938597931829 0.08238335207553922 -0.04771177469411796 0.07973509854458777 -0.08191615558465969 -0.016372700056511123 -0.024088418526607713 -0.0003090784296169545 -0.04092173440884943 -0.06541847129018587 0.028322453446343546 -0.06039806407187151 0.05861268550597963 0.06973961866150188 0.0014366960345259202 -0.09484606821952726 0.022713336218165014 -0.05472006720817127 -0.035339708468823776 0.07258170397280501 0.06284801628953385 -0.019050229549611202 -0.04978745640917058 0.06920132705934774 -0.04074240594192452 -0.0149719270121273 0.029579545540712664 -0.002144059639847395 0.05919517686541472 -0.0023919534884224657 0.008757516617204752 0.09401134607206463 -0.07532073454052597 -0.04403726479189656 0.04962257102457123 -0.05715159329107292 0.05009490450374239 -0.01811434232152342 0.06437000025526723 0.010036845850199184 -0.09410679381018125 0.02751517678626775 -0.08875607973068074 0.05059582756992647 0.0765239336475301 0.025977452531231134 0.04240203284692841 -0.066566773401375 0.05934771412888893 0.027415581798220394 -0.09105127452486207 -0.04610070460780769 -0.0484278047571649 0.027218180017090157 0.037484431541098824 -0.09251469916838909 0.044245302129542585 -0.02452498592119393 0.07042681334425657 -0.06877244476205853 -0.07677099197877582 -0.08131094269544586 0.012668326921137554 0.04110051763325884 -0.05269717616222755 -0.05168045632481747 -0.09726767002734461 0.09210034229153967 0.0327713551360586 0.04405379982025832 0.017262242413762435 -0.039280962518003254 0.018909610130391222 -0.026463119358180846 -0.0919682593467407 0.05314008774053176 -0.06864292858337039 -0.07229487184219585 0.001875618830567645 -0.03279953160210217 0.002144330958622976 -0.10135575626953924 0.009183193196509534 0.06802717909886678 0.06529042132401333 0.02456778978751483 0.03625689875179471 -0.031530660453945 0.07074247335990182 -0.03814257572295732 -0.09013635441226081 -0.09856170830249161 -0.006193029986618265 0.039344221342326235 0.08624628976044428 0.07591338568053295 -0.0656174131570073 0.03125421642448917 0.08332497961871434 -0.0006058269944674853 -0.03134107780594348 -0.04591210955061338 -0.06896334077482864 -0.01847414796165515 -0.08918697378476277 0.015450571251386882 -0.02684558861738934 0.029585686648498522 0.05756882876969972 -0.06971209658891192 -0.06735404916591263 0.01514493085470597 0.023526790188450473 -0.03693671527353906 0.006527384099795004 -0.025087432144784195 -0.03895963613839588 -0.03716730093078422 0.09238381734574058 -0.026146098766340775 0.02577881835681752 -0.07181436557239772 0.06655382744739878 0.026430727545959404 0.08458694528037781 -0.08508722221527269 -0.05061924670589614 0.0012208453819641007 0.05335989758568447 0.03670308537500073 0.0910470371462462 0.06487430071989017 -0.0666241971966269 -0.05865569995371478 -0.032704926089575884 -0.0495223743230925 9.140445736260904e-05 -0.09305717472272179 -0.006569086469058802 -0.08443961470186799 -0.07686028210730893 -0.04601153435205793 0.0726165924131544 -0.03969607909291237 -0.06087898087329174 0.015306403195536129 -0.05401611688847632 -0.04262941797095447 0.05488147689104969 -0.04320700374519137 0.05895701606251656 -0.07088663940074864 0.07388517859086632 -0.03891261725457295 -0.06069337827890684 0.06259831224332765 -0.09164527887142777 0.03209751634599907 -0.04003454430590114 -0.008071054630146226 0.1000565443039852
Q109979 -0.035862006147000386 0.032964588627845806 0.059887695830397984 -0.06593126591443725 -0.0514071633336064 -0.026398063503460214 0.07528032376781091 -0.0396185369582077 -0.07263911242078411 -0.08098932838327312 -0.009583428448611826 0.07486820738340692 0.09612754899376232 0.08027364263421412 0.07578736705518266 0.0394480507337353 0.05792243757360632 0.022219919898060658 -0.050564236800086315 0.06919079676349227 0.01133536330929596 0.006569364763545534 0.07409546879772706 0.06772771786563885 0.04340755986245382 0.0011775087288508786 0.07161869304489431 0.09465837141856277 0.07524603644937523 0.07001836127584786 0.09437483700347639 -0.03451188550507981 0.06544635429415538 -0.0062586804764467475 0.019389255350888274 0.05835860031148622 -0.02232054363767585 0.02428532918761522 0.06180152764873845 0.0018562938399174014 -0.07441865143387771 -0.0764715265628827 0.08633764240682382 0.03775882190403387 0.07771713529916735 -0.040809888585102656 0.0332689336064897 0.042427330536945314 0.08447215731420879 -0.05671059592525053 -0.09490739865529153 0.022993308262654503 -0.08939368088246623 -0.04369090070101969 -0.05448356147429754 -0.030482107273733648 0.08234068618031962 -0.005677371436109394 0.009248525583570167 0.013734874346746712 0.05068668437257392 -0.0595490523009853 0.009643034252610178 0.08090113997629222 0.013427864847303489 0.015712765453922545 0.03720127697172483 0.08442763679163615 0.046225332790939676 0.06353114110031492 -0.05035266342067723 0.047340400426637626 -0.07322964602278825 -0.09548016865165183 0.010194634435422666 -0.09456251816868987 -0.03846479550091889 0.045929000166909616 -0.09109226964660384 0.008061202820304383 -0.04869079168668047 0.05700974612692996 0.015174732417875226 0.007715799386562442 0.045733799334101044 -0.008540396836989348 -0.08065553841927399 -0.060154159257377646 -0.07751986276975907 -0.07557251896914262 0.09431994856875732 -0.051019966443784974 0.06855642502597036 -0.01487517761881894 -0.05461026989543245 0.012988697407688828 -0.07608799469598532 -0.04683718104342333 0.09617191067181254 -0.050734481538853474 -0.034492385403362524 0.029973803638733348 -0.006384083768757605 -0.043015126619094284 0.08454771441590365 0.005074456623329345 0.05246251474304067 0.09123549695599409 -0.02462348847720952 -0.010424702328812228 0.07908392944852452 -0.03770817236525942 0.07508780864722109 -0.06749663676559393 -0.05600385856716091 -0.030791760729877386 -0.06052066779763885 -0.07666553784973404 -0.03485227116695974 0.06975527218458648 -0.020592237150444944 -0.09611023626951783 0.021685624921045858 0.08907116772495746 0.0198185239420455 -0.026793407074175556 -0.04491548966580963 -0.00984176919342598 0.025425511484977154 0.07090882106862195 -0.04383147392874897 -0.04046012058738847 0.014731406423597975 0.05319776037714259 0.007085793409156209 -0.08943917517787293 -0.07401959887226964 0.07394218049913989 0.03326365819073573 0.052114914650755594 -0.014151399004348676 0.08142550474201532 0.07091675999929536 0.07920120439992187 0.08351039802495017 -0.01807260919329456 0.06924245357869951 0.0788014307786593 -0.08006624510846302 -0.07304134189522589 -0.07253065922655273 -0.03005709823293304 -0.02643972439040122 0.04129827429567265 0.0958058447490012 0.021634309654724168 0.06790187465190659 -0.06337537281703993 -0.0649017430590714 -0.06556768799621611 0.04963102906279398 -0.05669076632148806 0.05844248300116938 -0.04064909318408889 0.028063475873906837 0.05387356985481764 -0.09552917386621572 -0.051292661332471574 -0.082588583877266 -0.034325753749993256 0.03587277423735412 -0.056732830567505055 0.0496344158044396 0.03955415895769191 -0.0943537702644368 0.059300562347396384 -0.04334116309956795 0.0875667030028775 0.07013608863675157 -0.09682331292750654 0.023111916212575672 0.019111444468734192 -0.009423933085432079 0.003714742860366569 -0.04403727605015117 -0.03968556182141121 0.056219826767954555 0.06454318758679348 -0.058855484305886614 -0.06252134329846312 -0.06106987954157444 -0.08457714827906346 0.07173897910786907 0.09294123705757058 -0.04560922768818179 0.05846845356298831 0.04169084431361016 -0.012534555298093133 -0.08425351477650457 -0.03111364086807837 0.010211979558179797 0.011456934351053317 0.008449852252308385 0.06679783403390344 0.03483144576735164 0.0888235861269907 -0.08539261940601933 -0.019101105415745622 -0.07903707871978066 0.0017451536966873644 -0.040100001740128795 0.01333224664425182 0.08815940275497915 0.06994835513730638 0.09537724559908006 0.021941552629731145 -0.04163171570669458 -0.08431665354006694 -0.030590687346993068 0.01777347658630637 -0.06275599692397936 0.018487637631404243 -0.04139911154444826 -0.07898774295611215 0.07339134968486279 0.0409680180716403 -0.08117918073885555 0.07898667079854146 -0.07693867767436278 0.04442027659370352 0.015606667842706133 -0.04426296991272922 0.09361637231723502 -0.038457140731523266 0.06356749588649514 0.03718944063292013 0.08702377835912602 0.05333339881293265 0.01055181120621976 -0.06793902560647126 0.06827204281950637 0.06550841867822614 -0.05419085960444375 -0.014654272551736462 -0.005121925551639387 -0.0540099199827528 -0.07816161112264364 -0.06155144801422881 -0.03728150627555127 0.031018039274437824 0.0321743194082441 -0.06834594724962706 -0.060597458868677484 -0.022388168812249074 -0.05815047007031274 -0.048163386020192926 0.09013889640197648 0.06172004842328563 -0.040819755696934516 -0.027117599788397947 0.032173999907861704 -0.027711257406722044 0.02361986717670875 -0.003806241330847262 0.0748702082337909 -0.022955579342916393 0.023231422723416086 0.07355902604171859 0.01697489052338473 0.0046715141407482775 -0.08906929464998833 0.0955264004722618 -0.03786195445640504 0.038762192063266206 0.09744863376342627 0.02338094376048357 -0.04848442564277109 -0.09030034695477701 -0.021428189159007672 -0.008899984954504954 -0.09706167572096341 0.0923618767507022 0.01484194269420725 -0.0906302702890182 -0.05021526909852125 -0.04477992489229784 -0.08796558182629398 0.06753117270031132 0.08733172605871659 0.008180947410877906 0.042762838569654155 -0.04281422363623376 -0.0393076684696199 0.047991092000980784 0.03547519979124334 0.01696002770545837 0.027692140337871967 -0.09471842280134979 0.019651012313372056 0.039801070630102166
Q1737701 -0.06585945189432865 -0.025541723451355306 -0.05714995915605317 0.05463288277551762 0.032678724050979345 -0.03496676172582194 -0.020188507639722388 0.042799751534693 -0.08075719445676895 -0.04535575404553968 -0.030626951754580006 -0.015201342599444865 0.02605631339037524 0.06014325015631465 0.06100470167922523 0.08384953422114785 -0.05275806539921325 -0.07014345108272352 0.08735890266494953 0.03756800608016694 -0.022782206923988135 -0.10072104317778995 0.013484575235196552 0.09681480900846605 -0.019576096270693562 0.03339250108174654 -0.010262701650477352 -0.0057635486102503 -0.019139143233783684 -0.07635934597356267 0.07040512004810197 -0.08026688580795117 0.06449953113625967 -0.09343697506410908 0.05139407796632396 0.040195819907667234 0.06548831775412123 0.034179939048193955 -0.060586695431614955 0.058384321364755014 -0.015105557154178098 0.054537789443233516 0.03299518518468007 0.046714198608247055 0.01506674196989155 -0.049007046527607845 -0.07128966575298759 -0.08362541556364833 -0.10510070306701096 -0.03271140292049067 0.05070495604189912 -0.015293736652252784 0.008679904076928376 -0.028133672126855632 -0.0944836939018049 -0.10078777071961555 0.06024225482602018 0.04460913166005632 0.09984329594709668 -0.06880346516117565 -0.01541447989771834 0.09134932009401255 -0.04410763456599027 -0.05953886372293554 0.08154721305577604 -0.03719272466100907 0.03637297362913455 0.042393206566076126 0.054286180911607494 -0.012461779532133453 -0.09209847738209283 0.0657117767862614 0.09899368299419145 0.0056795462010547975 0.00961240225418948 -0.09756840498582442 0.05184327852099091 -0.05528864761799106 0.05151940405067056 0.014946866145955445 -0.026868074011597992 0.03545566282199484 -0.08566639152547871 0.09685315620705948 -0.05020086176990461 0.07571588353041163 -0.046117994372311864 -0.037088998010758406 0.014016547798029095 -0.09148582082029355 0.08182884892970649 0.0789495986163038 0.020337978613947857 -0.10104745968125413 0.027100174808580985 0.013155032318250767 0.03764648338123352 0.08590401353132199 0.09022658375839022 0.029423333453483393 0.0691104109724634 -0.004962313151881824 -0.005294350784102974 -0.028707626409823783 0.0020551419438437006 0.06455843728206162 0.011102667394037634 0.0460639551055706 -0.031844977119763355 -0.018675786704511792 0.03940312602838569 -0.08663767179818971 -0.01618245437305043 -0.01280729436914382 -0.03783349674670174 0.03408150016146264 0.019275992636306884 -0.06199483682980242 0.05715056182244149 0.032602069673874585 0.05177246808126528 -0.10392489839820745 -0.008036665963250098 0.09019742703782373 0.10160522567439428 -0.08116503978849525 -0.02749905541363781 -0.015356404221165085 0.002429060612649941 -0.02471258289101429 -0.08189219613611648 -0.024400149443035327 -0.0008796579978168441 -0.010127838681635918 -0.023990020502402138 -0.08579595335070124 -0.05541475377965409 0.013881194913272716 0.05450753330378473 -0.023495301788201316 0.002272317717138426 -0.09541530612405362 0.0448255192414678 0.045773392107674275 -0.08646493587834446 0.055713385819257555 0.00886817946082649 -0.060445154549185975 0.038023498255852835 -0.04495190920474848 -0.07912371798864284 -0.002229041958948609 0.05156314856412464 -0.0868734375454225 0.09200664731251428 0.005065049338300915 -0.023213435722865706 0.07638249204683348 -0.06793143531404139 0.07367211173622024 -0.05672351854851472 -0.09433556034662997 -0.03765487996571282 0.10369882762057658 0.028295691894966866 -0.04291051763760643 0.022021659425527758 0.07974904751119008 -0.062458516919920694 -0.030799537276186475 0.01205539047526959 -0.04345812227278104 0.017330417690920405 -0.040574356703771755 0.051082330667277034 -0.008793748211442643 -0.034664078970539705 -0.025508166556618382 0.06378918178453943 -0.0871818861457117 -0.08969531483588308 -0.10112156552011156 -0.015031706358619222 0.09537704987145648 0.09782230378051307 0.017162112236407748 0.05811688364529269 -0.06790342889117801 0.01272666629448484 -0.06346716601568426 -0.051143313944796535 -0.024885590925960575 0.04118269665435161 -0.07755938762330468 0.04594545821894202 0.025973852024928103 0.06674679792869977 -0.10501146475857201 -0.025197839891486013 0.08242749721531044 0.022834920680939806 -0.09807445729055618 -0.004756252362065624 -0.062371157891307746 0.052875531793224705 -0.02329572653665135 -0.04015749087586642 -0.07203574574869755 -0.09398416922467322 0.0532484897093804 0.1013930762677542 0.06993088608692413 0.028327692791848345 0.05883179210169716 -0.06768811950823346 0.05917057433941101 0.06946597259678071 0.02335986718502677 -0.03372783503019082 -0.08351226498211765 0.07614920691727195 0.06693800106965166 0.09116714660427903 -0.03664429708285246 -0.007131252480580135 0.005149487897477718 -0.02691374250061579 -0.04208167487292472 0.0723901429142112 -0.09156288224363182 0.05762497179316421 0.08755769271572877 -0.029905540382284365 -0.006959530809119731 0.05437922911717321 -0.03834075610675808 0.02288300807938965 -0.0019085381136352748 -0.053859157466972965 0.04499218702157166 0.09743707617558563 0.055613211258361946 -0.02435126490492197 -0.10479443515324177 -0.06697176258070515 -0.010836197759512625 0.058969997650881484 -0.03530105469730462 -0.04790274486286444 0.08089690874140394 -0.043596012513352024 -0.0689251030801321 0.041801090740833304 0.04524628822358803 0.03992373927989979 0.004796904530315788 0.05210269519959727 0.01710959893844907 -0.08890721486535705 -0.081839170937782 -0.05184670042733374 0.04840215435057702 0.04632467576454686 -0.03241873387341589 0.052644087664745154 -0.041048347084782416 0.02924717280177478 -0.08442846546820677 -0.039967453262228184 -0.02605064799957146 -0.07226445515485391 -0.02514313797751203 0.07623085528416582 -0.06405139615106895 0.024146101291438366 -0.01644020196791015 0.10356456498281413 0.04042616692671705 -0.1055633764761221 -0.05500933390886613 0.01905330683128818 0.0582237122532501 -0.04123395372991751 -0.04145972468147912 -0.012464190847288753 -0.02623747033740223 0.07562063210858855 0.05530301000558992 0.014111604255657792 0.0632738981063417 -0.04103862278138447 0.10657300523901994 0.00619715796038112 0.028719764072732534 0.03663728857213227 -0.07815625583058497 0.08466139872588259 0.03614406303030664 0.0904114064830377 -0.03092515296352255
Q61897 0.08984130428931007 0.04085292784912546 -0.0018283534722330606 -0.028967709197398505 0.030308225230814147 0.056103526025715285 0.07077294276030911 -0.06047996345145394 -0.01576226941755349 -0.08018983882472318 0.00022123557814013144 0.02372238845829651 -0.03372507156018458 0.010194928894859756 -0.089564176781229 0.024089784295451167 -0.033778839515599526 -0.025028367157165988 0.07631015746618557 -0.03461097318288476 0.009578648083016669 -0.015983252188392336 0.012638603392282533 -0.06062675727461449 0.009193907280652164 0.05261090437082349 -0.009697617540071922 -0.1010548373671487 0.08763682982070492 -0.002202007975681977 -0.025410860254518605 0.020620058212620213 -0.026688026787062256 -0.09063770891026095 -0.05174124812295181 0.007338944717701088 -0.062274672521884206 0.004796717314297493 0.031275950516477385 -0.008483766921137203 0.095341388363215 0.04208417684742186 0.019086735051284155 -0.09789963683183234 0.04394672450466602 -0.008040141033323137 -0.016257191049685944 -0.04830024348972737 0.04053336896985316 -0.0474273921636984 0.08871289964606588 0.0804225632368313 -0.10333888647225253 0.04623752691934371 -0.053377181140267446 0.015444774691359587 0.09036838291446363 0.03214815943786013 0.009830062554844997 -0.005187591681397581 0.07257392592950702 0.06513015370785843 -0.0941535723536725 0.07186862292642628 0.054493022928592705 0.0788561849978711 0.022530154073964737 0.010374404887621251 -0.003887963262080684 0.09507531628392926 -0.08120460172139765 -0.07470360297565398 0.0193475194863694 -0.03324376112731739 -0.08970465696905076 0.07518130846137037 0.0635478549872346 -0.06693356560513686 -0.0922820112397178 -0.07867425104703746 -0.012386506763234419 -0.08705178454407093 0.09318627067992652 0.005975229781459251 0.09854759950715043 0.07443643025518157 0.05197496307097488 -0.08205613030114237 -0.08492652657997059 0.0035145367901753895 0.07972641751780281 0.03364862916030944 0.06084736948333489 -0.07585877161882756 -0.01870169676381532 -0.043897456954946366 0.021383196348512507 0.04586150523146183 -0.09967300541271382 0.028147915667014974 -0.10040278368648736 0.07587014450636123 -0.07166756766420927 0.0344216204522425 0.003784212506266743 0.06534757354824619 -0.06239394114967922 -0.014455336087713643 -0.011488690127574254 -0.08282250220787479 -0.029922497430038688 0.015733716438741625 0.07545733637351289 -0.08197606104152177 0.04273222634076306 -0.048344465403422215 -0.07075609943148288 0.08064885433167479 0.031514697060566074 0.03467970282961392 0.06875841262478583 -0.01679936727228189 0.036880088361462796 0.030676546595188155 -0.06335101329263762 -0.04063711723029314 0.06615802609947319 -0.014432624977369019 0.04137685801142206 -0.019311124961592648 -0.05975839951365197 -0.012025361358477784 0.017045210808949423 -0.01736507336080808 0.03328464173284383 0.07194590481988725 -0.06047230763331269 0.02327448573211932 0.08874139755087886 -0.07686935909860727 0.07998806248702119 0.09384757099058709 -0.0682177945722087 0.08096567145519719 0.00499155409116054 -0.10164079882100814 0.037196194051959515 0.07326531985305092 0.08453097729753739 0.05822473462041444 -0.04199686490344695 0.08252568512245931 -0.09126130007368603 0.010918706220850161 0.048933357258830475 0.04498092962434814 -0.05875123223722062 0.016396361362255845 0.009249993835890783 0.07962261054312238 -0.02886034789489499 -0.010355847292327776 -0.07425480683959305 -0.0010068399448145311 -0.054751241556729925 0.03209857725554855 0.044446882424256894 -0.03430144702216265 0.08856531549972597 -0.006380267020751846 0.03567906066845213 -0.03317741747324636 0.08996457777408763 0.08947660691402613 -0.030046202286062286 0.030888781704024253 -0.009119840994826104 0.027914215061786676 -0.006806124701241562 0.057507691031801506 0.04195661611690002 -0.045564983584418454 -0.03370672332087929 -0.09228600547469534 -0.09915828671126276 0.060334704587593255 -0.013307880409673137 -0.09857674166674786 -0.01844896399778206 -0.08851358403221361 0.08466536093904485 0.04068335488004052 0.06929285587012332 -0.09793630840937893 -0.03307725030325079 0.022477837364047557 -0.03354661002556585 -0.018499609636111837 -0.04086481953773231 0.0022681253733819865 0.0102862125968071 0.05984559294647583 0.03593972186564832 0.016452290723817622 -0.06282193463634622 -0.061937737618635844 -0.01851160910623333 -0.0055255291147382575 0.06629231585783728 0.05591381849648461 0.0824517678992971 -0.006096957908655405 -0.10085917734566488 -0.007855801590868771 0.025765609392358942 -0.02451084078958767 0.09517878043206746 0.09617424885710485 0.04971550156131668 0.04787890745404396 0.06195828790664064 -0.03627340791208946 0.019306451741624018 0.05772670418172534 0.034714072475351555 -0.0506580591588137 -0.09287971269025222 -0.05579224777713994 0.015964689188936027 0.019057473470983462 -0.06746504736080372 0.0841413984367602 0.01522469084966338 -0.04885251273849362 0.07620439131390389 0.08911067913353167 -0.04214546437496723 -0.022492567924593393 -0.09931217728306442 -0.0859396620814665 0.004012958847547575 -0.06692634103204263 0.048289222259194124 -0.06387865460223445 0.03944185740402318 -0.08927924505185192 -0.053548448448654605 0.010752392955807932 0.02188696945609702 -0.06614744912187343 -0.09647758624251693 -0.014852721594588494 -0.049946270299383415 0.006613836123972673 0.027746427737801407 0.09125048012983678 0.04699913635224546 -0.004837956481621772 0.0003856128291067273 -0.024447848724547295 -0.0196243197927448 0.002622146514944976 0.03792101593802996 0.10099410903799327 0.06936884300047043 -0.08303038740991234 0.05612735970057084 0.07243741917477778 -0.0017804378749073093 0.08335576591976959 -0.015510462152493354 -0.023882187884041332 -0.01753755259105068 0.0005696665534130622 0.09559561135317945 -0.05460670310016343 -0.049132436426485515 0.03286421331411236 -0.07773835704138148 0.07549811020543074 0.07959350073441301 -0.036466302366498546 -0.025726507235550394 0.09783922540666871 0.07461876818369698 0.099621773416499 -0.08032738668838638 0.09353249426089681 0.010274836834298418 -0.10455290824275007 -0.025893358527661055 0.083076263396789 -0.09880987416791318 -0.01133568765989202 0.0847529941397295 -0.03470906812523793 0.045674035493831214 0.01607212769217767 -0.022729603574528513 -0.022264287655968718
Q18624335 0.01309977819188443 0.044494588150976476 -0.0550720019997894 0.06222657288579825 -0.006628837887555217 0.09895186541093368 0.06443213570012953 0.04648234810006663 -0.06376257000480548 0.03711928920004243 0.07820185157482995 0.08481832807821595 -0.0993432265597437 -0.012362769639510308 0.037941266327730934 0.0083094964594003 0.07081598791511722 0.034935202447979784 -0.002917128886890931 0.0014896365312608109 0.03553045181035145 0.03197290444704107 0.013358298696468424 0.02852730224687065 -0.09939610743381186 -0.022117664057354824 -0.027261857614011224 -0.005904339845267559 0.02583291989292908 0.058672165357895746 0.043655271025598096 -0.09276564292958465 -0.044511618274784066 0.02702751253427495 -0.044984831738385876 0.10416054518003487 0.005991492805121694 -0.03145625761654511 -0.09497588298313718 0.05263573298077109 0.0937417229323365 0.037406435130819565 -0.04005599615573734 -0.10036036273825162 -0.08390681300249657 -0.01680058265501834 -0.05974616742692078 -0.005147020698422869 0.09579296058825935 -0.011236883441933129 -0.09424082440590485 0.013661174608307318 -0.007382090286616035 -0.10174210640797754 0.050953124795695456 -0.00857985217221126 0.08691709308103579 0.04857142410766315 -0.07627487452552804 -0.025081018795121503 -0.020328248200933305 -0.06524820942683164 -0.08334278638266811 0.08840897381139688 0.062483862749399294 0.054556587553421264 0.02583868655534009 0.08536291237125201 -0.0287015603759281 0.057550085129896664 0.07429628347368927 0.057792178039969576 0.0281343117203443 -0.017152607943210416 -0.020014209527446442 0.08975902656369329 0.09467712804855069 -0.04638552416047602 -0.08264997215980138 0.03697490131043322 0.044866482023007886 -0.06786458706158227 0.003944711278785277 0.002624168711310664 -0.03902757180433679 0.060954084398946846 -0.07534212317612826 -0.10110161400509174 0.00806867497830275 -0.10051496234261394 -0.001570343968129247 -0.01583414501813259 0.03809863333740286 -0.03396118930169769 -0.02114683747072452 -0.03370020172155339 -0.07854105551104912 -0.027179239340036538 0.0504625891840483 0.029521184950011846 0.06444966525004281 0.03343778809405811 -0.037932964515974645 -0.04825541437749554 -0.04444373386062855 0.022688465244130932 -0.051688160678051535 -0.06922848357085222 0.0011756889945506543 -0.019183391997707525 0.0764521211156203 0.008218413867983118 -0.02228924641836089 0.05166004268179144 0.09870581574573484 0.1016368946766399 -0.009604868259443226 0.09258312758266804 -0.05026080726010993 -0.08847901651237637 0.06360043711629282 0.0951552374015484 0.07860065573275901 0.011339726594777525 0.09415018059179837 0.03895916026541935 0.012511907334769699 -0.007087936920052753 0.07941081739983358 0.00975202091657198 0.028869780631414352 0.03775816853383325 -0.001753915076684672 -0.08769610971502705 -0.0033616082801016535 0.07439393783825926 -0.07503613100342885 -0.01491128147937276 0.08598300277799874 0.008274368160738111 0.09167933341067067 0.015442458185560157 -0.05976482000777157 0.045428490750060176 -0.02955231164107702 0.08654504165632379 -0.050503680725788966 0.02690592582415998 -0.0691122582044545 -0.06593234587399147 -0.011332193260143864 -0.009057588594353232 0.07153639424112629 -0.02449512524128316 -0.07165989483759938 -0.007776564773456388 0.02691691287137789 -0.03586133391471151 0.004125421495945905 -0.029208527640102833 -0.08921620309299573 0.0796319405725909 -0.07882281402968178 0.1003834372464088 -0.083349588897493 0.016025608427692798 -0.04227433492907559 -0.08833035501922949 -0.005508309501433891 0.040951678049950424 -0.05817332154767227 0.0894135275482604 -0.08527755983062651 0.01789414020160661 -0.0006146059044823841 0.04542007139262423 -0.02560703718548035 0.028702428285436832 0.04492877166536715 -0.08484297813197367 0.07248366052760982 0.07207759705457142 -0.10172369023555357 0.086183922238874 0.04811162339937194 -0.01999224173365532 0.035395008686326626 0.05824397407352431 0.06251425765014965 0.023149566815504893 0.006131249131291225 -0.010175452081870972 -0.06396092644949436 0.06337600100176682 -0.06573276993955375 0.054487217390463326 -0.059966393075928756 0.04660243116025976 -0.09778627950595323 0.06899150012973894 0.03088102502794908 0.07609007556719714 -0.09176619514151227 -0.04924169148927198 -0.05804564776475157 -0.020165301994738614 0.10205620965489588 -0.010306761068073905 -0.035630448802840414 0.036833441609369126 0.04278237759903147 -0.0856414109975761 -0.008830977913503521 0.05953635694365725 0.001310055765816256 0.003426475479881453 -0.04257186529927379 -0.07130627322790788 -0.059220001126453745 0.054935202317380034 -0.056108919477510164 0.03355374538227556 0.061521815181007154 0.006115658449083105 -0.06378295076330184 -0.09306866455182884 0.01667354763624683 0.02813338827627875 -0.028889496997932536 0.052519242718946244 -0.07673609268888866 -0.00910383620313611 0.05689216459234125 0.024264970645562614 0.001233054294757827 0.03755572876494595 -0.02371487599979577 0.06706446458555185 -0.1005996276498532 -0.09943135963681829 -0.02173549549597407 -0.07224614654661081 -0.0638144268918908 -0.0536224400630119 -0.06397519240799751 0.022694825368588037 -0.09941064343803857 -0.046747956014423914 0.10155477527243977 -0.02921549832749203 0.05653228102594886 -0.09991060214469341 0.05227952925289867 0.08235939310152446 0.028323554070285972 -0.02814376346592863 -0.061849592895775775 -0.05231683866002341 0.08630947021959991 -0.03095620123505973 0.0006686708248156493 -0.0013249013793917256 0.09561880978065057 0.03571965519699181 -0.06335267150124027 0.04802875033072635 0.037323110454688814 0.05834883178236407 -0.05793188995360577 0.06226487290513547 0.009116169689158389 0.056617860008085726 -0.06880449783207976 -0.09146453240892298 0.054805007713485045 -0.03886302792347375 -0.07247509722658581 -0.008742302915093602 -0.015621277219523631 -0.005078487157997654 -0.0330082365151122 0.011244705990584174 0.013532796391862615 -0.08186846263522847 0.0165012082402552 0.09164834831695264 0.07518432455670282 0.022405134662630884 0.029788309792133757 -0.0882636233002198 0.04050129731672103 -0.09581371615832691 -0.04154902581375567 0.10274247589808304 -0.06977813917108701 -0.025691764713701676 -0.09949279360369698 0.006149092708772737 0.0717596364737283 0.017194369458846195
